{"learner":{"attributes":{"scikit_learn":"{\"_estimator_type\": \"regressor\"}"},"feature_names":[],"feature_types":[],"gradient_booster":{"model":{"gbtree_model_param":{"num_parallel_tree":"1","num_trees":"100"},"iteration_indptr":[0,1,2,3,4,5,6,7,8,9,10,11,12,13,14,15,16,17,18,19,20,21,22,23,24,25,26,27,28,29,30,31,32,33,34,35,36,37,38,39,40,41,42,43,44,45,46,47,48,49,50,51,52,53,54,55,56,57,58,59,60,61,62,63,64,65,66,67,68,69,70,71,72,73,74,75,76,77,78,79,80,81,82,83,84,85,86,87,88,89,90,91,92,93,94,95,96,97,98,99,100],"tree_info":[0,0,0,0,0,0,0,0,0,0,0,0,0,0,0,0,0,0,0,0,0,0,0,0,0,0,0,0,0,0,0,0,0,0,0,0,0,0,0,0,0,0,0,0,0,0,0,0,0,0,0,0,0,0,0,0,0,0,0,0,0,0,0,0,0,0,0,0,0,0,0,0,0,0,0,0,0,0,0,0,0,0,0,0,0,0,0,0,0,0,0,0,0,0,0,0,0,0,0,0],"trees":[{"base_weights":[-0E0,-6.8679247E0,6.385965E0,-9.655172E0,-3.36E0,2.8965516E0,9.655172E0,-3.1428573E0,-2E0,-1.3846154E0,-1.8461539E0,9.230769E-1,4.2352943E0,2E0,3.1428573E0,-6.6666675E-1,-2.4000001E-1,-0E0,4.0000004E-1,7.2E-1,1.3846154E0],"categories":[],"categories_nodes":[],"categories_segments":[],"categories_sizes":[],"default_left":[0,0,0,0,0,0,0,0,0,0,0,0,0,0,0,0,0,0,0,0,0],"id":0,"left_children":[1,3,5,7,9,11,13,-1,-1,-1,15,17,19,-1,-1,-1,-1,-1,-1,-1,-1],"loss_changes":[4.824416E3,4.8576367E2,6.2226733E2,1.3137207E0,3.8990784E1,7.270775E1,1.3137207E0,0E0,0E0,0E0,3.33675E0,4.9230766E0,7.8189087E-1,0E0,0E0,0E0,0E0,0E0,0E0,0E0,0E0],"parents":[2147483647,0,0,1,1,2,2,3,3,4,4,5,5,6,6,10,10,11,11,12,12],"right_children":[2,4,6,8,10,12,14,-1,-1,-1,16,18,20,-1,-1,-1,-1,-1,-1,-1,-1],"split_conditions":[3.9067328E2,2.618179E2,4.851629E2,2.1010756E2,3.3987637E2,4.4286557E2,4.9811853E2,-3.1428573E0,-2E0,-1.3846154E0,3.7636395E2,4.091457E2,4.6566702E2,2E0,3.1428573E0,-6.6666675E-1,-2.4000001E-1,-0E0,4.0000004E-1,7.2E-1,1.3846154E0],"split_indices":[0,0,0,0,0,0,0,0,0,0,0,0,0,0,0,0,0,0,0,0,0],"split_type":[0,0,0,0,0,0,0,0,0,0,0,0,0,0,0,0,0,0,0,0,0],"sum_hessian":[1.08E2,5.2E1,5.6E1,2.8E1,2.4E1,2.8E1,2.8E1,2E1,8E0,1.2E1,1.2E1,1.2E1,1.6E1,8E0,2E1,8E0,4E0,4E0,8E0,4E0,1.2E1],"tree_param":{"num_deleted":"0","num_feature":"3","num_nodes":"21","size_leaf_vector":"1"}},{"base_weights":[1.9573946E-3,-4.600599E0,4.9518394E0,-6.6546783E0,-1.7051898E0,2.452185E0,6.935961E0,-2.3596637E0,-1.515708E0,-7.9053265E-1,-6.441025E-1,9.7777814E-1,3.088507E0,1.5560441E0,2.3596642E0,-2.7911112E-1,-0E0,1.440001E-1,3.8400012E-1,6.52718E-1,1.0974361E0],"categories":[],"categories_nodes":[],"categories_segments":[],"categories_sizes":[],"default_left":[0,0,0,0,0,0,0,0,0,0,0,0,0,0,0,0,0,0,0,0,0],"id":1,"left_children":[1,3,5,7,9,11,13,-1,-1,-1,15,17,19,-1,-1,-1,-1,-1,-1,-1,-1],"loss_changes":[2.5060315E3,3.2765417E2,2.4585144E2,2.4286865E1,2.2970856E1,2.0435059E1,6.3563232E0,0E0,0E0,0E0,2.3970156E0,7.395544E-1,8.7976074E-1,0E0,0E0,0E0,0E0,0E0,0E0,0E0,0E0],"parents":[2147483647,0,0,1,1,2,2,3,3,4,4,5,5,6,6,10,10,11,11,12,12],"right_children":[2,4,6,8,10,12,14,-1,-1,-1,16,18,20,-1,-1,-1,-1,-1,-1,-1,-1],"split_conditions":[4.091457E2,2.8362726E2,4.851629E2,1.9692986E2,3.5034967E2,4.4286557E2,5.1347266E2,-2.3596637E0,-1.515708E0,-7.9053265E-1,3.9067328E2,4.1871243E2,4.7349374E2,1.5560441E0,2.3596642E0,-2.7911112E-1,-0E0,1.440001E-1,3.8400012E-1,6.52718E-1,1.0974361E0],"split_indices":[0,0,0,0,0,0,0,0,0,0,0,0,0,0,0,0,0,0,0,0,0],"split_type":[0,0,0,0,0,0,0,0,0,0,0,0,0,0,0,0,0,0,0,0,0],"sum_hessian":[1.08E2,5.6E1,5.2E1,3.2E1,2.4E1,2.4E1,2.8E1,1.6E1,1.6E1,1.2E1,1.2E1,8E0,1.6E1,1.2E1,1.6E1,8E0,4E0,4E0,4E0,8E0,8E0],"tree_param":{"num_deleted":"0","num_feature":"3","num_nodes":"21","size_leaf_vector":"1"}},{"base_weights":[1.2827462E-2,-3.3071737E0,3.5831528E0,-5.0068874E0,-1.4934196E0,2.0333521E0,1.5712786E0,-1.7993019E0,-1.1864116E0,-2.1863956E0,-4.7234198E-1,1.238106E0,8.7506336E-1,-7.8993726E-1,-4.4902027E-1,-6.822717E-1,-0E0,1.0944009E-1,4.436262E-1,-2.530133E-1,-1.15413435E-1],"categories":[],"categories_nodes":[],"categories_segments":[],"categories_sizes":[],"default_left":[0,0,0,0,0,0,0,0,0,0,0,0,0,0,0,0,0,0,0,0,0],"id":2,"left_children":[1,3,5,7,9,11,-1,-1,-1,13,15,17,-1,-1,-1,19,-1,-1,-1,-1,-1],"loss_changes":[1.3038799E3,1.6824573E2,1.25245056E2,6.5130615E0,1.948716E1,1.6764587E1,0E0,0E0,0E0,1.296463E0,1.2890623E0,3.0332546E0,0E0,0E0,0E0,1.0699129E-1,0E0,0E0,0E0,0E0,0E0],"parents":[2147483647,0,0,1,1,2,2,3,3,4,4,5,5,9,9,10,10,11,11,15,15],"right_children":[2,4,6,8,10,12,-1,-1,-1,14,16,18,-1,-1,-1,20,-1,-1,-1,-1,-1],"split_conditions":[4.091457E2,2.618179E2,4.9162607E2,1.5840497E2,3.5034967E2,4.7349374E2,1.5712786E0,-1.7993019E0,-1.1864116E0,3.1666428E2,3.9067328E2,4.1871243E2,8.7506336E-1,-7.8993726E-1,-4.4902027E-1,3.7636395E2,-0E0,1.0944009E-1,4.436262E-1,-2.530133E-1,-1.15413435E-1],"split_indices":[0,0,0,0,0,0,0,0,0,0,0,0,0,0,0,0,0,0,0,0,0],"split_type":[0,0,0,0,0,0,0,0,0,0,0,0,0,0,0,0,0,0,0,0,0],"sum_hessian":[1.08E2,5.6E1,5.2E1,2.8E1,2.8E1,2.8E1,2.4E1,1.2E1,1.6E1,1.6E1,1.2E1,1.6E1,1.2E1,8E0,8E0,8E0,4E0,4E0,1.2E1,4E0,4E0],"tree_param":{"num_deleted":"0","num_feature":"3","num_nodes":"21","size_leaf_vector":"1"}},{"base_weights":[-5.641587E-3,-2.5764022E0,2.3848138E0,-1.145208E0,-1.4177697E0,1.1182623E0,3.5691302E0,-5.6600237E-1,-6.955273E-1,3.4428757E-1,4.933036E-1,7.833594E-1,1.3641787E0,-2.5266507E-1,-8.771416E-2,-0E0,4.973043E-1,8.317452E-2,1.8536979E-1],"categories":[],"categories_nodes":[],"categories_segments":[],"categories_sizes":[],"default_left":[0,0,0,0,0,0,0,0,0,0,0,0,0,0,0,0,0,0,0],"id":3,"left_children":[1,3,5,-1,7,9,11,-1,13,15,-1,-1,-1,-1,-1,-1,17,-1,-1],"loss_changes":[6.7598065E2,7.079202E1,8.1508606E1,0E0,8.508987E0,1.1241943E1,1.5298767E1,0E0,5.2253914E-1,6.8486285E-1,0E0,0E0,0E0,0E0,0E0,0E0,6.7527056E-2,0E0,0E0],"parents":[2147483647,0,0,1,1,2,2,4,4,5,5,6,6,8,8,9,9,16,16],"right_children":[2,4,6,-1,8,10,12,-1,14,16,-1,-1,-1,-1,-1,-1,18,-1,-1],"split_conditions":[3.9067328E2,2.3807918E2,4.851629E2,-1.145208E0,3.3987637E2,4.4286557E2,5.199166E2,-5.6600237E-1,3.7636395E2,4.091457E2,4.933036E-1,7.833594E-1,1.3641787E0,-2.5266507E-1,-8.771416E-2,-0E0,4.1871243E2,8.317452E-2,1.8536979E-1],"split_indices":[0,0,0,0,0,0,0,0,0,0,0,0,0,0,0,0,0,0,0],"split_type":[0,0,0,0,0,0,0,0,0,0,0,0,0,0,0,0,0,0,0],"sum_hessian":[1.08E2,5.2E1,5.6E1,2.4E1,2.8E1,2.8E1,2.8E1,1.6E1,1.2E1,1.2E1,1.6E1,1.6E1,1.2E1,8E0,4E0,4E0,8E0,4E0,4E0],"tree_param":{"num_deleted":"0","num_feature":"3","num_nodes":"19","size_leaf_vector":"1"}},{"base_weights":[3.9206864E-3,-1.7129142E0,1.850254E0,-2.4803476E0,-6.313856E-1,1.3492484E0,9.8640645E-1,-1.0807917E0,-5.931327E-1,-2.879867E-1,-2.5424752E-1,6.0387754E-1,5.406392E-1,-1.1017393E-1,-0E0,6.321259E-2,2.1259329E-1],"categories":[],"categories_nodes":[],"categories_segments":[],"categories_sizes":[],"default_left":[0,0,0,0,0,0,0,0,0,0,0,0,0,0,0,0,0],"id":4,"left_children":[1,3,5,7,9,11,-1,-1,-1,-1,13,15,-1,-1,-1,-1,-1],"loss_changes":[3.4868292E2,4.574402E1,3.3741104E1,1.1514938E1,2.8538399E0,1.2751907E1,0E0,0E0,0E0,0E0,3.7348598E-1,5.5093E-1,0E0,0E0,0E0,0E0,0E0],"parents":[2147483647,0,0,1,1,2,2,3,3,4,4,5,5,10,10,11,11],"right_children":[2,4,6,8,10,12,-1,-1,-1,-1,14,16,-1,-1,-1,-1,-1],"split_conditions":[4.091457E2,2.8362726E2,5.199166E2,1.1609245E2,3.5034967E2,4.7349374E2,9.8640645E-1,-1.0807917E0,-5.931327E-1,-2.879867E-1,3.9067328E2,4.1871243E2,5.406392E-1,-1.1017393E-1,-0E0,6.321259E-2,2.1259329E-1],"split_indices":[0,0,0,0,0,0,0,0,0,0,0,0,0,0,0,0,0],"split_type":[0,0,0,0,0,0,0,0,0,0,0,0,0,0,0,0,0],"sum_hessian":[1.08E2,5.6E1,5.2E1,3.2E1,2.4E1,4E1,1.2E1,8E0,2.4E1,1.2E1,1.2E1,1.6E1,2.4E1,8E0,4E0,4E0,1.2E1],"tree_param":{"num_deleted":"0","num_feature":"3","num_nodes":"17","size_leaf_vector":"1"}},{"base_weights":[2.7439572E-4,-1.2353922E0,1.3291937E0,-1.9925019E0,-6.2438816E-1,1.0187185E0,8.2016456E-1,-7.925804E-1,-4.5944357E-1,-3.2033315E-1,-3.2017645E-1,4.3893838E-1,3.970384E-1,-1.3969284E-1,-7.448324E-2,7.661133E-2,1.7212042E-1,-4.022095E-2,-0E0],"categories":[],"categories_nodes":[],"categories_segments":[],"categories_sizes":[],"default_left":[0,0,0,0,0,0,0,0,0,0,0,0,0,0,0,0,0,0,0],"id":5,"left_children":[1,3,5,7,9,11,-1,-1,-1,-1,13,15,-1,-1,17,-1,-1,-1,-1],"loss_changes":[1.8063109E2,2.512394E1,2.0329346E1,3.4390335E0,4.1092987E0,7.369858E0,0E0,0E0,0E0,0E0,7.158592E-1,2.741363E-1,0E0,0E0,3.9943818E-2,0E0,0E0,0E0,0E0],"parents":[2147483647,0,0,1,1,2,2,3,3,4,4,5,5,10,10,11,11,14,14],"right_children":[2,4,6,8,10,12,-1,-1,-1,-1,14,16,-1,-1,18,-1,-1,-1,-1],"split_conditions":[4.091457E2,2.3807918E2,5.338775E2,1.1609245E2,3.1666428E2,4.7349374E2,8.2016456E-1,-7.925804E-1,-4.5944357E-1,-3.2033315E-1,3.7636395E2,4.4286557E2,3.970384E-1,-1.3969284E-1,3.9067328E2,7.661133E-2,1.7212042E-1,-4.022095E-2,-0E0],"split_indices":[0,0,0,0,0,0,0,0,0,0,0,0,0,0,0,0,0,0,0],"split_type":[0,0,0,0,0,0,0,0,0,0,0,0,0,0,0,0,0,0,0],"sum_hessian":[1.08E2,5.6E1,5.2E1,2.4E1,3.2E1,4.4E1,8E0,8E0,1.6E1,1.2E1,2E1,1.6E1,2.8E1,1.2E1,8E0,8E0,8E0,4E0,4E0],"tree_param":{"num_deleted":"0","num_feature":"3","num_nodes":"19","size_leaf_vector":"1"}},{"base_weights":[-2.4345643E-3,-9.631021E-1,8.9086044E-1,-5.408848E-1,-6.7331886E-1,4.4117436E-1,1.4488117E0,-2.726349E-1,-2.8744125E-1,1.7105865E-1,2.0560159E-1,3.2076472E-1,6.014542E-1,-1.0100856E-1,-3.0567857E-2,5.491638E-2,8.045833E-2,-0E0,2.9654847E-2],"categories":[],"categories_nodes":[],"categories_segments":[],"categories_sizes":[],"default_left":[0,0,0,0,0,0,0,0,0,0,0,0,0,0,0,0,0,0,0],"id":6,"left_children":[1,3,5,-1,7,9,11,-1,13,15,-1,-1,-1,-1,-1,17,-1,-1,-1],"loss_changes":[9.439738E1,1.1684845E1,1.3662289E1,0E0,3.4640484E0,2.0592027E0,3.1331024E0,0E0,1.2105584E-1,1.7705837E-1,0E0,0E0,0E0,0E0,0E0,2.1713825E-2,0E0,0E0,0E0],"parents":[2147483647,0,0,1,1,2,2,4,4,5,5,6,6,8,8,9,9,15,15],"right_children":[2,4,6,-1,8,10,12,-1,14,16,-1,-1,-1,-1,-1,18,-1,-1,-1],"split_conditions":[3.9067328E2,1.5840497E2,4.9162607E2,-5.408848E-1,3.1666428E2,4.6566702E2,5.338775E2,-2.726349E-1,3.7636395E2,4.1871243E2,2.0560159E-1,3.2076472E-1,6.014542E-1,-1.0100856E-1,-3.0567857E-2,4.091457E2,8.045833E-2,-0E0,2.9654847E-2],"split_indices":[0,0,0,0,0,0,0,0,0,0,0,0,0,0,0,0,0,0,0],"split_type":[0,0,0,0,0,0,0,0,0,0,0,0,0,0,0,0,0,0,0],"sum_hessian":[1.08E2,5.2E1,5.6E1,1.2E1,4E1,3.2E1,2.4E1,2.4E1,1.6E1,1.6E1,1.6E1,1.6E1,8E0,1.2E1,4E0,8E0,8E0,4E0,4E0],"tree_param":{"num_deleted":"0","num_feature":"3","num_nodes":"19","size_leaf_vector":"1"}},{"base_weights":[9.825733E-4,-6.4344186E-1,6.9402426E-1,-1.0543429E0,-3.12655E-1,5.2336204E-1,4.410665E-1,-5.1329076E-1,-2.5433895E-1,-1.5612663E-1,-1.6914895E-1,1.650549E-1,6.486539E-1,-7.303699E-2,-4.3021306E-2,2.2537768E-2,5.9002817E-2,1.3366435E-1,2.230494E-1,-2.3231506E-2,-0E0],"categories":[],"categories_nodes":[],"categories_segments":[],"categories_sizes":[],"default_left":[0,0,0,0,0,0,0,0,0,0,0,0,0,0,0,0,0,0,0,0,0],"id":7,"left_children":[1,3,5,7,9,11,-1,-1,-1,-1,13,15,17,-1,19,-1,-1,-1,-1,-1,-1],"loss_changes":[4.9127384E1,7.4178314E0,6.251322E0,1.9400406E0,8.958938E-1,1.9131184E0,0E0,0E0,0E0,0E0,1.8634343E-1,2.219209E-2,3.0442905E-1,0E0,1.3325999E-2,0E0,0E0,0E0,0E0,0E0,0E0],"parents":[2147483647,0,0,1,1,2,2,3,3,4,4,5,5,10,10,11,11,12,12,14,14],"right_children":[2,4,6,8,10,12,-1,-1,-1,-1,14,16,18,-1,20,-1,-1,-1,-1,-1,-1],"split_conditions":[4.091457E2,2.3807918E2,5.338775E2,7.176489E1,3.1666428E2,4.6566702E2,4.410665E-1,-5.1329076E-1,-2.5433895E-1,-1.5612663E-1,3.7636395E2,4.1871243E2,4.851629E2,-7.303699E-2,3.9067328E2,2.2537768E-2,5.9002817E-2,1.3366435E-1,2.230494E-1,-2.3231506E-2,-0E0],"split_indices":[0,0,0,0,0,0,0,0,0,0,0,0,0,0,0,0,0,0,0,0,0],"split_type":[0,0,0,0,0,0,0,0,0,0,0,0,0,0,0,0,0,0,0,0,0],"sum_hessian":[1.08E2,5.6E1,5.2E1,2.4E1,3.2E1,4.4E1,8E0,4E0,2E1,1.2E1,2E1,1.2E1,3.2E1,1.2E1,8E0,4E0,8E0,1.2E1,2E1,4E0,4E0],"tree_param":{"num_deleted":"0","num_feature":"3","num_nodes":"21","size_leaf_vector":"1"}},{"base_weights":[-6.030809E-4,-5.0364816E-1,4.6715117E-1,-9.89219E-1,-3.3740258E-1,3.7312993E-1,4.1110384E-1,-3.9010096E-1,-2.1193883E-1,-1.3500899E-1,-1.5192683E-1,1.3288443E-1,5.147065E-1,-5.9665684E-2,-2.6426189E-2,3.1719632E-2,5.7809923E-2,1.0749084E-1,1.761054E-1,-0E0,1.7128602E-2],"categories":[],"categories_nodes":[],"categories_segments":[],"categories_sizes":[],"default_left":[0,0,0,0,0,0,0,0,0,0,0,0,0,0,0,0,0,0,0,0,0],"id":8,"left_children":[1,3,5,7,9,11,-1,-1,-1,-1,13,15,17,-1,-1,19,-1,-1,-1,-1,-1],"loss_changes":[2.588314E1,3.9446077E0,4.329095E0,2.2497463E-1,7.8810406E-1,1.7342992E0,0E0,0E0,0E0,0E0,3.344378E-2,1.2096289E-1,1.628933E-1,0E0,0E0,7.2441716E-3,0E0,0E0,0E0,0E0,0E0],"parents":[2147483647,0,0,1,1,2,2,3,3,4,4,5,5,10,10,11,11,12,12,15,15],"right_children":[2,4,6,8,10,12,-1,-1,-1,-1,14,16,18,-1,-1,20,-1,-1,-1,-1,-1],"split_conditions":[3.9067328E2,1.5840497E2,5.4668024E2,7.176489E1,3.1666428E2,4.7349374E2,4.1110384E-1,-3.9010096E-1,-2.1193883E-1,-1.3500899E-1,3.5034967E2,4.1871243E2,4.9162607E2,-5.9665684E-2,-2.6426189E-2,4.091457E2,5.7809923E-2,1.0749084E-1,1.761054E-1,-0E0,1.7128602E-2],"split_indices":[0,0,0,0,0,0,0,0,0,0,0,0,0,0,0,0,0,0,0,0,0],"split_type":[0,0,0,0,0,0,0,0,0,0,0,0,0,0,0,0,0,0,0,0,0],"sum_hessian":[1.08E2,5.2E1,5.6E1,1.2E1,4E1,5.2E1,4E0,4E0,8E0,2.4E1,1.6E1,2E1,3.2E1,8E0,8E0,8E0,1.2E1,1.2E1,2E1,4E0,4E0],"tree_param":{"num_deleted":"0","num_feature":"3","num_nodes":"21","size_leaf_vector":"1"}},{"base_weights":[-9.130338E-4,-3.6808473E-1,3.4050825E-1,-2.543671E-1,-2.6394394E-1,2.6795578E-1,3.1243882E-1,-3.4425715E-1,-1.1141294E-1,6.1914556E-2,3.553813E-1,-1.18439965E-1,-7.550447E-2,-3.935676E-2,-1.1313629E-2,-0E0,8.096519E-2,7.6656036E-2,1.2578954E-1,1.3017655E-2,2.7852887E-2],"categories":[],"categories_nodes":[],"categories_segments":[],"categories_sizes":[],"default_left":[0,0,0,0,0,0,0,0,0,0,0,0,0,0,0,0,0,0,0,0,0],"id":9,"left_children":[1,3,5,-1,7,9,-1,11,13,15,17,-1,-1,-1,-1,-1,19,-1,-1,-1,-1],"loss_changes":[1.3789601E1,2.4244728E0,2.6197248E0,0E0,5.129068E-1,9.326999E-1,0E0,3.63276E-2,1.983054E-2,2.0051695E-2,1.2902546E-1,0E0,0E0,0E0,0E0,0E0,1.7730221E-3,0E0,0E0,0E0,0E0],"parents":[2147483647,0,0,1,1,2,2,4,4,5,5,7,7,8,8,9,9,10,10,16,16],"right_children":[2,4,6,-1,8,10,-1,12,14,16,18,-1,-1,-1,-1,-1,20,-1,-1,-1,-1],"split_conditions":[3.9067328E2,1.1609245E2,5.4668024E2,-2.543671E-1,3.1666428E2,4.6566702E2,3.1243882E-1,2.3807918E2,3.7636395E2,4.091457E2,4.9162607E2,-1.18439965E-1,-7.550447E-2,-3.935676E-2,-1.1313629E-2,-0E0,4.1871243E2,7.6656036E-2,1.2578954E-1,1.3017655E-2,2.7852887E-2],"split_indices":[0,0,0,0,0,0,0,0,0,0,0,0,0,0,0,0,0,0,0,0,0],"split_type":[0,0,0,0,0,0,0,0,0,0,0,0,0,0,0,0,0,0,0,0,0],"sum_hessian":[1.08E2,5.2E1,5.6E1,8E0,4.4E1,5.2E1,4E0,2.8E1,1.6E1,1.6E1,3.6E1,1.6E1,1.2E1,1.2E1,4E0,4E0,1.2E1,1.6E1,2E1,4E0,8E0],"tree_param":{"num_deleted":"0","num_feature":"3","num_nodes":"21","size_leaf_vector":"1"}},{"base_weights":[-1.1830811E-4,-2.6707396E-1,2.481057E-1,-2.3542862E-1,-2.0879817E-1,1.9215976E-1,2.3745348E-1,-9.269746E-2,-1.2904443E-1,4.5744278E-2,2.5423822E-1,-1.6017124E-1,-1.2623088E-2,-0E0,5.981944E-2,5.9920352E-2,1.018489E-1,-5.4595586E-2,-3.325958E-2,9.893417E-3,2.0425417E-2],"categories":[],"categories_nodes":[],"categories_segments":[],"categories_sizes":[],"default_left":[0,0,0,0,0,0,0,0,0,0,0,0,0,0,0,0,0,0,0,0,0],"id":10,"left_children":[1,3,5,-1,7,9,-1,-1,11,13,15,17,-1,-1,19,-1,-1,-1,-1,-1,-1],"loss_changes":[7.2891264E0,1.4350834E0,1.5807805E0,0E0,3.516755E-1,4.7010016E-1,0E0,0E0,7.176402E-2,1.0945588E-2,1.0412574E-1,2.4109483E-3,0E0,0E0,6.387681E-4,0E0,0E0,0E0,0E0,0E0,0E0],"parents":[2147483647,0,0,1,1,2,2,4,4,5,5,8,8,9,9,10,10,11,11,14,14],"right_children":[2,4,6,-1,8,10,-1,-1,12,14,16,18,-1,-1,20,-1,-1,-1,-1,-1,-1],"split_conditions":[3.9067328E2,7.176489E1,5.4668024E2,-2.3542862E-1,2.3807918E2,4.6566702E2,2.3745348E-1,-9.269746E-2,3.5034967E2,4.091457E2,5.1347266E2,3.1666428E2,-1.2623088E-2,-0E0,4.1871243E2,5.9920352E-2,1.018489E-1,-5.4595586E-2,-3.325958E-2,9.893417E-3,2.0425417E-2],"split_indices":[0,0,0,0,0,0,0,0,0,0,0,0,0,0,0,0,0,0,0,0,0],"split_type":[0,0,0,0,0,0,0,0,0,0,0,0,0,0,0,0,0,0,0,0,0],"sum_hessian":[1.08E2,5.2E1,5.6E1,4E0,4.8E1,5.2E1,4E0,2E1,2.8E1,1.6E1,3.6E1,2E1,8E0,4E0,1.2E1,2.4E1,1.2E1,1.2E1,8E0,4E0,8E0],"tree_param":{"num_deleted":"0","num_feature":"3","num_nodes":"21","size_leaf_vector":"1"}},{"base_weights":[-7.441284E-5,-1.9503865E-1,1.8120943E-1,-1.7892575E-1,-1.5010108E-1,1.3813573E-1,1.8046464E-1,-7.824222E-2,-1.0714748E-1,7.009374E-2,2.11539E-1,-1.271292E-1,-9.256999E-3,3.3804275E-2,3.3647217E-2,1.6132355E-1,7.364467E-2,-1.4071591E-1,-2.4390412E-2,-0E0,4.420559E-2,5.6153107E-2,2.4756776E-2,-2.018841E-2,-4.6209898E-2,7.518998E-3,1.4978536E-2],"categories":[],"categories_nodes":[],"categories_segments":[],"categories_sizes":[],"default_left":[0,0,0,0,0,0,0,0,0,0,0,0,0,0,0,0,0,0,0,0,0,0,0,0,0,0,0],"id":11,"left_children":[1,3,5,-1,7,9,-1,-1,11,13,15,17,-1,19,-1,21,-1,23,-1,-1,25,-1,-1,-1,-1,-1,-1],"loss_changes":[3.8878243E0,8.6644125E-1,9.4892204E-1,0E0,2.050618E-1,2.4988115E-1,0E0,0E0,5.2480817E-2,4.0476143E-2,3.0097961E-3,6.616473E-3,0E0,5.977353E-3,0E0,1.1038303E-2,0E0,1.0167271E-2,0E0,0E0,1.7275847E-4,0E0,0E0,0E0,0E0,0E0,0E0],"parents":[2147483647,0,0,1,1,2,2,4,4,5,5,8,8,9,9,10,10,11,11,13,13,15,15,17,17,20,20],"right_children":[2,4,6,-1,8,10,-1,-1,12,14,16,18,-1,20,-1,22,-1,24,-1,-1,26,-1,-1,-1,-1,-1,-1],"split_conditions":[3.9067328E2,7.176489E1,5.4668024E2,-1.7892575E-1,1.9692986E2,4.851629E2,1.8046464E-1,-7.824222E-2,3.5034967E2,4.6566702E2,5.1347266E2,3.1666428E2,-9.256999E-3,4.091457E2,3.3647217E-2,4.9811853E2,7.364467E-2,2.1010756E2,-2.4390412E-2,-0E0,4.1871243E2,5.6153107E-2,2.4756776E-2,-2.018841E-2,-4.6209898E-2,7.518998E-3,1.4978536E-2],"split_indices":[0,0,0,0,0,0,0,0,0,0,0,0,0,0,0,0,0,0,0,0,0,0,0,0,0,0,0],"split_type":[0,0,0,0,0,0,0,0,0,0,0,0,0,0,0,0,0,0,0,0,0,0,0,0,0,0,0],"sum_hessian":[1.08E2,5.2E1,5.6E1,4E0,4.8E1,5.2E1,4E0,1.2E1,3.6E1,2.8E1,2.4E1,2.8E1,8E0,1.6E1,1.2E1,1.2E1,1.2E1,2E1,8E0,4E0,1.2E1,8E0,4E0,4E0,1.6E1,4E0,8E0],"tree_param":{"num_deleted":"0","num_feature":"3","num_nodes":"27","size_leaf_vector":"1"}},{"base_weights":[2.594694E-4,-1.3321304E-1,1.4380048E-1,-1.3598357E-1,-1.0050473E-1,1.0888851E-1,1.3715333E-1,-1.6335101E-1,-5.7466045E-2,5.9161834E-2,4.627789E-2,-5.6575127E-2,-1.0875363E-1,-2.418183E-2,-1.5665494E-2,9.802394E-3,2.4329437E-2,-1.5343209E-2,-4.3383755E-2,-8.871918E-3,-6.1984593E-3,-3.3471682E-3,-0E0],"categories":[],"categories_nodes":[],"categories_segments":[],"categories_sizes":[],"default_left":[0,0,0,0,0,0,0,0,0,0,0,0,0,0,0,0,0,0,0,0,0,0,0],"id":12,"left_children":[1,3,5,-1,7,9,-1,11,13,15,-1,-1,17,-1,19,-1,-1,-1,-1,-1,21,-1,-1],"loss_changes":[2.1074631E0,5.511652E-1,5.300715E-1,0E0,1.3396841E-1,1.0142529E-1,0E0,8.421242E-3,3.0657075E-2,1.1875905E-2,0E0,0E0,1.1196263E-2,0E0,1.5283169E-3,0E0,0E0,0E0,0E0,0E0,2.7663045E-4,0E0,0E0],"parents":[2147483647,0,0,1,1,2,2,4,4,5,5,7,7,8,8,9,9,12,12,14,14,20,20],"right_children":[2,4,6,-1,8,10,-1,12,14,16,-1,-1,18,-1,20,-1,-1,-1,-1,-1,22,-1,-1],"split_conditions":[4.091457E2,7.176489E1,5.4668024E2,-1.3598357E-1,2.3807918E2,4.851629E2,1.3715333E-1,1.9692986E2,3.5034967E2,4.6566702E2,4.627789E-2,-5.6575127E-2,2.1010756E2,-2.418183E-2,3.7636395E2,9.802394E-3,2.4329437E-2,-1.5343209E-2,-4.3383755E-2,-8.871918E-3,3.9067328E2,-3.3471682E-3,-0E0],"split_indices":[0,0,0,0,0,0,0,0,0,0,0,0,0,0,0,0,0,0,0,0,0,0,0],"split_type":[0,0,0,0,0,0,0,0,0,0,0,0,0,0,0,0,0,0,0,0,0,0,0],"sum_hessian":[1.08E2,5.6E1,5.2E1,4E0,5.2E1,4.8E1,4E0,2E1,3.2E1,2.4E1,2.4E1,1.2E1,8E0,2E1,1.2E1,1.2E1,1.2E1,4E0,4E0,4E0,8E0,4E0,4E0],"tree_param":{"num_deleted":"0","num_feature":"3","num_nodes":"23","size_leaf_vector":"1"}},{"base_weights":[-4.6188897E-4,-1.0571497E-1,9.7413115E-2,-2.7607393E-1,-6.929395E-2,6.241242E-2,2.7714878E-1,-1.033475E-1,-4.5732424E-2,-9.035568E-2,-2.9289022E-2,2.4033865E-2,8.805163E-2,4.542389E-2,1.0423646E-1,-3.0959215E-2,-1.9983673E-2,-1.0511927E-2,-2.5437928E-3,6.225586E-3,1.0354174E-2,1.9744052E-2,2.9963328E-2,-0E0,3.3618168E-3],"categories":[],"categories_nodes":[],"categories_segments":[],"categories_sizes":[],"default_left":[0,0,0,0,0,0,0,0,0,0,0,0,0,0,0,0,0,0,0,0,0,0,0,0,0],"id":13,"left_children":[1,3,5,7,9,11,13,-1,-1,15,17,19,21,-1,-1,-1,-1,-1,-1,23,-1,-1,-1,-1,-1],"loss_changes":[1.1331774E0,3.09716E-1,3.4128225E-1,2.3613155E-2,3.526935E-2,4.6099573E-2,2.6950717E-2,0E0,0E0,1.9680709E-3,1.7372975E-3,3.7043951E-3,1.0534525E-3,0E0,0E0,0E0,0E0,0E0,0E0,2.79057E-4,0E0,0E0,0E0,0E0,0E0],"parents":[2147483647,0,0,1,1,2,2,3,3,4,4,5,5,6,6,9,9,10,10,11,11,12,12,19,19],"right_children":[2,4,6,8,10,12,14,-1,-1,16,18,20,22,-1,-1,-1,-1,-1,-1,24,-1,-1,-1,-1,-1],"split_conditions":[3.9067328E2,1.1609245E2,5.338775E2,7.176489E1,3.1666428E2,4.7349374E2,5.4668024E2,-1.033475E-1,-4.5732424E-2,2.3807918E2,3.7636395E2,4.1871243E2,4.9162607E2,4.542389E-2,1.0423646E-1,-3.0959215E-2,-1.9983673E-2,-1.0511927E-2,-2.5437928E-3,4.091457E2,1.0354174E-2,1.9744052E-2,2.9963328E-2,-0E0,3.3618168E-3],"split_indices":[0,0,0,0,0,0,0,0,0,0,0,0,0,0,0,0,0,0,0,0,0,0,0,0,0],"split_type":[0,0,0,0,0,0,0,0,0,0,0,0,0,0,0,0,0,0,0,0,0,0,0,0,0],"sum_hessian":[1.08E2,5.2E1,5.6E1,8E0,4.4E1,4.8E1,8E0,4E0,4E0,2.8E1,1.6E1,2E1,2.8E1,4E0,4E0,1.6E1,1.2E1,1.2E1,4E0,8E0,1.2E1,1.2E1,1.6E1,4E0,4E0],"tree_param":{"num_deleted":"0","num_feature":"3","num_nodes":"25","size_leaf_vector":"1"}},{"base_weights":[-3.2329123E-4,-7.8020826E-2,7.192746E-2,-2.0981614E-1,-4.9927965E-2,4.498299E-2,2.1063317E-1,-7.8544095E-2,-3.4756623E-2,-6.5005764E-2,-2.127008E-2,1.2403376E-2,6.0403302E-2,3.452225E-2,7.921967E-2,-2.5426898E-2,-5.3445727E-2,-2.8782316E-2,-1.1394501E-2,-0E0,1.6219798E-2,4.9515076E-2,2.5181072E-2,-4.230652E-3,-6.187349E-2,-4.0171053E-3,-1.1525345E-2,-4.2196657E-3,-1.933365E-3,2.555008E-3,5.6091314E-3,5.8535986E-2,5.17273E-4,-2.5541497E-2,-1.4449795E-2,1.3672729E-2,2.7268067E-2],"categories":[],"categories_nodes":[],"categories_segments":[],"categories_sizes":[],"default_left":[0,0,0,0,0,0,0,0,0,0,0,0,0,0,0,0,0,0,0,0,0,0,0,0,0,0,0,0,0,0,0,0,0,0,0,0,0],"id":14,"left_children":[1,3,5,7,9,11,13,-1,-1,15,17,19,21,-1,-1,-1,23,25,27,-1,29,31,-1,-1,33,-1,-1,-1,-1,-1,-1,35,-1,-1,-1,-1,-1],"loss_changes":[6.175057E-1,1.8575716E-1,2.0355412E-1,1.3638973E-2,1.8061727E-2,2.38678E-2,1.5566409E-2,0E0,0E0,2.0913333E-3,9.332304E-4,8.0472114E-4,4.299745E-3,0E0,0E0,0E0,6.0905963E-3,8.2035456E-4,2.8347946E-5,0E0,8.884049E-5,1.0676991E-2,0E0,0E0,1.3205782E-3,0E0,0E0,0E0,0E0,0E0,0E0,4.6640486E-3,0E0,0E0,0E0,0E0,0E0],"parents":[2147483647,0,0,1,1,2,2,3,3,4,4,5,5,6,6,9,9,10,10,11,11,12,12,16,16,17,17,18,18,20,20,21,21,24,24,31,31],"right_children":[2,4,6,8,10,12,14,-1,-1,16,18,20,22,-1,-1,-1,24,26,28,-1,30,32,-1,-1,34,-1,-1,-1,-1,-1,-1,36,-1,-1,-1,-1,-1],"split_conditions":[3.9067328E2,1.1609245E2,5.338775E2,7.176489E1,3.1666428E2,4.6566702E2,5.4668024E2,-7.8544095E-2,-3.4756623E-2,1.9692986E2,3.5034967E2,4.091457E2,5.1347266E2,3.452225E-2,7.921967E-2,-2.5426898E-2,2.1010756E2,3.3987637E2,3.7636395E2,-0E0,4.1871243E2,4.9811853E2,2.5181072E-2,-4.230652E-3,2.3807918E2,-4.0171053E-3,-1.1525345E-2,-4.2196657E-3,-1.933365E-3,2.555008E-3,5.6091314E-3,4.9162607E2,5.17273E-4,-2.5541497E-2,-1.4449795E-2,1.3672729E-2,2.7268067E-2],"split_indices":[0,0,0,0,0,0,0,0,0,0,0,0,0,0,0,0,0,0,0,0,0,0,0,0,0,0,0,0,0,0,0,0,0,0,0,0,0],"split_type":[0,0,0,0,0,0,0,0,0,0,0,0,0,0,0,0,0,0,0,0,0,0,0,0,0,0,0,0,0,0,0,0,0,0,0,0,0],"sum_hessian":[1.08E2,5.2E1,5.6E1,8E0,4.4E1,4.8E1,8E0,4E0,4E0,2.8E1,1.6E1,1.6E1,3.2E1,4E0,4E0,8E0,2E1,8E0,8E0,4E0,1.2E1,2.4E1,8E0,4E0,1.6E1,4E0,4E0,4E0,4E0,4E0,8E0,2E1,4E0,4E0,1.2E1,1.6E1,4E0],"tree_param":{"num_deleted":"0","num_feature":"3","num_nodes":"37","size_leaf_vector":"1"}},{"base_weights":[-3.738972E-4,-5.8475826E-2,5.3657264E-2,-1.5946023E-1,-3.6979485E-2,3.301504E-2,1.600808E-1,-5.9693504E-2,-2.6415026E-2,-4.7905724E-2,-1.616534E-2,1.2248811E-2,4.6914198E-2,2.6236726E-2,6.0206912E-2,-2.1813411E-2,-4.1028365E-2,-2.1874746E-2,-8.659787E-3,6.029569E-3,5.9613553E-3,3.8406007E-2,1.8466188E-2,-2.7713776E-2,-4.5663834E-2,-3.053055E-3,-8.759309E-3,-3.2068635E-3,-1.4694214E-3,-0E0,2.6128134E-3,4.7057208E-2,3.9321903E-4,-1.1750108E-2,-3.2153323E-3,-1.9411582E-2,-1.044828E-2,1.0490184E-2,2.072388E-2],"categories":[],"categories_nodes":[],"categories_segments":[],"categories_sizes":[],"default_left":[0,0,0,0,0,0,0,0,0,0,0,0,0,0,0,0,0,0,0,0,0,0,0,0,0,0,0,0,0,0,0,0,0,0,0,0,0,0,0],"id":15,"left_children":[1,3,5,7,9,11,13,-1,-1,15,17,19,21,-1,-1,-1,23,25,27,29,-1,31,-1,33,35,-1,-1,-1,-1,-1,-1,37,-1,-1,-1,-1,-1,-1,-1],"loss_changes":[3.45323E-1,1.091554E-1,1.19933605E-1,7.877871E-3,9.459499E-3,1.3568383E-2,8.9915395E-3,0E0,0E0,1.9640997E-3,5.390574E-4,8.7569864E-4,1.2481362E-3,0E0,0E0,0E0,2.7746707E-4,4.738276E-4,1.6360194E-5,2.1005515E-4,0E0,6.6776145E-3,0E0,1.3321517E-3,1.2542047E-3,0E0,0E0,0E0,0E0,0E0,0E0,2.1107048E-3,0E0,0E0,0E0,0E0,0E0,0E0,0E0],"parents":[2147483647,0,0,1,1,2,2,3,3,4,4,5,5,6,6,9,9,10,10,11,11,12,12,16,16,17,17,18,18,19,19,21,21,23,23,24,24,31,31],"right_children":[2,4,6,8,10,12,14,-1,-1,16,18,20,22,-1,-1,-1,24,26,28,30,-1,32,-1,34,36,-1,-1,-1,-1,-1,-1,38,-1,-1,-1,-1,-1,-1,-1],"split_conditions":[3.9067328E2,1.1609245E2,5.338775E2,7.176489E1,3.1666428E2,4.7349374E2,5.4668024E2,-5.9693504E-2,-2.6415026E-2,1.5840497E2,3.5034967E2,4.4286557E2,5.1347266E2,2.6236726E-2,6.0206912E-2,-2.1813411E-2,2.1010756E2,3.3987637E2,3.7636395E2,4.091457E2,5.9613553E-3,4.9811853E2,1.8466188E-2,1.9692986E2,2.3807918E2,-3.053055E-3,-8.759309E-3,-3.2068635E-3,-1.4694214E-3,-0E0,2.6128134E-3,4.9162607E2,3.9321903E-4,-1.1750108E-2,-3.2153323E-3,-1.9411582E-2,-1.044828E-2,1.0490184E-2,2.072388E-2],"split_indices":[0,0,0,0,0,0,0,0,0,0,0,0,0,0,0,0,0,0,0,0,0,0,0,0,0,0,0,0,0,0,0,0,0,0,0,0,0,0,0],"split_type":[0,0,0,0,0,0,0,0,0,0,0,0,0,0,0,0,0,0,0,0,0,0,0,0,0,0,0,0,0,0,0,0,0,0,0,0,0,0,0],"sum_hessian":[1.08E2,5.2E1,5.6E1,8E0,4.4E1,4.8E1,8E0,4E0,4E0,2.8E1,1.6E1,2E1,2.8E1,4E0,4E0,4E0,2.4E1,8E0,8E0,1.2E1,8E0,2E1,8E0,8E0,1.6E1,4E0,4E0,4E0,4E0,4E0,8E0,1.6E1,4E0,4E0,4E0,4E0,1.2E1,1.2E1,4E0],"tree_param":{"num_deleted":"0","num_feature":"3","num_nodes":"39","size_leaf_vector":"1"}},{"base_weights":[-4.832504E-4,-4.4126134E-2,4.010545E-2,-1.2118975E-1,-2.7732829E-2,2.4307407E-2,1.21660866E-1,-4.5367073E-2,-2.00754E-2,-3.5831813E-2,-1.2285569E-2,8.982704E-3,3.4566417E-2,1.9939728E-2,4.575714E-2,-1.6578197E-2,-3.0512773E-2,-1.6624875E-2,-6.5812003E-3,2.4346246E-3,1.2825012E-2,2.838934E-2,1.3541667E-2,-2.1062426E-2,-3.3721026E-2,-2.3204042E-3,-6.6570286E-3,-2.437134E-3,-1.1167146E-3,-0E0,1.3146973E-3,2.1340945E-3,4.3718973E-3,3.4776125E-2,2.989197E-4,-8.9300545E-3,-2.443657E-3,-1.4752808E-2,-7.5548617E-3,7.585144E-3,1.5750276E-2],"categories":[],"categories_nodes":[],"categories_segments":[],"categories_sizes":[],"default_left":[0,0,0,0,0,0,0,0,0,0,0,0,0,0,0,0,0,0,0,0,0,0,0,0,0,0,0,0,0,0,0,0,0,0,0,0,0,0,0,0,0],"id":16,"left_children":[1,3,5,7,9,11,13,-1,-1,15,17,19,21,-1,-1,-1,23,25,27,29,31,33,-1,35,37,-1,-1,-1,-1,-1,-1,-1,-1,39,-1,-1,-1,-1,-1,-1,-1],"loss_changes":[1.9485317E-1,6.3595414E-2,7.048245E-2,4.550308E-3,5.189605E-3,7.3930975E-3,5.19374E-3,0E0,0E0,1.3107881E-3,3.113891E-4,4.9713044E-4,6.1244145E-4,0E0,0E0,0E0,4.7730282E-5,2.7364958E-4,9.449752E-6,4.2677253E-5,2.6116613E-5,3.639359E-3,0E0,7.6944055E-4,1.0048784E-3,0E0,0E0,0E0,0E0,0E0,0E0,0E0,0E0,1.5328135E-3,0E0,0E0,0E0,0E0,0E0,0E0,0E0],"parents":[2147483647,0,0,1,1,2,2,3,3,4,4,5,5,6,6,9,9,10,10,11,11,12,12,16,16,17,17,18,18,19,19,20,20,21,21,23,23,24,24,33,33],"right_children":[2,4,6,8,10,12,14,-1,-1,16,18,20,22,-1,-1,-1,24,26,28,30,32,34,-1,36,38,-1,-1,-1,-1,-1,-1,-1,-1,40,-1,-1,-1,-1,-1,-1,-1],"split_conditions":[3.9067328E2,1.1609245E2,5.338775E2,7.176489E1,3.1666428E2,4.7349374E2,5.4668024E2,-4.5367073E-2,-2.00754E-2,1.5840497E2,3.5034967E2,4.1871243E2,5.1347266E2,1.9939728E-2,4.575714E-2,-1.6578197E-2,2.1010756E2,3.3987637E2,3.7636395E2,4.091457E2,4.4286557E2,4.9811853E2,1.3541667E-2,1.9692986E2,2.3807918E2,-2.3204042E-3,-6.6570286E-3,-2.437134E-3,-1.1167146E-3,-0E0,1.3146973E-3,2.1340945E-3,4.3718973E-3,4.9162607E2,2.989197E-4,-8.9300545E-3,-2.443657E-3,-1.4752808E-2,-7.5548617E-3,7.585144E-3,1.5750276E-2],"split_indices":[0,0,0,0,0,0,0,0,0,0,0,0,0,0,0,0,0,0,0,0,0,0,0,0,0,0,0,0,0,0,0,0,0,0,0,0,0,0,0,0,0],"split_type":[0,0,0,0,0,0,0,0,0,0,0,0,0,0,0,0,0,0,0,0,0,0,0,0,0,0,0,0,0,0,0,0,0,0,0,0,0,0,0,0,0],"sum_hessian":[1.08E2,5.2E1,5.6E1,8E0,4.4E1,4.8E1,8E0,4E0,4E0,2.8E1,1.6E1,2E1,2.8E1,4E0,4E0,4E0,2.4E1,8E0,8E0,8E0,1.2E1,2E1,8E0,8E0,1.6E1,4E0,4E0,4E0,4E0,4E0,4E0,4E0,8E0,1.6E1,4E0,4E0,4E0,4E0,1.2E1,1.2E1,4E0],"tree_param":{"num_deleted":"0","num_feature":"3","num_nodes":"41","size_leaf_vector":"1"}},{"base_weights":[-4.992835E-4,-3.330773E-2,3.0015577E-2,-7.991758E-2,-1.7716616E-2,1.7933203E-2,9.246233E-2,-3.4478962E-2,-1.54759735E-2,-2.2706069E-2,-9.337032E-3,6.66028E-3,2.5477968E-2,1.5154267E-2,3.477539E-2,-1.867049E-2,-1.05342865E-2,-1.2635125E-2,-5.001492E-3,1.8501282E-3,9.478056E-3,5.484537E-3,2.9482225E-2,-2.5456501E-2,-6.793976E-3,-1.7635346E-3,-5.059433E-3,-1.8521119E-3,-8.4869383E-4,-0E0,9.990693E-4,1.6218567E-3,3.2061262E-3,1.1970063E-2,2.3207445E-2,-4.8021954E-3,-1.121212E-2,-4.1130066E-4,-3.2574462E-3,2.2705078E-4,9.93042E-3],"categories":[],"categories_nodes":[],"categories_segments":[],"categories_sizes":[],"default_left":[0,0,0,0,0,0,0,0,0,0,0,0,0,0,0,0,0,0,0,0,0,0,0,0,0,0,0,0,0,0,0,0,0,0,0,0,0,0,0,0,0],"id":17,"left_children":[1,3,5,7,9,11,13,-1,-1,15,17,19,21,-1,-1,23,-1,25,27,29,31,-1,33,35,37,-1,-1,-1,-1,-1,-1,-1,-1,-1,39,-1,-1,-1,-1,-1,-1],"loss_changes":[1.1012458E-1,3.7099194E-2,4.134864E-2,6.9663003E-3,1.5021851E-3,3.9978363E-3,2.999775E-3,0E0,0E0,5.962569E-4,1.798888E-4,2.6709685E-4,2.9665604E-4,0E0,0E0,1.5195259E-3,0E0,1.5806686E-4,5.454567E-6,2.4645411E-5,6.2228646E-6,0E0,1.8531736E-4,8.6565316E-4,1.8347279E-4,0E0,0E0,0E0,0E0,0E0,0E0,0E0,0E0,0E0,2.8625769E-3,0E0,0E0,0E0,0E0,0E0,0E0],"parents":[2147483647,0,0,1,1,2,2,3,3,4,4,5,5,6,6,9,9,10,10,11,11,12,12,15,15,17,17,18,18,19,19,20,20,22,22,23,23,24,24,34,34],"right_children":[2,4,6,8,10,12,14,-1,-1,16,18,20,22,-1,-1,24,-1,26,28,30,32,-1,34,36,38,-1,-1,-1,-1,-1,-1,-1,-1,-1,40,-1,-1,-1,-1,-1,-1],"split_conditions":[3.9067328E2,1.5840497E2,5.338775E2,7.176489E1,3.1666428E2,4.7349374E2,5.4668024E2,-3.4478962E-2,-1.54759735E-2,2.8362726E2,3.5034967E2,4.1871243E2,4.9162607E2,1.5154267E-2,3.477539E-2,2.3807918E2,-1.05342865E-2,3.3987637E2,3.7636395E2,4.091457E2,4.4286557E2,5.484537E-3,4.9811853E2,2.1010756E2,2.618179E2,-1.7635346E-3,-5.059433E-3,-1.8521119E-3,-8.4869383E-4,-0E0,9.990693E-4,1.6218567E-3,3.2061262E-3,1.1970063E-2,5.1347266E2,-4.8021954E-3,-1.121212E-2,-4.1130066E-4,-3.2574462E-3,2.2705078E-4,9.93042E-3],"split_indices":[0,0,0,0,0,0,0,0,0,0,0,0,0,0,0,0,0,0,0,0,0,0,0,0,0,0,0,0,0,0,0,0,0,0,0,0,0,0,0,0,0],"split_type":[0,0,0,0,0,0,0,0,0,0,0,0,0,0,0,0,0,0,0,0,0,0,0,0,0,0,0,0,0,0,0,0,0,0,0,0,0,0,0,0,0],"sum_hessian":[1.08E2,5.2E1,5.6E1,1.2E1,4E1,4.8E1,8E0,4E0,8E0,2.4E1,1.6E1,2E1,2.8E1,4E0,4E0,2E1,4E0,8E0,8E0,8E0,1.2E1,1.2E1,1.6E1,1.2E1,8E0,4E0,4E0,4E0,4E0,4E0,4E0,4E0,8E0,4E0,1.2E1,8E0,4E0,4E0,4E0,4E0,8E0],"tree_param":{"num_deleted":"0","num_feature":"3","num_nodes":"41","size_leaf_vector":"1"}},{"base_weights":[-4.0738517E-4,-2.500775E-2,2.2473788E-2,-6.9901995E-2,-1.5473175E-2,1.323591E-2,7.027181E-2,-2.6203996E-2,-1.1543084E-2,-6.983892E-3,-1.0363414E-2,3.3187866E-3,1.7943643E-2,1.1517335E-2,2.6429445E-2,-1.2682324E-2,-3.801134E-3,-0E0,1.3019855E-3,3.867699E-3,2.1939445E-2,-3.1253818E-4,-1.535999E-2,-1.4076233E-3,-6.44989E-4,9.097138E-3,1.7027048E-2,-5.823136E-3,-2.8808594E-3,1.7257691E-4,7.282512E-3],"categories":[],"categories_nodes":[],"categories_segments":[],"categories_sizes":[],"default_left":[0,0,0,0,0,0,0,0,0,0,0,0,0,0,0,0,0,0,0,0,0,0,0,0,0,0,0,0,0,0,0],"id":18,"left_children":[1,3,5,7,9,11,13,-1,-1,-1,15,17,19,-1,-1,21,23,-1,-1,-1,25,-1,27,-1,-1,-1,29,-1,-1,-1,-1],"loss_changes":[6.1916504E-2,2.1604922E-2,2.423837E-2,1.5729591E-3,1.5537553E-3,2.2281203E-3,1.7326586E-3,0E0,0E0,0E0,3.930952E-4,5.7613477E-5,3.8322248E-4,0E0,0E0,6.3855713E-4,3.152105E-6,0E0,0E0,0E0,1.8385798E-4,0E0,2.1002721E-4,0E0,0E0,0E0,1.5361868E-3,0E0,0E0,0E0,0E0],"parents":[2147483647,0,0,1,1,2,2,3,3,4,4,5,5,6,6,10,10,11,11,12,12,15,15,16,16,20,20,22,22,26,26],"right_children":[2,4,6,8,10,12,14,-1,-1,-1,16,18,20,-1,-1,22,24,-1,-1,-1,26,-1,28,-1,-1,-1,30,-1,-1,-1,-1],"split_conditions":[3.9067328E2,1.1609245E2,5.338775E2,7.176489E1,2.3807918E2,4.6566702E2,5.4668024E2,-2.6203996E-2,-1.1543084E-2,-6.983892E-3,3.5034967E2,4.091457E2,4.9162607E2,1.1517335E-2,2.6429445E-2,2.618179E2,3.7636395E2,-0E0,1.3019855E-3,3.867699E-3,4.9811853E2,-3.1253818E-4,3.1666428E2,-1.4076233E-3,-6.44989E-4,9.097138E-3,5.1347266E2,-5.823136E-3,-2.8808594E-3,1.7257691E-4,7.282512E-3],"split_indices":[0,0,0,0,0,0,0,0,0,0,0,0,0,0,0,0,0,0,0,0,0,0,0,0,0,0,0,0,0,0,0],"split_type":[0,0,0,0,0,0,0,0,0,0,0,0,0,0,0,0,0,0,0,0,0,0,0,0,0,0,0,0,0,0,0],"sum_hessian":[1.08E2,5.2E1,5.6E1,8E0,4.4E1,4.8E1,8E0,4E0,4E0,1.6E1,2.8E1,1.6E1,3.2E1,4E0,4E0,2E1,8E0,4E0,1.2E1,1.6E1,1.6E1,4E0,1.6E1,4E0,4E0,4E0,1.2E1,8E0,8E0,4E0,8E0],"tree_param":{"num_deleted":"0","num_feature":"3","num_nodes":"31","size_leaf_vector":"1"}},{"base_weights":[-2.4974457E-4,-1.8558295E-2,1.6778378E-2,-4.6021573E-2,-9.397786E-3,9.708326E-3,5.340661E-2,-1.9915039E-2,-8.878771E-3,-1.0888129E-2,-2.8889973E-3,3.458659E-3,1.3899178E-2,8.753357E-3,2.0086212E-2,-5.5308873E-3,-1.238121E-2,-1.0697937E-3,-4.902649E-4,8.2736544E-4,1.5042819E-3,1.50454715E-2,1.6163636E-3,-3.958168E-3,9.71489E-4,-6.8450547E-3,-9.306953E-3,-0E0,4.4677735E-4,1.1564709E-2,7.996674E-3,-7.30896E-4,-4.004288E-3,4.2471047E-3,1.3137818E-4],"categories":[],"categories_nodes":[],"categories_segments":[],"categories_sizes":[],"default_left":[0,0,0,0,0,0,0,0,0,0,0,0,0,0,0,0,0,0,0,0,0,0,0,0,0,0,0,0,0,0,0,0,0,0,0],"id":19,"left_children":[1,3,5,7,9,11,13,-1,-1,15,17,19,21,-1,-1,23,25,-1,-1,27,-1,29,-1,-1,-1,-1,31,-1,-1,33,-1,-1,-1,-1,-1],"loss_changes":[3.429324E-2,1.2901112E-2,1.4242427E-2,2.3832675E-3,3.662575E-4,1.2353081E-3,1.0005627E-3,0E0,0E0,1.9548135E-4,1.8175924E-6,8.181017E-5,2.0187348E-4,0E0,0E0,6.475106E-4,5.8969064E-4,0E0,0E0,4.928642E-6,0E0,7.0203654E-4,0E0,0E0,0E0,0E0,5.504824E-4,0E0,0E0,5.995247E-4,0E0,0E0,0E0,0E0,0E0],"parents":[2147483647,0,0,1,1,2,2,3,3,4,4,5,5,6,6,9,9,10,10,11,11,12,12,15,15,16,16,19,19,21,21,26,26,29,29],"right_children":[2,4,6,8,10,12,14,-1,-1,16,18,20,22,-1,-1,24,26,-1,-1,28,-1,30,-1,-1,-1,-1,32,-1,-1,34,-1,-1,-1,-1,-1],"split_conditions":[3.9067328E2,1.5840497E2,5.338775E2,7.176489E1,3.5034967E2,4.7349374E2,5.4668024E2,-1.9915039E-2,-8.878771E-3,2.1010756E2,3.7636395E2,4.1871243E2,5.199166E2,8.753357E-3,2.0086212E-2,1.9692986E2,2.3807918E2,-1.0697937E-3,-4.902649E-4,4.091457E2,1.5042819E-3,5.1347266E2,1.6163636E-3,-3.958168E-3,9.71489E-4,-6.8450547E-3,2.8362726E2,-0E0,4.4677735E-4,4.9811853E2,7.996674E-3,-7.30896E-4,-4.004288E-3,4.2471047E-3,1.3137818E-4],"split_indices":[0,0,0,0,0,0,0,0,0,0,0,0,0,0,0,0,0,0,0,0,0,0,0,0,0,0,0,0,0,0,0,0,0,0,0],"split_type":[0,0,0,0,0,0,0,0,0,0,0,0,0,0,0,0,0,0,0,0,0,0,0,0,0,0,0,0,0,0,0,0,0,0,0],"sum_hessian":[1.08E2,5.2E1,5.6E1,1.2E1,4E1,4.8E1,8E0,4E0,8E0,3.2E1,8E0,2E1,2.8E1,4E0,4E0,8E0,2.4E1,4E0,4E0,8E0,1.2E1,2.4E1,4E0,4E0,4E0,4E0,2E1,4E0,4E0,2E1,4E0,8E0,1.2E1,1.6E1,4E0],"tree_param":{"num_deleted":"0","num_feature":"3","num_nodes":"35","size_leaf_vector":"1"}},{"base_weights":[-1.7616728E-4,-1.3838336E-2,1.2530344E-2,-4.0328342E-2,-8.232816E-3,7.1209497E-3,4.058923E-2,-1.5135441E-2,-6.6418652E-3,-1.1012932E-2,-3.0059814E-3,3.8564277E-3,1.3039084E-2,6.6526798E-3,1.5265504E-2,-9.010048E-3,-5.64743E-3,3.121948E-4,-4.3311487E-3,1.5866896E-3,1.7697952E-3,1.5475933E-2,1.2286378E-3,-1.2304137E-2,-1.7867618E-3,-2.1926882E-3,-2.1955702E-3,-0E0,6.2247063E-4,1.1099922E-2,6.0772705E-3,-2.8261407E-3,-5.202255E-3,-6.214142E-5,-9.0270996E-4,-8.129883E-4,-3.7261966E-4,5.894165E-3,9.979248E-5],"categories":[],"categories_nodes":[],"categories_segments":[],"categories_sizes":[],"default_left":[0,0,0,0,0,0,0,0,0,0,0,0,0,0,0,0,0,0,0,0,0,0,0,0,0,0,0,0,0,0,0,0,0,0,0,0,0,0,0],"id":20,"left_children":[1,3,5,7,9,11,13,-1,-1,15,17,19,21,-1,-1,23,-1,-1,25,27,-1,29,-1,31,33,-1,35,-1,-1,37,-1,-1,-1,-1,-1,-1,-1,-1,-1],"loss_changes":[1.9095635E-2,7.5379685E-3,8.362513E-3,5.4017454E-4,6.207996E-4,8.963898E-4,5.7784E-4,0E0,0E0,2.841279E-4,9.5669064E-5,1.4365482E-4,3.0712155E-4,0E0,0E0,5.728691E-4,0E0,0E0,6.662421E-5,1.3168901E-5,0E0,4.716101E-5,0E0,8.355267E-5,1.6753276E-5,0E0,1.0483163E-6,0E0,0E0,8.217447E-4,0E0,0E0,0E0,0E0,0E0,0E0,0E0,0E0,0E0],"parents":[2147483647,0,0,1,1,2,2,3,3,4,4,5,5,6,6,9,9,10,10,11,11,12,12,15,15,18,18,19,19,21,21,23,23,24,24,26,26,29,29],"right_children":[2,4,6,8,10,12,14,-1,-1,16,18,20,22,-1,-1,24,-1,-1,26,28,-1,30,-1,32,34,-1,36,-1,-1,38,-1,-1,-1,-1,-1,-1,-1,-1,-1],"split_conditions":[3.9067328E2,1.1609245E2,5.338775E2,7.176489E1,3.1666428E2,4.9162607E2,5.4668024E2,-1.5135441E-2,-6.6418652E-3,2.8362726E2,3.3987637E2,4.6566702E2,5.199166E2,6.6526798E-3,1.5265504E-2,2.3807918E2,-5.64743E-3,3.121948E-4,3.5034967E2,4.091457E2,1.7697952E-3,5.1347266E2,1.2286378E-3,2.1010756E2,2.618179E2,-2.1926882E-3,3.7636395E2,-0E0,6.2247063E-4,4.9811853E2,6.0772705E-3,-2.8261407E-3,-5.202255E-3,-6.214142E-5,-9.0270996E-4,-8.129883E-4,-3.7261966E-4,5.894165E-3,9.979248E-5],"split_indices":[0,0,0,0,0,0,0,0,0,0,0,0,0,0,0,0,0,0,0,0,0,0,0,0,0,0,0,0,0,0,0,0,0,0,0,0,0,0,0],"split_type":[0,0,0,0,0,0,0,0,0,0,0,0,0,0,0,0,0,0,0,0,0,0,0,0,0,0,0,0,0,0,0,0,0,0,0,0,0,0,0],"sum_hessian":[1.08E2,5.2E1,5.6E1,8E0,4.4E1,4.8E1,8E0,4E0,4E0,2.8E1,1.6E1,3.2E1,1.6E1,4E0,4E0,2.4E1,4E0,4E0,1.2E1,1.6E1,1.6E1,1.2E1,4E0,1.6E1,8E0,4E0,8E0,4E0,1.2E1,8E0,4E0,1.2E1,4E0,4E0,4E0,4E0,4E0,4E0,4E0],"tree_param":{"num_deleted":"0","num_feature":"3","num_nodes":"39","size_leaf_vector":"1"}},{"base_weights":[-1.4048323E-4,-1.04317665E-2,9.43107E-3,-2.685976E-2,-4.968457E-3,5.3049983E-3,3.0847337E-2,-1.1502943E-2,-5.2487054E-3,-6.5947725E-3,-2.2845548E-3,2.7718977E-3,9.910135E-3,5.056E-3,1.1601563E-2,-4.4445763E-3,-4.291992E-3,2.3735047E-4,-3.2917904E-3,1.1473263E-3,1.2700249E-3,1.17621785E-2,9.338379E-4,-6.239671E-3,-1.3578204E-3,-1.6664887E-3,-5.0061545E-4,1.05667124E-4,5.444845E-4,8.436415E-3,4.6188356E-3,-5.073548E-4,-3.953705E-3,-4.72641E-5,-6.859589E-4,4.4796756E-3,7.598878E-5],"categories":[],"categories_nodes":[],"categories_segments":[],"categories_sizes":[],"default_left":[0,0,0,0,0,0,0,0,0,0,0,0,0,0,0,0,0,0,0,0,0,0,0,0,0,0,0,0,0,0,0,0,0,0,0,0,0],"id":21,"left_children":[1,3,5,7,9,11,13,-1,-1,15,17,19,21,-1,-1,23,-1,-1,25,27,-1,29,-1,31,33,-1,-1,-1,-1,35,-1,-1,-1,-1,-1,-1,-1],"loss_changes":[1.0835271E-2,4.623363E-3,4.8731626E-3,7.2706677E-4,1.6389368E-4,5.441286E-4,3.3371896E-4,0E0,0E0,3.509638E-4,5.526998E-5,7.3496136E-5,1.7739937E-4,0E0,0E0,1.07889035E-4,0E0,0E0,3.8483122E-5,8.384808E-6,0E0,2.722512E-5,0E0,3.8803782E-4,9.672109E-6,0E0,0E0,0E0,0E0,4.7462352E-4,0E0,0E0,0E0,0E0,0E0,0E0,0E0],"parents":[2147483647,0,0,1,1,2,2,3,3,4,4,5,5,6,6,9,9,10,10,11,11,12,12,15,15,18,18,19,19,21,21,23,23,24,24,29,29],"right_children":[2,4,6,8,10,12,14,-1,-1,16,18,20,22,-1,-1,24,-1,-1,26,28,-1,30,-1,32,34,-1,-1,-1,-1,36,-1,-1,-1,-1,-1,-1,-1],"split_conditions":[3.9067328E2,1.5840497E2,5.338775E2,7.176489E1,3.1666428E2,4.9162607E2,5.4668024E2,-1.1502943E-2,-5.2487054E-3,2.8362726E2,3.3987637E2,4.6566702E2,5.199166E2,5.056E-3,1.1601563E-2,2.3807918E2,-4.291992E-3,2.3735047E-4,3.5034967E2,4.1871243E2,1.2700249E-3,5.1347266E2,9.338379E-4,2.1010756E2,2.618179E2,-1.6664887E-3,-5.0061545E-4,1.05667124E-4,5.444845E-4,4.9811853E2,4.6188356E-3,-5.073548E-4,-3.953705E-3,-4.72641E-5,-6.859589E-4,4.4796756E-3,7.598878E-5],"split_indices":[0,0,0,0,0,0,0,0,0,0,0,0,0,0,0,0,0,0,0,0,0,0,0,0,0,0,0,0,0,0,0,0,0,0,0,0,0],"split_type":[0,0,0,0,0,0,0,0,0,0,0,0,0,0,0,0,0,0,0,0,0,0,0,0,0,0,0,0,0,0,0,0,0,0,0,0,0],"sum_hessian":[1.08E2,5.2E1,5.6E1,1.2E1,4E1,4.8E1,8E0,4E0,8E0,2.4E1,1.6E1,3.2E1,1.6E1,4E0,4E0,2E1,4E0,4E0,1.2E1,1.6E1,1.6E1,1.2E1,4E0,1.2E1,8E0,4E0,8E0,8E0,8E0,8E0,4E0,8E0,4E0,4E0,4E0,4E0,4E0],"tree_param":{"num_deleted":"0","num_feature":"3","num_nodes":"37","size_leaf_vector":"1"}},{"base_weights":[-9.377069E-5,-7.2914506E-3,7.6488997E-3,-2.009036E-2,-3.431956E-3,4.3200175E-3,2.3443434E-2,-8.742228E-3,-3.8490295E-3,-4.99588E-3,-1.406715E-3,2.2886868E-3,7.53111E-3,3.8424686E-3,8.816986E-3,-3.3585685E-3,-3.262024E-3,1.803589E-4,-1.9145292E-3,3.3988955E-4,9.113537E-4,8.938716E-3,7.095337E-4,-2.2081377E-3,-1.9839793E-3,-1.2666322E-3,-8.797279E-4,6.4112344E-3,3.510132E-3,1.5384294E-3,-1.3700338E-3,-4.97818E-4,-1.04649866E-4,3.4043887E-3,5.7678226E-5],"categories":[],"categories_nodes":[],"categories_segments":[],"categories_sizes":[],"default_left":[0,0,0,0,0,0,0,0,0,0,0,0,0,0,0,0,0,0,0,0,0,0,0,0,0,0,0,0,0,0,0,0,0,0,0],"id":22,"left_children":[1,3,5,7,9,11,13,-1,-1,15,17,19,21,-1,-1,23,-1,-1,25,-1,-1,27,-1,-1,29,-1,31,33,-1,-1,-1,-1,-1,-1,-1],"loss_changes":[6.1302613E-3,2.7466982E-3,2.6853662E-3,4.803287E-4,1.3550179E-4,2.762893E-4,1.9274885E-4,0E0,0E0,2.0406471E-4,2.256357E-5,2.1666958E-5,1.0247767E-4,0E0,0E0,1.0091705E-4,0E0,0E0,3.6879734E-5,0E0,0E0,1.5728408E-5,0E0,0E0,3.3569318E-4,0E0,4.8021147E-6,2.741306E-4,0E0,0E0,0E0,0E0,0E0,0E0,0E0],"parents":[2147483647,0,0,1,1,2,2,3,3,4,4,5,5,6,6,9,9,10,10,11,11,12,12,15,15,18,18,21,21,24,24,26,26,27,27],"right_children":[2,4,6,8,10,12,14,-1,-1,16,18,20,22,-1,-1,24,-1,-1,26,-1,-1,28,-1,-1,30,-1,32,34,-1,-1,-1,-1,-1,-1,-1],"split_conditions":[4.091457E2,1.5840497E2,5.338775E2,7.176489E1,3.1666428E2,4.9162607E2,5.4668024E2,-8.742228E-3,-3.8490295E-3,2.8362726E2,3.3987637E2,4.6566702E2,5.199166E2,3.8424686E-3,8.816986E-3,1.9692986E2,-3.262024E-3,1.803589E-4,3.5034967E2,3.3988955E-4,9.113537E-4,5.1347266E2,7.095337E-4,-2.2081377E-3,2.1010756E2,-1.2666322E-3,3.7636395E2,4.9811853E2,3.510132E-3,1.5384294E-3,-1.3700338E-3,-4.97818E-4,-1.04649866E-4,3.4043887E-3,5.7678226E-5],"split_indices":[0,0,0,0,0,0,0,0,0,0,0,0,0,0,0,0,0,0,0,0,0,0,0,0,0,0,0,0,0,0,0,0,0,0,0],"split_type":[0,0,0,0,0,0,0,0,0,0,0,0,0,0,0,0,0,0,0,0,0,0,0,0,0,0,0,0,0,0,0,0,0,0,0],"sum_hessian":[1.08E2,5.6E1,5.2E1,1.2E1,4.4E1,4.4E1,8E0,4E0,8E0,2.4E1,2E1,2.8E1,1.6E1,4E0,4E0,2E1,4E0,4E0,1.6E1,1.2E1,1.6E1,1.2E1,4E0,4E0,1.6E1,4E0,1.2E1,8E0,4E0,4E0,1.2E1,4E0,8E0,4E0,4E0],"tree_param":{"num_deleted":"0","num_feature":"3","num_nodes":"35","size_leaf_vector":"1"}},{"base_weights":[-4.721125E-5,-3.4253628E-3,9.389943E-3,-1.5031815E-2,-1.188997E-3,6.4251707E-3,6.7007453E-3,-6.6440967E-3,-2.8226217E-3,-3.04851E-3,9.319421E-4,5.3314934E-3,2.9200746E-3,-9.4244216E-4,-3.5969964E-3,-7.013174E-5,1.5078953E-3,6.0572904E-3,5.3924567E-4,-1.6781617E-3,1.1692429E-3,-2.6759722E-3,-2.3885346E-3,-1.3778688E-4,4.615784E-5,1.9752503E-4,5.007127E-4,4.500756E-3,2.6678466E-3,5.575816E-5,-1.0832844E-3,1.9259136E-3,4.3945314E-5],"categories":[],"categories_nodes":[],"categories_segments":[],"categories_sizes":[],"default_left":[0,0,0,0,0,0,0,0,0,0,0,0,0,0,0,0,0,0,0,0,0,0,0,0,0,0,0,0,0,0,0,0,0],"id":23,"left_children":[1,3,5,7,9,11,-1,-1,-1,13,15,17,-1,19,21,23,25,27,-1,-1,-1,-1,29,-1,-1,-1,-1,31,-1,-1,-1,-1,-1],"loss_changes":[3.5070989E-3,2.0845854E-3,9.6955383E-4,3.117437E-4,2.749711E-4,3.8563856E-5,0E0,0E0,0E0,3.935059E-5,1.9151626E-5,4.297652E-5,0E0,2.2441486E-4,1.6523796E-4,1.203849E-6,1.7757811E-6,3.5006844E-5,0E0,0E0,0E0,0E0,7.934548E-5,0E0,0E0,0E0,0E0,1.07683096E-4,0E0,0E0,0E0,0E0,0E0],"parents":[2147483647,0,0,1,1,2,2,3,3,4,4,5,5,9,9,10,10,11,11,13,13,14,14,15,15,16,16,17,17,22,22,27,27],"right_children":[2,4,6,8,10,12,-1,-1,-1,14,16,18,-1,20,22,24,26,28,-1,-1,-1,-1,30,-1,-1,-1,-1,32,-1,-1,-1,-1,-1],"split_conditions":[4.851629E2,1.5840497E2,5.4668024E2,7.176489E1,3.7636395E2,5.338775E2,6.7007453E-3,-6.6440967E-3,-2.8226217E-3,2.1010756E2,4.1871243E2,5.199166E2,2.9200746E-3,1.9692986E2,2.3807918E2,3.9067328E2,4.4286557E2,5.1347266E2,5.3924567E-4,-1.6781617E-3,1.1692429E-3,-2.6759722E-3,2.8362726E2,-1.3778688E-4,4.615784E-5,1.9752503E-4,5.007127E-4,4.9811853E2,2.6678466E-3,5.575816E-5,-1.0832844E-3,1.9259136E-3,4.3945314E-5],"split_indices":[0,0,0,0,0,0,0,0,0,0,0,0,0,0,0,0,0,0,0,0,0,0,0,0,0,0,0,0,0,0,0,0,0],"split_type":[0,0,0,0,0,0,0,0,0,0,0,0,0,0,0,0,0,0,0,0,0,0,0,0,0,0,0,0,0,0,0,0,0],"sum_hessian":[1.08E2,8E1,2.8E1,1.2E1,6.8E1,2.4E1,4E0,4E0,8E0,3.6E1,3.2E1,2E1,4E0,8E0,2.8E1,1.2E1,2E1,1.6E1,4E0,4E0,4E0,4E0,2.4E1,4E0,8E0,4E0,1.6E1,1.2E1,4E0,8E0,1.6E1,8E0,4E0],"tree_param":{"num_deleted":"0","num_feature":"3","num_nodes":"33","size_leaf_vector":"1"}},{"base_weights":[-1.7380497E-5,-2.3570622E-3,7.938232E-3,-1.3400767E-2,-1.0356284E-3,5.4085143E-3,5.092621E-3,-5.0495057E-3,-2.1869089E-3,-3.5086335E-3,4.4912222E-4,4.505382E-3,2.2192383E-3,-2.5905229E-3,-2.2192383E-3,-3.1173707E-4,1.1920166E-3,5.366399E-3,4.096985E-4,-1.5635492E-3,-1.0503881E-3,3.9711E-4,-6.862822E-4,2.620024E-4,4.984538E-4,2.124939E-3,3.8163927E-3,8.886338E-4,-7.538576E-4,-7.026673E-4,-4.766128E-5,3.341675E-5,2.0274355E-3],"categories":[],"categories_nodes":[],"categories_segments":[],"categories_sizes":[],"default_left":[0,0,0,0,0,0,0,0,0,0,0,0,0,0,0,0,0,0,0,0,0,0,0,0,0,0,0,0,0,0,0,0,0],"id":24,"left_children":[1,3,5,7,9,11,-1,-1,-1,13,15,17,-1,19,-1,21,23,25,-1,-1,27,-1,29,-1,-1,-1,31,-1,-1,-1,-1,-1,-1],"loss_changes":[2.0475937E-3,1.2265715E-3,4.7972554E-4,6.60012E-5,2.8430411E-4,4.3935725E-6,0E0,0E0,0E0,8.437756E-5,2.8068262E-5,3.862832E-5,0E0,9.545474E-5,0E0,1.6222057E-5,2.289351E-6,7.560273E-6,0E0,0E0,1.0720214E-4,0E0,1.7968501E-5,0E0,0E0,0E0,9.7339114E-5,0E0,0E0,0E0,0E0,0E0,0E0],"parents":[2147483647,0,0,1,1,2,2,3,3,4,4,5,5,9,9,10,10,11,11,13,13,15,15,16,16,17,17,20,20,22,22,26,26],"right_children":[2,4,6,8,10,12,-1,-1,-1,14,16,18,-1,20,-1,22,24,26,-1,-1,28,-1,30,-1,-1,-1,32,-1,-1,-1,-1,-1,-1],"split_conditions":[4.9162607E2,1.1609245E2,5.4668024E2,7.176489E1,3.1666428E2,5.338775E2,5.092621E-3,-5.0495057E-3,-2.1869089E-3,2.8362726E2,4.1871243E2,5.199166E2,2.2192383E-3,1.9692986E2,-2.2192383E-3,3.3987637E2,7.5E1,4.9811853E2,4.096985E-4,-1.5635492E-3,2.1010756E2,3.9711E-4,3.5034967E2,2.620024E-4,4.984538E-4,2.124939E-3,5.1347266E2,8.886338E-4,-7.538576E-4,-7.026673E-4,-4.766128E-5,3.341675E-5,2.0274355E-3],"split_indices":[0,0,0,0,0,0,0,0,0,0,0,0,0,0,0,0,2,0,0,0,0,0,0,0,0,0,0,0,0,0,0,0,0],"split_type":[0,0,0,0,0,0,0,0,0,0,0,0,0,0,0,0,0,0,0,0,0,0,0,0,0,0,0,0,0,0,0,0,0],"sum_hessian":[1.08E2,8.4E1,2.4E1,8E0,7.6E1,2E1,4E0,4E0,4E0,2.8E1,4.8E1,1.6E1,4E0,2.4E1,4E0,2.4E1,2.4E1,1.2E1,4E0,8E0,1.6E1,4E0,2E1,1.6E1,8E0,4E0,8E0,4E0,1.2E1,4E0,1.6E1,4E0,4E0],"tree_param":{"num_deleted":"0","num_feature":"3","num_nodes":"33","size_leaf_vector":"1"}},{"base_weights":[9.930462E-7,-1.7730545E-3,6.0327146E-3,-1.01845525E-2,-7.668656E-4,4.110064E-3,3.870392E-3,-3.8376332E-3,-1.6620256E-3,-2.5819251E-3,3.2300365E-4,3.423803E-3,1.6864014E-3,-1.8706131E-3,-1.6866304E-3,-3.4295945E-4,7.941147E-4,4.0782047E-3,3.1127932E-4,-3.1778112E-3,8.063846E-4,3.0189514E-4,-7.1963144E-4,1.7226083E-4,3.6570232E-4,1.6149903E-3,2.9000177E-3,-5.3406495E-4,-1.8527985E-3,4.6039582E-4,-2.494812E-5,-5.3398137E-4,-7.693951E-5,2.5177003E-5,1.5408326E-3],"categories":[],"categories_nodes":[],"categories_segments":[],"categories_sizes":[],"default_left":[0,0,0,0,0,0,0,0,0,0,0,0,0,0,0,0,0,0,0,0,0,0,0,0,0,0,0,0,0,0,0,0,0,0,0],"id":25,"left_children":[1,3,5,7,9,11,-1,-1,-1,13,15,17,-1,19,-1,21,23,25,-1,27,29,-1,31,-1,-1,-1,33,-1,-1,-1,-1,-1,-1,-1,-1],"loss_changes":[1.1770575E-3,7.1159215E-4,2.7712242E-4,3.8127066E-5,1.5315364E-4,2.533343E-6,0E0,0E0,0E0,5.219612E-5,1.5645735E-5,2.231459E-5,0E0,9.004669E-5,0E0,1.13971055E-5,2.009774E-6,4.3777545E-6,0E0,6.023956E-5,5.958067E-6,0E0,7.8921785E-6,0E0,0E0,0E0,5.6242345E-5,0E0,0E0,0E0,0E0,0E0,0E0,0E0,0E0],"parents":[2147483647,0,0,1,1,2,2,3,3,4,4,5,5,9,9,10,10,11,11,13,13,15,15,16,16,17,17,19,19,20,20,22,22,26,26],"right_children":[2,4,6,8,10,12,-1,-1,-1,14,16,18,-1,20,-1,22,24,26,-1,28,30,-1,32,-1,-1,-1,34,-1,-1,-1,-1,-1,-1,-1,-1],"split_conditions":[4.9162607E2,1.1609245E2,5.4668024E2,7.176489E1,3.1666428E2,5.338775E2,3.870392E-3,-3.8376332E-3,-1.6620256E-3,2.8362726E2,4.091457E2,5.199166E2,1.6864014E-3,2.3807918E2,-1.6866304E-3,3.3987637E2,7.5E1,4.9811853E2,3.1127932E-4,2.1010756E2,2.618179E2,3.0189514E-4,3.5034967E2,1.7226083E-4,3.6570232E-4,1.6149903E-3,5.1347266E2,-5.3406495E-4,-1.8527985E-3,4.6039582E-4,-2.494812E-5,-5.3398137E-4,-7.693951E-5,2.5177003E-5,1.5408326E-3],"split_indices":[0,0,0,0,0,0,0,0,0,0,0,0,0,0,0,0,2,0,0,0,0,0,0,0,0,0,0,0,0,0,0,0,0,0,0],"split_type":[0,0,0,0,0,0,0,0,0,0,0,0,0,0,0,0,0,0,0,0,0,0,0,0,0,0,0,0,0,0,0,0,0,0,0],"sum_hessian":[1.08E2,8.4E1,2.4E1,8E0,7.6E1,2E1,4E0,4E0,4E0,2.8E1,4.8E1,1.6E1,4E0,2.4E1,4E0,2E1,2.8E1,1.2E1,4E0,1.6E1,8E0,4E0,1.6E1,2E1,8E0,4E0,8E0,1.2E1,4E0,4E0,4E0,4E0,1.2E1,4E0,4E0],"tree_param":{"num_deleted":"0","num_feature":"3","num_nodes":"35","size_leaf_vector":"1"}},{"base_weights":[2.0342136E-6,-5.8698934E-3,1.0753755E-3,-2.9166127E-3,-1.1810303E-3,3.4848382E-4,7.820977E-3,-2.1179863E-4,2.6020724E-3,1.2817383E-3,2.9415893E-3,8.034897E-4,-4.3085538E-4,3.0992948E-3,2.3666384E-4,-1.4080812E-3,-7.43866E-5,1.2272645E-3,2.2040473E-3,-2.2250866E-4,1.5428716E-4,1.9226074E-5,1.1709596E-3],"categories":[],"categories_nodes":[],"categories_segments":[],"categories_sizes":[],"default_left":[0,0,0,0,0,0,0,0,0,0,0,0,0,0,0,0,0,0,0,0,0,0,0],"id":26,"left_children":[1,3,5,-1,-1,7,9,11,13,-1,-1,-1,15,17,-1,-1,19,-1,21,-1,-1,-1,-1],"loss_changes":[6.9329375E-4,8.832029E-5,4.5328343E-4,0E0,0E0,1.0787603E-4,2.1479791E-5,4.4837543E-5,1.28815445E-5,0E0,0E0,0E0,9.842074E-5,2.523826E-6,0E0,0E0,2.4344048E-5,0E0,3.247489E-5,0E0,0E0,0E0,0E0],"parents":[2147483647,0,0,1,1,2,2,5,5,6,6,7,7,8,8,12,12,13,13,16,16,18,18],"right_children":[2,4,6,-1,-1,8,10,12,14,-1,-1,-1,16,18,-1,-1,20,-1,22,-1,-1,-1,-1],"split_conditions":[1.9692986E2,7.176489E1,5.338775E2,-2.9166127E-3,-1.1810303E-3,4.9162607E2,5.4668024E2,2.1010756E2,5.199166E2,1.2817383E-3,2.9415893E-3,8.034897E-4,2.3807918E2,4.9811853E2,2.3666384E-4,-1.4080812E-3,3.9067328E2,1.2272645E-3,5.1347266E2,-2.2250866E-4,1.5428716E-4,1.9226074E-5,1.1709596E-3],"split_indices":[0,0,0,0,0,0,0,0,0,0,0,0,0,0,0,0,0,0,0,0,0,0,0],"split_type":[0,0,0,0,0,0,0,0,0,0,0,0,0,0,0,0,0,0,0,0,0,0,0],"sum_hessian":[1.08E2,1.6E1,9.2E1,4E0,1.2E1,8.4E1,8E0,6.8E1,1.6E1,4E0,4E0,4E0,6.4E1,1.2E1,4E0,4E0,6E1,4E0,8E0,2.8E1,3.2E1,4E0,4E0],"tree_param":{"num_deleted":"0","num_feature":"3","num_nodes":"23","size_leaf_vector":"1"}},{"base_weights":[2.0713982E-5,-9.983792E-4,3.4848023E-3,-5.0619934E-3,-2.6104547E-4,7.122585E-4,2.2357178E-3,-2.2166348E-3,-9.620667E-4,-1.1591339E-3,2.0249037E-4,-4.0499368E-4,-1.2284089E-3,-7.5110074E-5,1.728603E-4,-1.2154212E-3,8.1062317E-4,2.826691E-4,-2.7557372E-4,6.783804E-5,-1.070137E-3,4.032898E-4,3.444672E-5,-3.5247803E-4,-1.449585E-5],"categories":[],"categories_nodes":[],"categories_segments":[],"categories_sizes":[],"default_left":[0,0,0,0,0,0,0,0,0,0,0,0,0,0,0,0,0,0,0,0,0,0,0,0,0],"id":27,"left_children":[1,3,5,7,9,-1,-1,-1,-1,11,13,15,-1,17,-1,19,21,-1,23,-1,-1,-1,-1,-1,-1],"loss_changes":[3.882741E-4,2.5335897E-4,9.246744E-5,3.241867E-5,3.0624335E-5,0E0,0E0,0E0,0E0,5.3687305E-5,5.126647E-6,2.1673804E-5,0E0,6.173907E-6,0E0,4.487781E-5,3.1876352E-6,0E0,5.052773E-6,0E0,0E0,0E0,0E0,0E0,0E0],"parents":[2147483647,0,0,1,1,2,2,3,3,4,4,9,9,10,10,11,11,13,13,15,15,16,16,18,18],"right_children":[2,4,6,8,10,-1,-1,-1,-1,12,14,16,-1,18,-1,20,22,-1,24,-1,-1,-1,-1,-1,-1],"split_conditions":[4.9162607E2,1.5840497E2,5.4668024E2,7.176489E1,3.1666428E2,7.122585E-4,2.2357178E-3,-2.2166348E-3,-9.620667E-4,2.8362726E2,4.4286557E2,2.3807918E2,-1.2284089E-3,3.3987637E2,1.728603E-4,2.1010756E2,2.618179E2,2.826691E-4,3.5034967E2,6.783804E-5,-1.070137E-3,4.032898E-4,3.444672E-5,-3.5247803E-4,-1.449585E-5],"split_indices":[0,0,0,0,0,0,0,0,0,0,0,0,0,0,0,0,0,0,0,0,0,0,0,0,0],"split_type":[0,0,0,0,0,0,0,0,0,0,0,0,0,0,0,0,0,0,0,0,0,0,0,0,0],"sum_hessian":[1.08E2,8.4E1,2.4E1,1.2E1,7.2E1,2E1,4E0,4E0,8E0,2.4E1,4.8E1,2E1,4E0,2.8E1,2E1,1.2E1,8E0,4E0,2.4E1,8E0,4E0,4E0,4E0,4E0,2E1],"tree_param":{"num_deleted":"0","num_feature":"3","num_nodes":"25","size_leaf_vector":"1"}},{"base_weights":[-3.2328685E-6,-3.3915744E-3,6.1617617E-4,-1.6846561E-3,-6.825961E-4,1.834645E-4,4.6344334E-3,-1.977389E-4,1.1062622E-3,8.0337527E-4,1.6992189E-3,5.9440616E-4,-3.8541827E-4,1.3097128E-3,9.155274E-6,-8.1333163E-4,-1.587418E-4,9.128346E-4,7.191468E-4,3.0647276E-4,-8.278282E-5,4.1814952E-4,-1.560974E-4],"categories":[],"categories_nodes":[],"categories_segments":[],"categories_sizes":[],"default_left":[0,0,0,0,0,0,0,0,0,0,0,0,0,0,0,0,0,0,0,0,0,0,0],"id":28,"left_children":[1,3,5,-1,-1,7,9,11,13,-1,-1,-1,15,17,-1,-1,19,21,-1,-1,-1,-1,-1],"loss_changes":[2.3085567E-4,2.942521E-5,1.6085319E-4,0E0,0E0,3.011951E-5,2.962479E-6,2.5710864E-5,5.4315497E-6,0E0,0E0,0E0,2.9618815E-5,6.8750232E-6,0E0,0E0,7.6136175E-6,1.2444116E-5,0E0,0E0,0E0,0E0,0E0],"parents":[2147483647,0,0,1,1,2,2,5,5,6,6,7,7,8,8,12,12,13,13,16,16,17,17],"right_children":[2,4,6,-1,-1,8,10,12,14,-1,-1,-1,16,18,-1,-1,20,22,-1,-1,-1,-1,-1],"split_conditions":[1.9692986E2,7.176489E1,5.338775E2,-1.6846561E-3,-6.825961E-4,7.5E1,5.4668024E2,2.1010756E2,5.199166E2,8.0337527E-4,1.6992189E-3,5.9440616E-4,2.3807918E2,5.1347266E2,9.155274E-6,-8.1333163E-4,2.618179E2,4.9811853E2,7.191468E-4,3.0647276E-4,-8.278282E-5,4.1814952E-4,-1.560974E-4],"split_indices":[0,0,0,0,0,2,0,0,0,0,0,0,0,0,0,0,0,0,0,0,0,0,0],"split_type":[0,0,0,0,0,0,0,0,0,0,0,0,0,0,0,0,0,0,0,0,0,0,0],"sum_hessian":[1.08E2,1.6E1,9.2E1,4E0,1.2E1,8.4E1,8E0,6E1,2.4E1,4E0,4E0,4E0,5.6E1,2E1,4E0,4E0,5.2E1,1.6E1,4E0,4E0,4.8E1,1.2E1,4E0],"tree_param":{"num_deleted":"0","num_feature":"3","num_nodes":"23","size_leaf_vector":"1"}},{"base_weights":[8.141229E-6,-1.5156076E-3,7.8034075E-4,-3.4542615E-3,-8.6169405E-4,3.8868832E-4,3.522237E-3,-1.2803364E-3,-5.8496476E-4,-3.9043426E-4,-9.1369636E-4,1.4254512E-4,1.0752958E-3,6.1065675E-4,1.2913514E-3,-3.8792295E-4,1.1040183E-4,2.3483277E-4,6.82407E-5,6.6192634E-4,5.5753265E-4,4.5169835E-4,-4.3472878E-4,-2.4787904E-4,5.269865E-5,-1.1856079E-4,1.024882E-3,-6.180954E-4,1.5500387E-4,5.465699E-4,6.8664554E-6],"categories":[],"categories_nodes":[],"categories_segments":[],"categories_sizes":[],"default_left":[0,0,0,0,0,0,0,0,0,0,0,0,0,0,0,0,0,0,0,0,0,0,0,0,0,0,0,0,0,0,0],"id":29,"left_children":[1,3,5,7,9,11,13,-1,-1,15,-1,17,19,-1,-1,-1,21,-1,23,-1,25,-1,27,-1,-1,-1,29,-1,-1,-1,-1],"loss_changes":[1.2943624E-4,4.3928827E-5,7.702348E-5,2.6929847E-6,2.865804E-5,1.0831967E-5,1.7051716E-6,0E0,0E0,1.1444653E-5,0E0,2.2776098E-6,8.72598E-6,0E0,0E0,0E0,1.3584728E-5,0E0,4.469145E-6,0E0,6.193419E-6,0E0,2.1170312E-5,0E0,0E0,0E0,7.145758E-6,0E0,0E0,0E0,0E0],"parents":[2147483647,0,0,1,1,2,2,3,3,4,4,5,5,6,6,9,9,11,11,12,12,16,16,18,18,20,20,22,22,26,26],"right_children":[2,4,6,8,10,12,14,-1,-1,16,-1,18,20,-1,-1,-1,22,-1,24,-1,26,-1,28,-1,-1,-1,30,-1,-1,-1,-1],"split_conditions":[3.1666428E2,1.1609245E2,5.338775E2,7.176489E1,2.8362726E2,4.9162607E2,5.4668024E2,-1.2803364E-3,-5.8496476E-4,1.9692986E2,-9.1369636E-4,3.3987637E2,4.9811853E2,6.1065675E-4,1.2913514E-3,-3.8792295E-4,2.1010756E2,2.3483277E-4,3.5034967E2,6.6192634E-4,5.1347266E2,4.5169835E-4,2.3807918E2,-2.4787904E-4,5.269865E-5,-1.1856079E-4,5.199166E2,-6.180954E-4,1.5500387E-4,5.465699E-4,6.8664554E-6],"split_indices":[0,0,0,0,0,0,0,0,0,0,0,0,0,0,0,0,0,0,0,0,0,0,0,0,0,0,0,0,0,0,0],"split_type":[0,0,0,0,0,0,0,0,0,0,0,0,0,0,0,0,0,0,0,0,0,0,0,0,0,0,0,0,0,0,0],"sum_hessian":[1.08E2,3.6E1,7.2E1,8E0,2.8E1,6.4E1,8E0,4E0,4E0,2.4E1,4E0,4.8E1,1.6E1,4E0,4E0,8E0,1.6E1,4E0,4.4E1,4E0,1.2E1,4E0,1.2E1,4E0,4E1,4E0,8E0,4E0,8E0,4E0,4E0],"tree_param":{"num_deleted":"0","num_feature":"3","num_nodes":"31","size_leaf_vector":"1"}},{"base_weights":[4.3002838E-6,-4.4129876E-4,1.519165E-3,-2.6252004E-3,-1.8030638E-4,8.16794E-4,8.0312096E-4,-9.730626E-4,-4.445458E-4,-6.4843276E-4,1.00427744E-4,5.030823E-4,4.2313797E-4,-2.8923035E-4,-6.944275E-4,1.7852784E-4,4.3233234E-5,-9.017945E-5,7.7819824E-4,-2.8444928E-4,7.663054E-5,-1.8836977E-4,3.7207257E-5,4.1519167E-4,5.0354006E-6,3.4332275E-4,-1.0198447E-4],"categories":[],"categories_nodes":[],"categories_segments":[],"categories_sizes":[],"default_left":[0,0,0,0,0,0,0,0,0,0,0,0,0,0,0,0,0,0,0,0,0,0,0,0,0,0,0],"id":30,"left_children":[1,3,5,7,9,11,-1,-1,-1,13,15,-1,17,19,-1,-1,21,-1,23,-1,25,-1,-1,-1,-1,-1,-1],"loss_changes":[7.424784E-5,4.797511E-5,1.8145358E-5,1.5566548E-6,1.0184388E-5,5.046657E-6,0E0,0E0,0E0,1.6688398E-5,1.3605863E-6,0E0,3.574534E-6,6.099611E-6,0E0,0E0,2.5178388E-6,0E0,4.127971E-6,0E0,7.950876E-6,0E0,0E0,0E0,0E0,0E0,0E0],"parents":[2147483647,0,0,1,1,2,2,3,3,4,4,5,5,9,9,10,10,12,12,13,13,16,16,18,18,20,20],"right_children":[2,4,6,8,10,12,-1,-1,-1,14,16,-1,18,20,-1,-1,22,-1,24,-1,26,-1,-1,-1,-1,-1,-1],"split_conditions":[4.9162607E2,1.1609245E2,5.338775E2,7.176489E1,3.1666428E2,4.9811853E2,8.0312096E-4,-9.730626E-4,-4.445458E-4,2.8362726E2,3.3987637E2,5.030823E-4,5.1347266E2,1.9692986E2,-6.944275E-4,1.7852784E-4,3.5034967E2,-9.017945E-5,5.199166E2,-2.8444928E-4,2.1010756E2,-1.8836977E-4,3.7207257E-5,4.1519167E-4,5.0354006E-6,3.4332275E-4,-1.0198447E-4],"split_indices":[0,0,0,0,0,0,0,0,0,0,0,0,0,0,0,0,0,0,0,0,0,0,0,0,0,0,0],"split_type":[0,0,0,0,0,0,0,0,0,0,0,0,0,0,0,0,0,0,0,0,0,0,0,0,0,0,0],"sum_hessian":[1.08E2,8.4E1,2.4E1,8E0,7.6E1,1.6E1,8E0,4E0,4E0,2.8E1,4.8E1,4E0,1.2E1,2.4E1,4E0,4E0,4.4E1,4E0,8E0,8E0,1.6E1,4E0,4E1,4E0,4E0,4E0,1.2E1],"tree_param":{"num_deleted":"0","num_feature":"3","num_nodes":"27","size_leaf_vector":"1"}},{"base_weights":[-1.7061146E-6,-3.341114E-4,1.12854E-3,-5.9852604E-4,-1.356323E-4,7.175264E-4,7.8872684E-4,-4.7930356E-4,2.1159893E-5,3.8223268E-4,5.116182E-4,-2.0412444E-4,-5.278016E-4,-6.866455E-5,2.2712121E-4,-5.488115E-4,1.4088949E-4,-4.4037748E-5,-4.4528962E-4],"categories":[],"categories_nodes":[],"categories_segments":[],"categories_sizes":[],"default_left":[0,0,0,0,0,0,0,0,0,0,0,0,0,0,0,0,0,0,0],"id":31,"left_children":[1,3,5,-1,7,9,-1,11,-1,-1,13,15,-1,-1,-1,17,-1,-1,-1],"loss_changes":[4.1328338E-5,2.7751254E-5,1.3532215E-5,0E0,5.4894936E-6,1.7548455E-6,0E0,9.855803E-6,0E0,0E0,3.2631579E-6,6.063614E-6,0E0,0E0,0E0,6.1755386E-6,0E0,0E0,0E0],"parents":[2147483647,0,0,1,1,2,2,4,4,5,5,7,7,10,10,11,11,15,15],"right_children":[2,4,6,-1,8,10,-1,12,-1,-1,14,16,-1,-1,-1,18,-1,-1,-1],"split_conditions":[4.9162607E2,1.1609245E2,5.4668024E2,-5.9852604E-4,3.1666428E2,4.9811853E2,7.8872684E-4,2.8362726E2,2.1159893E-5,3.8223268E-4,5.1347266E2,2.3807918E2,-5.278016E-4,-6.866455E-5,2.2712121E-4,2.1010756E2,1.4088949E-4,-4.4037748E-5,-4.4528962E-4],"split_indices":[0,0,0,0,0,0,0,0,0,0,0,0,0,0,0,0,0,0,0],"split_type":[0,0,0,0,0,0,0,0,0,0,0,0,0,0,0,0,0,0,0],"sum_hessian":[1.08E2,8.4E1,2.4E1,8E0,7.6E1,2E1,4E0,2.8E1,4.8E1,4E0,1.6E1,2.4E1,4E0,4E0,1.2E1,1.6E1,8E0,1.2E1,4E0],"tree_param":{"num_deleted":"0","num_feature":"3","num_nodes":"19","size_leaf_vector":"1"}},{"base_weights":[-2.2704448E-6,-1.1219417E-3,2.0242507E-4,-5.9586525E-4,-2.1096745E-4,6.143907E-5,1.5114679E-3,-1.2806484E-4,3.1074317E-4,2.1698E-4,5.9921265E-4,2.7145387E-4,-2.3998684E-4,3.7407153E-4,-5.081177E-5,-3.3840182E-4,-1.2583849E-4,5.7438443E-5,1.920847E-4,1.8642425E-4,-6.702526E-5],"categories":[],"categories_nodes":[],"categories_segments":[],"categories_sizes":[],"default_left":[0,0,0,0,0,0,0,0,0,0,0,0,0,0,0,0,0,0,0,0,0],"id":32,"left_children":[1,3,5,-1,-1,7,9,11,13,-1,-1,-1,15,17,-1,-1,19,-1,-1,-1,-1],"loss_changes":[2.5209003E-5,4.7553185E-6,1.7070912E-5,0E0,0E0,4.055544E-6,2.0022999E-6,5.8818196E-6,1.1883403E-6,0E0,0E0,0E0,4.4195194E-6,1.4816314E-6,0E0,0E0,3.1283994E-6,0E0,0E0,0E0,0E0],"parents":[2147483647,0,0,1,1,2,2,5,5,6,6,7,7,8,8,12,12,13,13,16,16],"right_children":[2,4,6,-1,-1,8,10,12,14,-1,-1,-1,16,18,-1,-1,20,-1,-1,-1,-1],"split_conditions":[1.9692986E2,7.176489E1,5.338775E2,-5.9586525E-4,-2.1096745E-4,4.4286557E2,5.4668024E2,2.1010756E2,5.199166E2,2.1698E-4,5.9921265E-4,2.7145387E-4,2.3807918E2,4.9162607E2,-5.081177E-5,-3.3840182E-4,2.618179E2,5.7438443E-5,1.920847E-4,1.8642425E-4,-6.702526E-5],"split_indices":[0,0,0,0,0,0,0,0,0,0,0,0,0,0,0,0,0,0,0,0,0],"split_type":[0,0,0,0,0,0,0,0,0,0,0,0,0,0,0,0,0,0,0,0,0],"sum_hessian":[1.08E2,1.6E1,9.2E1,4E0,1.2E1,8.4E1,8E0,4.8E1,3.6E1,4E0,4E0,4E0,4.4E1,3.2E1,4E0,4E0,4E1,2E1,1.2E1,4E0,3.6E1],"tree_param":{"num_deleted":"0","num_feature":"3","num_nodes":"21","size_leaf_vector":"1"}},{"base_weights":[7.30567E-7,-5.081924E-4,2.5866783E-4,-4.5287135E-4,-3.410686E-4,1.6364499E-4,4.5547486E-4,-1.6672858E-4,-3.8520814E-4,6.4772E-5,3.86556E-4,-1.5255855E-4,1.0445539E-4,1.4671325E-4,1.619127E-5,2.444458E-4,2.3785759E-4,2.0633699E-4,-1.2793907E-4,-1.3206483E-4,2.1436737E-5,-9.8419194E-5,1.311669E-4,-2.5714876E-4,8.742014E-5],"categories":[],"categories_nodes":[],"categories_segments":[],"categories_sizes":[],"default_left":[0,0,0,0,0,0,0,0,0,0,0,0,0,0,0,0,0,0,0,0,0,0,0,0,0],"id":33,"left_children":[1,3,5,-1,7,9,-1,11,-1,13,15,-1,17,-1,19,-1,21,-1,23,-1,-1,-1,-1,-1,-1],"loss_changes":[1.44399055E-5,5.677238E-6,8.488845E-6,0E0,5.2109654E-6,1.4957133E-6,0E0,2.7411475E-6,0E0,1.002043E-6,1.1435125E-6,0E0,2.3925784E-6,0E0,1.166497E-6,0E0,2.0614652E-6,0E0,4.2250763E-6,0E0,0E0,0E0,0E0,0E0,0E0],"parents":[2147483647,0,0,1,1,2,2,4,4,5,5,7,7,9,9,10,10,12,12,14,14,16,16,18,18],"right_children":[2,4,6,-1,8,10,-1,12,-1,14,16,-1,18,-1,20,-1,22,-1,24,-1,-1,-1,-1,-1,-1],"split_conditions":[3.1666428E2,7.176489E1,5.4668024E2,-4.5287135E-4,2.8362726E2,4.9162607E2,4.5547486E-4,1.9692986E2,-3.8520814E-4,3.3987637E2,4.9811853E2,-1.5255855E-4,2.1010756E2,1.4671325E-4,3.5034967E2,2.444458E-4,5.1347266E2,2.0633699E-4,2.3807918E2,-1.3206483E-4,2.1436737E-5,-9.8419194E-5,1.311669E-4,-2.5714876E-4,8.742014E-5],"split_indices":[0,0,0,0,0,0,0,0,0,0,0,0,0,0,0,0,0,0,0,0,0,0,0,0,0],"split_type":[0,0,0,0,0,0,0,0,0,0,0,0,0,0,0,0,0,0,0,0,0,0,0,0,0],"sum_hessian":[1.08E2,3.6E1,7.2E1,4E0,3.2E1,6.8E1,4E0,2.8E1,4E0,4.8E1,2E1,1.2E1,1.6E1,4E0,4.4E1,4E0,1.6E1,4E0,1.2E1,4E0,4E1,4E0,1.2E1,4E0,8E0],"tree_param":{"num_deleted":"0","num_feature":"3","num_nodes":"25","size_leaf_vector":"1"}},{"base_weights":[-1.0586659E-6,-3.814955E-4,1.9177998E-4,-3.4418108E-4,-2.5390857E-4,2.7747523E-5,2.6626588E-4,-1.2068913E-4,-2.927399E-4,-1.1030344E-4,7.528417E-5,1.5678407E-4,-1.0255667E-4,-1.954651E-4,6.4150496E-5],"categories":[],"categories_nodes":[],"categories_segments":[],"categories_sizes":[],"default_left":[0,0,0,0,0,0,0,0,0,0,0,0,0,0,0],"id":34,"left_children":[1,3,5,-1,7,-1,-1,9,-1,-1,11,-1,13,-1,-1],"loss_changes":[8.069723E-6,3.3237038E-6,4.9609E-6,0E0,3.0558388E-6,0E0,0E0,1.4313746E-6,0E0,0E0,1.4060058E-6,0E0,2.3973853E-6,0E0,0E0],"parents":[2147483647,0,0,1,1,2,2,4,4,7,7,10,10,12,12],"right_children":[2,4,6,-1,8,-1,-1,10,-1,-1,12,-1,14,-1,-1],"split_conditions":[3.1666428E2,7.176489E1,5.338775E2,-3.4418108E-4,2.8362726E2,2.7747523E-5,2.6626588E-4,1.9692986E2,-2.927399E-4,-1.1030344E-4,2.1010756E2,1.5678407E-4,2.3807918E2,-1.954651E-4,6.4150496E-5],"split_indices":[0,0,0,0,0,0,0,0,0,0,0,0,0,0,0],"split_type":[0,0,0,0,0,0,0,0,0,0,0,0,0,0,0],"sum_hessian":[1.08E2,3.6E1,7.2E1,4E0,3.2E1,6.4E1,8E0,2.8E1,4E0,1.2E1,1.6E1,4E0,1.2E1,4E0,8E0],"tree_param":{"num_deleted":"0","num_feature":"3","num_nodes":"15","size_leaf_vector":"1"}},{"base_weights":[-4.9827295E-6,-2.0755801E-4,2.1297527E-4,-2.6158334E-4,-4.228916E-5,4.0334588E-5,2.8198241E-4],"categories":[],"categories_nodes":[],"categories_segments":[],"categories_sizes":[],"default_left":[0,0,0,0,0,0,0],"id":35,"left_children":[1,3,5,-1,-1,-1,-1],"loss_changes":[4.8568713E-6,2.3990096E-6,2.8991958E-6,0E0,0E0,0E0,0E0],"parents":[2147483647,0,0,1,1,2,2],"right_children":[2,4,6,-1,-1,-1,-1],"split_conditions":[4.091457E2,7.176489E1,5.4668024E2,-2.6158334E-4,-4.228916E-5,4.0334588E-5,2.8198241E-4],"split_indices":[0,0,0,0,0,0,0],"split_type":[0,0,0,0,0,0,0],"sum_hessian":[1.08E2,5.6E1,5.2E1,4E0,5.2E1,4.8E1,4E0],"tree_param":{"num_deleted":"0","num_feature":"3","num_nodes":"7","size_leaf_vector":"1"}},{"base_weights":[-3.276615E-6,-8.893294E-5,2.8808592E-4,-1.988125E-4,-1.572503E-5,1.7293294E-4,2.142334E-4,1.6937256E-4,1.4271457E-5],"categories":[],"categories_nodes":[],"categories_segments":[],"categories_sizes":[],"default_left":[0,0,0,0,0,0,0,0,0],"id":36,"left_children":[1,3,5,-1,-1,7,-1,-1,-1],"loss_changes":[2.7459382E-6,1.7461894E-6,1.102959E-6,0E0,0E0,1.0041758E-6,0E0,0E0,0E0],"parents":[2147483647,0,0,1,1,2,2,5,5],"right_children":[2,4,6,-1,-1,8,-1,-1,-1],"split_conditions":[4.9162607E2,7.176489E1,5.4668024E2,-1.988125E-4,-1.572503E-5,4.9811853E2,2.142334E-4,1.6937256E-4,1.4271457E-5],"split_indices":[0,0,0,0,0,0,0,0,0],"split_type":[0,0,0,0,0,0,0,0,0],"sum_hessian":[1.08E2,8.4E1,2.4E1,4E0,8E1,2E1,4E0,4E0,1.6E1],"tree_param":{"num_deleted":"0","num_feature":"3","num_nodes":"9","size_leaf_vector":"1"}},{"base_weights":[-7.043191E-7,-9.3143135E-5,5.5928384E-5,8.377333E-6,1.6296387E-4],"categories":[],"categories_nodes":[],"categories_segments":[],"categories_sizes":[],"default_left":[0,0,0,0,0],"id":37,"left_children":[1,-1,3,-1,-1],"loss_changes":[1.9295808E-6,0E0,1.2538985E-6,0E0,0E0],"parents":[2147483647,0,0,2,2],"right_children":[2,-1,4,-1,-1],"split_conditions":[1.9692986E2,-9.3143135E-5,5.4668024E2,8.377333E-6,1.6296387E-4],"split_indices":[0,0,0,0,0],"split_type":[0,0,0,0,0],"sum_hessian":[1.08E2,1.6E1,9.2E1,8.8E1,4E0],"tree_param":{"num_deleted":"0","num_feature":"3","num_nodes":"5","size_leaf_vector":"1"}},{"base_weights":[4.3746527E-7,-2.6964042E-5,3.9265953E-5],"categories":[],"categories_nodes":[],"categories_segments":[],"categories_sizes":[],"default_left":[0,0,0],"id":38,"left_children":[1,-1,-1],"loss_changes":[1.2959852E-6,0E0,0E0],"parents":[2147483647,0,0],"right_children":[2,-1,-1],"split_conditions":[4.4286557E2,-2.6964042E-5,3.9265953E-5],"split_indices":[0,0,0],"split_type":[0,0,0],"sum_hessian":[1.08E2,6.4E1,4.4E1],"tree_param":{"num_deleted":"0","num_feature":"3","num_nodes":"3","size_leaf_vector":"1"}},{"base_weights":[4.3746528E-8],"categories":[],"categories_nodes":[],"categories_segments":[],"categories_sizes":[],"default_left":[0],"id":39,"left_children":[-1],"loss_changes":[0E0],"parents":[2147483647],"right_children":[-1],"split_conditions":[1.3123959E-8],"split_indices":[0],"split_type":[0],"sum_hessian":[1.08E2],"tree_param":{"num_deleted":"0","num_feature":"3","num_nodes":"1","size_leaf_vector":"1"}},{"base_weights":[4.3746528E-8],"categories":[],"categories_nodes":[],"categories_segments":[],"categories_sizes":[],"default_left":[0],"id":40,"left_children":[-1],"loss_changes":[0E0],"parents":[2147483647],"right_children":[-1],"split_conditions":[1.3123959E-8],"split_indices":[0],"split_type":[0],"sum_hessian":[1.08E2],"tree_param":{"num_deleted":"0","num_feature":"3","num_nodes":"1","size_leaf_vector":"1"}},{"base_weights":[4.3746528E-8],"categories":[],"categories_nodes":[],"categories_segments":[],"categories_sizes":[],"default_left":[0],"id":41,"left_children":[-1],"loss_changes":[0E0],"parents":[2147483647],"right_children":[-1],"split_conditions":[1.3123959E-8],"split_indices":[0],"split_type":[0],"sum_hessian":[1.08E2],"tree_param":{"num_deleted":"0","num_feature":"3","num_nodes":"1","size_leaf_vector":"1"}},{"base_weights":[4.3746528E-8],"categories":[],"categories_nodes":[],"categories_segments":[],"categories_sizes":[],"default_left":[0],"id":42,"left_children":[-1],"loss_changes":[0E0],"parents":[2147483647],"right_children":[-1],"split_conditions":[1.3123959E-8],"split_indices":[0],"split_type":[0],"sum_hessian":[1.08E2],"tree_param":{"num_deleted":"0","num_feature":"3","num_nodes":"1","size_leaf_vector":"1"}},{"base_weights":[4.3746528E-8],"categories":[],"categories_nodes":[],"categories_segments":[],"categories_sizes":[],"default_left":[0],"id":43,"left_children":[-1],"loss_changes":[0E0],"parents":[2147483647],"right_children":[-1],"split_conditions":[1.3123959E-8],"split_indices":[0],"split_type":[0],"sum_hessian":[1.08E2],"tree_param":{"num_deleted":"0","num_feature":"3","num_nodes":"1","size_leaf_vector":"1"}},{"base_weights":[4.3746528E-8],"categories":[],"categories_nodes":[],"categories_segments":[],"categories_sizes":[],"default_left":[0],"id":44,"left_children":[-1],"loss_changes":[0E0],"parents":[2147483647],"right_children":[-1],"split_conditions":[1.3123959E-8],"split_indices":[0],"split_type":[0],"sum_hessian":[1.08E2],"tree_param":{"num_deleted":"0","num_feature":"3","num_nodes":"1","size_leaf_vector":"1"}},{"base_weights":[4.3746528E-8],"categories":[],"categories_nodes":[],"categories_segments":[],"categories_sizes":[],"default_left":[0],"id":45,"left_children":[-1],"loss_changes":[0E0],"parents":[2147483647],"right_children":[-1],"split_conditions":[1.3123959E-8],"split_indices":[0],"split_type":[0],"sum_hessian":[1.08E2],"tree_param":{"num_deleted":"0","num_feature":"3","num_nodes":"1","size_leaf_vector":"1"}},{"base_weights":[4.3746528E-8],"categories":[],"categories_nodes":[],"categories_segments":[],"categories_sizes":[],"default_left":[0],"id":46,"left_children":[-1],"loss_changes":[0E0],"parents":[2147483647],"right_children":[-1],"split_conditions":[1.3123959E-8],"split_indices":[0],"split_type":[0],"sum_hessian":[1.08E2],"tree_param":{"num_deleted":"0","num_feature":"3","num_nodes":"1","size_leaf_vector":"1"}},{"base_weights":[4.3746528E-8],"categories":[],"categories_nodes":[],"categories_segments":[],"categories_sizes":[],"default_left":[0],"id":47,"left_children":[-1],"loss_changes":[0E0],"parents":[2147483647],"right_children":[-1],"split_conditions":[1.3123959E-8],"split_indices":[0],"split_type":[0],"sum_hessian":[1.08E2],"tree_param":{"num_deleted":"0","num_feature":"3","num_nodes":"1","size_leaf_vector":"1"}},{"base_weights":[4.3746528E-8],"categories":[],"categories_nodes":[],"categories_segments":[],"categories_sizes":[],"default_left":[0],"id":48,"left_children":[-1],"loss_changes":[0E0],"parents":[2147483647],"right_children":[-1],"split_conditions":[1.3123959E-8],"split_indices":[0],"split_type":[0],"sum_hessian":[1.08E2],"tree_param":{"num_deleted":"0","num_feature":"3","num_nodes":"1","size_leaf_vector":"1"}},{"base_weights":[4.3746528E-8],"categories":[],"categories_nodes":[],"categories_segments":[],"categories_sizes":[],"default_left":[0],"id":49,"left_children":[-1],"loss_changes":[0E0],"parents":[2147483647],"right_children":[-1],"split_conditions":[1.3123959E-8],"split_indices":[0],"split_type":[0],"sum_hessian":[1.08E2],"tree_param":{"num_deleted":"0","num_feature":"3","num_nodes":"1","size_leaf_vector":"1"}},{"base_weights":[4.3746528E-8],"categories":[],"categories_nodes":[],"categories_segments":[],"categories_sizes":[],"default_left":[0],"id":50,"left_children":[-1],"loss_changes":[0E0],"parents":[2147483647],"right_children":[-1],"split_conditions":[1.3123959E-8],"split_indices":[0],"split_type":[0],"sum_hessian":[1.08E2],"tree_param":{"num_deleted":"0","num_feature":"3","num_nodes":"1","size_leaf_vector":"1"}},{"base_weights":[4.3746528E-8],"categories":[],"categories_nodes":[],"categories_segments":[],"categories_sizes":[],"default_left":[0],"id":51,"left_children":[-1],"loss_changes":[0E0],"parents":[2147483647],"right_children":[-1],"split_conditions":[1.3123959E-8],"split_indices":[0],"split_type":[0],"sum_hessian":[1.08E2],"tree_param":{"num_deleted":"0","num_feature":"3","num_nodes":"1","size_leaf_vector":"1"}},{"base_weights":[4.3746528E-8],"categories":[],"categories_nodes":[],"categories_segments":[],"categories_sizes":[],"default_left":[0],"id":52,"left_children":[-1],"loss_changes":[0E0],"parents":[2147483647],"right_children":[-1],"split_conditions":[1.3123959E-8],"split_indices":[0],"split_type":[0],"sum_hessian":[1.08E2],"tree_param":{"num_deleted":"0","num_feature":"3","num_nodes":"1","size_leaf_vector":"1"}},{"base_weights":[4.3746528E-8],"categories":[],"categories_nodes":[],"categories_segments":[],"categories_sizes":[],"default_left":[0],"id":53,"left_children":[-1],"loss_changes":[0E0],"parents":[2147483647],"right_children":[-1],"split_conditions":[1.3123959E-8],"split_indices":[0],"split_type":[0],"sum_hessian":[1.08E2],"tree_param":{"num_deleted":"0","num_feature":"3","num_nodes":"1","size_leaf_vector":"1"}},{"base_weights":[4.3746528E-8],"categories":[],"categories_nodes":[],"categories_segments":[],"categories_sizes":[],"default_left":[0],"id":54,"left_children":[-1],"loss_changes":[0E0],"parents":[2147483647],"right_children":[-1],"split_conditions":[1.3123959E-8],"split_indices":[0],"split_type":[0],"sum_hessian":[1.08E2],"tree_param":{"num_deleted":"0","num_feature":"3","num_nodes":"1","size_leaf_vector":"1"}},{"base_weights":[4.3746528E-8],"categories":[],"categories_nodes":[],"categories_segments":[],"categories_sizes":[],"default_left":[0],"id":55,"left_children":[-1],"loss_changes":[0E0],"parents":[2147483647],"right_children":[-1],"split_conditions":[1.3123959E-8],"split_indices":[0],"split_type":[0],"sum_hessian":[1.08E2],"tree_param":{"num_deleted":"0","num_feature":"3","num_nodes":"1","size_leaf_vector":"1"}},{"base_weights":[4.3746528E-8],"categories":[],"categories_nodes":[],"categories_segments":[],"categories_sizes":[],"default_left":[0],"id":56,"left_children":[-1],"loss_changes":[0E0],"parents":[2147483647],"right_children":[-1],"split_conditions":[1.3123959E-8],"split_indices":[0],"split_type":[0],"sum_hessian":[1.08E2],"tree_param":{"num_deleted":"0","num_feature":"3","num_nodes":"1","size_leaf_vector":"1"}},{"base_weights":[4.3746528E-8],"categories":[],"categories_nodes":[],"categories_segments":[],"categories_sizes":[],"default_left":[0],"id":57,"left_children":[-1],"loss_changes":[0E0],"parents":[2147483647],"right_children":[-1],"split_conditions":[1.3123959E-8],"split_indices":[0],"split_type":[0],"sum_hessian":[1.08E2],"tree_param":{"num_deleted":"0","num_feature":"3","num_nodes":"1","size_leaf_vector":"1"}},{"base_weights":[4.3746528E-8],"categories":[],"categories_nodes":[],"categories_segments":[],"categories_sizes":[],"default_left":[0],"id":58,"left_children":[-1],"loss_changes":[0E0],"parents":[2147483647],"right_children":[-1],"split_conditions":[1.3123959E-8],"split_indices":[0],"split_type":[0],"sum_hessian":[1.08E2],"tree_param":{"num_deleted":"0","num_feature":"3","num_nodes":"1","size_leaf_vector":"1"}},{"base_weights":[4.3746528E-8],"categories":[],"categories_nodes":[],"categories_segments":[],"categories_sizes":[],"default_left":[0],"id":59,"left_children":[-1],"loss_changes":[0E0],"parents":[2147483647],"right_children":[-1],"split_conditions":[1.3123959E-8],"split_indices":[0],"split_type":[0],"sum_hessian":[1.08E2],"tree_param":{"num_deleted":"0","num_feature":"3","num_nodes":"1","size_leaf_vector":"1"}},{"base_weights":[4.3746528E-8],"categories":[],"categories_nodes":[],"categories_segments":[],"categories_sizes":[],"default_left":[0],"id":60,"left_children":[-1],"loss_changes":[0E0],"parents":[2147483647],"right_children":[-1],"split_conditions":[1.3123959E-8],"split_indices":[0],"split_type":[0],"sum_hessian":[1.08E2],"tree_param":{"num_deleted":"0","num_feature":"3","num_nodes":"1","size_leaf_vector":"1"}},{"base_weights":[4.3746528E-8],"categories":[],"categories_nodes":[],"categories_segments":[],"categories_sizes":[],"default_left":[0],"id":61,"left_children":[-1],"loss_changes":[0E0],"parents":[2147483647],"right_children":[-1],"split_conditions":[1.3123959E-8],"split_indices":[0],"split_type":[0],"sum_hessian":[1.08E2],"tree_param":{"num_deleted":"0","num_feature":"3","num_nodes":"1","size_leaf_vector":"1"}},{"base_weights":[4.3746528E-8],"categories":[],"categories_nodes":[],"categories_segments":[],"categories_sizes":[],"default_left":[0],"id":62,"left_children":[-1],"loss_changes":[0E0],"parents":[2147483647],"right_children":[-1],"split_conditions":[1.3123959E-8],"split_indices":[0],"split_type":[0],"sum_hessian":[1.08E2],"tree_param":{"num_deleted":"0","num_feature":"3","num_nodes":"1","size_leaf_vector":"1"}},{"base_weights":[4.3746528E-8],"categories":[],"categories_nodes":[],"categories_segments":[],"categories_sizes":[],"default_left":[0],"id":63,"left_children":[-1],"loss_changes":[0E0],"parents":[2147483647],"right_children":[-1],"split_conditions":[1.3123959E-8],"split_indices":[0],"split_type":[0],"sum_hessian":[1.08E2],"tree_param":{"num_deleted":"0","num_feature":"3","num_nodes":"1","size_leaf_vector":"1"}},{"base_weights":[4.3746528E-8],"categories":[],"categories_nodes":[],"categories_segments":[],"categories_sizes":[],"default_left":[0],"id":64,"left_children":[-1],"loss_changes":[0E0],"parents":[2147483647],"right_children":[-1],"split_conditions":[1.3123959E-8],"split_indices":[0],"split_type":[0],"sum_hessian":[1.08E2],"tree_param":{"num_deleted":"0","num_feature":"3","num_nodes":"1","size_leaf_vector":"1"}},{"base_weights":[4.3746528E-8],"categories":[],"categories_nodes":[],"categories_segments":[],"categories_sizes":[],"default_left":[0],"id":65,"left_children":[-1],"loss_changes":[0E0],"parents":[2147483647],"right_children":[-1],"split_conditions":[1.3123959E-8],"split_indices":[0],"split_type":[0],"sum_hessian":[1.08E2],"tree_param":{"num_deleted":"0","num_feature":"3","num_nodes":"1","size_leaf_vector":"1"}},{"base_weights":[4.3746528E-8],"categories":[],"categories_nodes":[],"categories_segments":[],"categories_sizes":[],"default_left":[0],"id":66,"left_children":[-1],"loss_changes":[0E0],"parents":[2147483647],"right_children":[-1],"split_conditions":[1.3123959E-8],"split_indices":[0],"split_type":[0],"sum_hessian":[1.08E2],"tree_param":{"num_deleted":"0","num_feature":"3","num_nodes":"1","size_leaf_vector":"1"}},{"base_weights":[4.3746528E-8],"categories":[],"categories_nodes":[],"categories_segments":[],"categories_sizes":[],"default_left":[0],"id":67,"left_children":[-1],"loss_changes":[0E0],"parents":[2147483647],"right_children":[-1],"split_conditions":[1.3123959E-8],"split_indices":[0],"split_type":[0],"sum_hessian":[1.08E2],"tree_param":{"num_deleted":"0","num_feature":"3","num_nodes":"1","size_leaf_vector":"1"}},{"base_weights":[4.3746528E-8],"categories":[],"categories_nodes":[],"categories_segments":[],"categories_sizes":[],"default_left":[0],"id":68,"left_children":[-1],"loss_changes":[0E0],"parents":[2147483647],"right_children":[-1],"split_conditions":[1.3123959E-8],"split_indices":[0],"split_type":[0],"sum_hessian":[1.08E2],"tree_param":{"num_deleted":"0","num_feature":"3","num_nodes":"1","size_leaf_vector":"1"}},{"base_weights":[4.3746528E-8],"categories":[],"categories_nodes":[],"categories_segments":[],"categories_sizes":[],"default_left":[0],"id":69,"left_children":[-1],"loss_changes":[0E0],"parents":[2147483647],"right_children":[-1],"split_conditions":[1.3123959E-8],"split_indices":[0],"split_type":[0],"sum_hessian":[1.08E2],"tree_param":{"num_deleted":"0","num_feature":"3","num_nodes":"1","size_leaf_vector":"1"}},{"base_weights":[4.3746528E-8],"categories":[],"categories_nodes":[],"categories_segments":[],"categories_sizes":[],"default_left":[0],"id":70,"left_children":[-1],"loss_changes":[0E0],"parents":[2147483647],"right_children":[-1],"split_conditions":[1.3123959E-8],"split_indices":[0],"split_type":[0],"sum_hessian":[1.08E2],"tree_param":{"num_deleted":"0","num_feature":"3","num_nodes":"1","size_leaf_vector":"1"}},{"base_weights":[4.3746528E-8],"categories":[],"categories_nodes":[],"categories_segments":[],"categories_sizes":[],"default_left":[0],"id":71,"left_children":[-1],"loss_changes":[0E0],"parents":[2147483647],"right_children":[-1],"split_conditions":[1.3123959E-8],"split_indices":[0],"split_type":[0],"sum_hessian":[1.08E2],"tree_param":{"num_deleted":"0","num_feature":"3","num_nodes":"1","size_leaf_vector":"1"}},{"base_weights":[4.3746528E-8],"categories":[],"categories_nodes":[],"categories_segments":[],"categories_sizes":[],"default_left":[0],"id":72,"left_children":[-1],"loss_changes":[0E0],"parents":[2147483647],"right_children":[-1],"split_conditions":[1.3123959E-8],"split_indices":[0],"split_type":[0],"sum_hessian":[1.08E2],"tree_param":{"num_deleted":"0","num_feature":"3","num_nodes":"1","size_leaf_vector":"1"}},{"base_weights":[4.3746528E-8],"categories":[],"categories_nodes":[],"categories_segments":[],"categories_sizes":[],"default_left":[0],"id":73,"left_children":[-1],"loss_changes":[0E0],"parents":[2147483647],"right_children":[-1],"split_conditions":[1.3123959E-8],"split_indices":[0],"split_type":[0],"sum_hessian":[1.08E2],"tree_param":{"num_deleted":"0","num_feature":"3","num_nodes":"1","size_leaf_vector":"1"}},{"base_weights":[4.3746528E-8],"categories":[],"categories_nodes":[],"categories_segments":[],"categories_sizes":[],"default_left":[0],"id":74,"left_children":[-1],"loss_changes":[0E0],"parents":[2147483647],"right_children":[-1],"split_conditions":[1.3123959E-8],"split_indices":[0],"split_type":[0],"sum_hessian":[1.08E2],"tree_param":{"num_deleted":"0","num_feature":"3","num_nodes":"1","size_leaf_vector":"1"}},{"base_weights":[4.3746528E-8],"categories":[],"categories_nodes":[],"categories_segments":[],"categories_sizes":[],"default_left":[0],"id":75,"left_children":[-1],"loss_changes":[0E0],"parents":[2147483647],"right_children":[-1],"split_conditions":[1.3123959E-8],"split_indices":[0],"split_type":[0],"sum_hessian":[1.08E2],"tree_param":{"num_deleted":"0","num_feature":"3","num_nodes":"1","size_leaf_vector":"1"}},{"base_weights":[4.3746528E-8],"categories":[],"categories_nodes":[],"categories_segments":[],"categories_sizes":[],"default_left":[0],"id":76,"left_children":[-1],"loss_changes":[0E0],"parents":[2147483647],"right_children":[-1],"split_conditions":[1.3123959E-8],"split_indices":[0],"split_type":[0],"sum_hessian":[1.08E2],"tree_param":{"num_deleted":"0","num_feature":"3","num_nodes":"1","size_leaf_vector":"1"}},{"base_weights":[4.3746528E-8],"categories":[],"categories_nodes":[],"categories_segments":[],"categories_sizes":[],"default_left":[0],"id":77,"left_children":[-1],"loss_changes":[0E0],"parents":[2147483647],"right_children":[-1],"split_conditions":[1.3123959E-8],"split_indices":[0],"split_type":[0],"sum_hessian":[1.08E2],"tree_param":{"num_deleted":"0","num_feature":"3","num_nodes":"1","size_leaf_vector":"1"}},{"base_weights":[4.3746528E-8],"categories":[],"categories_nodes":[],"categories_segments":[],"categories_sizes":[],"default_left":[0],"id":78,"left_children":[-1],"loss_changes":[0E0],"parents":[2147483647],"right_children":[-1],"split_conditions":[1.3123959E-8],"split_indices":[0],"split_type":[0],"sum_hessian":[1.08E2],"tree_param":{"num_deleted":"0","num_feature":"3","num_nodes":"1","size_leaf_vector":"1"}},{"base_weights":[4.3746528E-8],"categories":[],"categories_nodes":[],"categories_segments":[],"categories_sizes":[],"default_left":[0],"id":79,"left_children":[-1],"loss_changes":[0E0],"parents":[2147483647],"right_children":[-1],"split_conditions":[1.3123959E-8],"split_indices":[0],"split_type":[0],"sum_hessian":[1.08E2],"tree_param":{"num_deleted":"0","num_feature":"3","num_nodes":"1","size_leaf_vector":"1"}},{"base_weights":[4.3746528E-8],"categories":[],"categories_nodes":[],"categories_segments":[],"categories_sizes":[],"default_left":[0],"id":80,"left_children":[-1],"loss_changes":[0E0],"parents":[2147483647],"right_children":[-1],"split_conditions":[1.3123959E-8],"split_indices":[0],"split_type":[0],"sum_hessian":[1.08E2],"tree_param":{"num_deleted":"0","num_feature":"3","num_nodes":"1","size_leaf_vector":"1"}},{"base_weights":[4.3746528E-8],"categories":[],"categories_nodes":[],"categories_segments":[],"categories_sizes":[],"default_left":[0],"id":81,"left_children":[-1],"loss_changes":[0E0],"parents":[2147483647],"right_children":[-1],"split_conditions":[1.3123959E-8],"split_indices":[0],"split_type":[0],"sum_hessian":[1.08E2],"tree_param":{"num_deleted":"0","num_feature":"3","num_nodes":"1","size_leaf_vector":"1"}},{"base_weights":[4.3746528E-8],"categories":[],"categories_nodes":[],"categories_segments":[],"categories_sizes":[],"default_left":[0],"id":82,"left_children":[-1],"loss_changes":[0E0],"parents":[2147483647],"right_children":[-1],"split_conditions":[1.3123959E-8],"split_indices":[0],"split_type":[0],"sum_hessian":[1.08E2],"tree_param":{"num_deleted":"0","num_feature":"3","num_nodes":"1","size_leaf_vector":"1"}},{"base_weights":[4.3746528E-8],"categories":[],"categories_nodes":[],"categories_segments":[],"categories_sizes":[],"default_left":[0],"id":83,"left_children":[-1],"loss_changes":[0E0],"parents":[2147483647],"right_children":[-1],"split_conditions":[1.3123959E-8],"split_indices":[0],"split_type":[0],"sum_hessian":[1.08E2],"tree_param":{"num_deleted":"0","num_feature":"3","num_nodes":"1","size_leaf_vector":"1"}},{"base_weights":[4.3746528E-8],"categories":[],"categories_nodes":[],"categories_segments":[],"categories_sizes":[],"default_left":[0],"id":84,"left_children":[-1],"loss_changes":[0E0],"parents":[2147483647],"right_children":[-1],"split_conditions":[1.3123959E-8],"split_indices":[0],"split_type":[0],"sum_hessian":[1.08E2],"tree_param":{"num_deleted":"0","num_feature":"3","num_nodes":"1","size_leaf_vector":"1"}},{"base_weights":[4.3746528E-8],"categories":[],"categories_nodes":[],"categories_segments":[],"categories_sizes":[],"default_left":[0],"id":85,"left_children":[-1],"loss_changes":[0E0],"parents":[2147483647],"right_children":[-1],"split_conditions":[1.3123959E-8],"split_indices":[0],"split_type":[0],"sum_hessian":[1.08E2],"tree_param":{"num_deleted":"0","num_feature":"3","num_nodes":"1","size_leaf_vector":"1"}},{"base_weights":[4.3746528E-8],"categories":[],"categories_nodes":[],"categories_segments":[],"categories_sizes":[],"default_left":[0],"id":86,"left_children":[-1],"loss_changes":[0E0],"parents":[2147483647],"right_children":[-1],"split_conditions":[1.3123959E-8],"split_indices":[0],"split_type":[0],"sum_hessian":[1.08E2],"tree_param":{"num_deleted":"0","num_feature":"3","num_nodes":"1","size_leaf_vector":"1"}},{"base_weights":[4.3746528E-8],"categories":[],"categories_nodes":[],"categories_segments":[],"categories_sizes":[],"default_left":[0],"id":87,"left_children":[-1],"loss_changes":[0E0],"parents":[2147483647],"right_children":[-1],"split_conditions":[1.3123959E-8],"split_indices":[0],"split_type":[0],"sum_hessian":[1.08E2],"tree_param":{"num_deleted":"0","num_feature":"3","num_nodes":"1","size_leaf_vector":"1"}},{"base_weights":[4.3746528E-8],"categories":[],"categories_nodes":[],"categories_segments":[],"categories_sizes":[],"default_left":[0],"id":88,"left_children":[-1],"loss_changes":[0E0],"parents":[2147483647],"right_children":[-1],"split_conditions":[1.3123959E-8],"split_indices":[0],"split_type":[0],"sum_hessian":[1.08E2],"tree_param":{"num_deleted":"0","num_feature":"3","num_nodes":"1","size_leaf_vector":"1"}},{"base_weights":[4.3746528E-8],"categories":[],"categories_nodes":[],"categories_segments":[],"categories_sizes":[],"default_left":[0],"id":89,"left_children":[-1],"loss_changes":[0E0],"parents":[2147483647],"right_children":[-1],"split_conditions":[1.3123959E-8],"split_indices":[0],"split_type":[0],"sum_hessian":[1.08E2],"tree_param":{"num_deleted":"0","num_feature":"3","num_nodes":"1","size_leaf_vector":"1"}},{"base_weights":[4.3746528E-8],"categories":[],"categories_nodes":[],"categories_segments":[],"categories_sizes":[],"default_left":[0],"id":90,"left_children":[-1],"loss_changes":[0E0],"parents":[2147483647],"right_children":[-1],"split_conditions":[1.3123959E-8],"split_indices":[0],"split_type":[0],"sum_hessian":[1.08E2],"tree_param":{"num_deleted":"0","num_feature":"3","num_nodes":"1","size_leaf_vector":"1"}},{"base_weights":[4.3746528E-8],"categories":[],"categories_nodes":[],"categories_segments":[],"categories_sizes":[],"default_left":[0],"id":91,"left_children":[-1],"loss_changes":[0E0],"parents":[2147483647],"right_children":[-1],"split_conditions":[1.3123959E-8],"split_indices":[0],"split_type":[0],"sum_hessian":[1.08E2],"tree_param":{"num_deleted":"0","num_feature":"3","num_nodes":"1","size_leaf_vector":"1"}},{"base_weights":[4.3746528E-8],"categories":[],"categories_nodes":[],"categories_segments":[],"categories_sizes":[],"default_left":[0],"id":92,"left_children":[-1],"loss_changes":[0E0],"parents":[2147483647],"right_children":[-1],"split_conditions":[1.3123959E-8],"split_indices":[0],"split_type":[0],"sum_hessian":[1.08E2],"tree_param":{"num_deleted":"0","num_feature":"3","num_nodes":"1","size_leaf_vector":"1"}},{"base_weights":[4.3746528E-8],"categories":[],"categories_nodes":[],"categories_segments":[],"categories_sizes":[],"default_left":[0],"id":93,"left_children":[-1],"loss_changes":[0E0],"parents":[2147483647],"right_children":[-1],"split_conditions":[1.3123959E-8],"split_indices":[0],"split_type":[0],"sum_hessian":[1.08E2],"tree_param":{"num_deleted":"0","num_feature":"3","num_nodes":"1","size_leaf_vector":"1"}},{"base_weights":[4.3746528E-8],"categories":[],"categories_nodes":[],"categories_segments":[],"categories_sizes":[],"default_left":[0],"id":94,"left_children":[-1],"loss_changes":[0E0],"parents":[2147483647],"right_children":[-1],"split_conditions":[1.3123959E-8],"split_indices":[0],"split_type":[0],"sum_hessian":[1.08E2],"tree_param":{"num_deleted":"0","num_feature":"3","num_nodes":"1","size_leaf_vector":"1"}},{"base_weights":[4.3746528E-8],"categories":[],"categories_nodes":[],"categories_segments":[],"categories_sizes":[],"default_left":[0],"id":95,"left_children":[-1],"loss_changes":[0E0],"parents":[2147483647],"right_children":[-1],"split_conditions":[1.3123959E-8],"split_indices":[0],"split_type":[0],"sum_hessian":[1.08E2],"tree_param":{"num_deleted":"0","num_feature":"3","num_nodes":"1","size_leaf_vector":"1"}},{"base_weights":[4.3746528E-8],"categories":[],"categories_nodes":[],"categories_segments":[],"categories_sizes":[],"default_left":[0],"id":96,"left_children":[-1],"loss_changes":[0E0],"parents":[2147483647],"right_children":[-1],"split_conditions":[1.3123959E-8],"split_indices":[0],"split_type":[0],"sum_hessian":[1.08E2],"tree_param":{"num_deleted":"0","num_feature":"3","num_nodes":"1","size_leaf_vector":"1"}},{"base_weights":[4.3746528E-8],"categories":[],"categories_nodes":[],"categories_segments":[],"categories_sizes":[],"default_left":[0],"id":97,"left_children":[-1],"loss_changes":[0E0],"parents":[2147483647],"right_children":[-1],"split_conditions":[1.3123959E-8],"split_indices":[0],"split_type":[0],"sum_hessian":[1.08E2],"tree_param":{"num_deleted":"0","num_feature":"3","num_nodes":"1","size_leaf_vector":"1"}},{"base_weights":[4.3746528E-8],"categories":[],"categories_nodes":[],"categories_segments":[],"categories_sizes":[],"default_left":[0],"id":98,"left_children":[-1],"loss_changes":[0E0],"parents":[2147483647],"right_children":[-1],"split_conditions":[1.3123959E-8],"split_indices":[0],"split_type":[0],"sum_hessian":[1.08E2],"tree_param":{"num_deleted":"0","num_feature":"3","num_nodes":"1","size_leaf_vector":"1"}},{"base_weights":[4.3746528E-8],"categories":[],"categories_nodes":[],"categories_segments":[],"categories_sizes":[],"default_left":[0],"id":99,"left_children":[-1],"loss_changes":[0E0],"parents":[2147483647],"right_children":[-1],"split_conditions":[1.3123959E-8],"split_indices":[0],"split_type":[0],"sum_hessian":[1.08E2],"tree_param":{"num_deleted":"0","num_feature":"3","num_nodes":"1","size_leaf_vector":"1"}}]},"name":"gbtree"},"learner_model_param":{"base_score":"1.4E1","boost_from_average":"1","num_class":"0","num_feature":"3","num_target":"1"},"objective":{"name":"reg:squarederror","reg_loss_param":{"scale_pos_weight":"1"}}},"version":[2,1,4]}