{"learner":{"attributes":{"scikit_learn":"{\"_estimator_type\": \"regressor\"}"},"feature_names":[],"feature_types":[],"gradient_booster":{"model":{"gbtree_model_param":{"num_parallel_tree":"1","num_trees":"100"},"iteration_indptr":[0,1,2,3,4,5,6,7,8,9,10,11,12,13,14,15,16,17,18,19,20,21,22,23,24,25,26,27,28,29,30,31,32,33,34,35,36,37,38,39,40,41,42,43,44,45,46,47,48,49,50,51,52,53,54,55,56,57,58,59,60,61,62,63,64,65,66,67,68,69,70,71,72,73,74,75,76,77,78,79,80,81,82,83,84,85,86,87,88,89,90,91,92,93,94,95,96,97,98,99,100],"tree_info":[0,0,0,0,0,0,0,0,0,0,0,0,0,0,0,0,0,0,0,0,0,0,0,0,0,0,0,0,0,0,0,0,0,0,0,0,0,0,0,0,0,0,0,0,0,0,0,0,0,0,0,0,0,0,0,0,0,0,0,0,0,0,0,0,0,0,0,0,0,0,0,0,0,0,0,0,0,0,0,0,0,0,0,0,0,0,0,0,0,0,0,0,0,0,0,0,0,0,0,0],"trees":[{"base_weights":[-0E0,-4.9690814E0,9.312914E0,-7.375828E0,-2.199248E0,5.8024693E0,1.318662E1,-2.5570588E0,-1.7429105E0,-3.4433334E0,-5.805085E-1,3.7804878E0,2.304878E0,3.3024194E0,4.3536587E0,-1.236207E0,-8.8563836E-1,-1.3269231E0,8.333333E-1,8.214286E-1,1.3928572E0,-4.7068968E-1,-1.7045455E-1,1.02272734E-1,3.75E-1],"categories":[],"categories_nodes":[],"categories_segments":[],"categories_sizes":[],"default_left":[0,0,0,0,0,0,0,0,0,0,0,0,0,0,0,0,0,0,0,0,0,0,0,0,0],"id":0,"left_children":[1,3,5,7,9,11,13,-1,-1,15,17,19,-1,-1,-1,-1,-1,21,23,-1,-1,-1,-1,-1,-1],"loss_changes":[2.0084055E4,1.8703379E3,1.9768477E3,2.2189453E2,2.658432E2,2.7893726E2,4.5285156E1,0E0,0E0,1.2789307E1,6.3369186E1,2.4143433E1,0E0,0E0,0E0,0E0,0E0,6.2708054E0,3.882577E0,0E0,0E0,0E0,0E0,0E0,0E0],"parents":[2147483647,0,0,1,1,2,2,3,3,4,4,5,5,6,6,9,9,10,10,11,11,17,17,18,18],"right_children":[2,4,6,8,10,12,14,-1,-1,16,18,20,-1,-1,-1,-1,-1,22,24,-1,-1,-1,-1,-1,-1],"split_conditions":[6.6927637E2,3.8534094E2,4.851629E2,2.5689395E2,4.732257E2,4.4286557E2,5.1347266E2,-2.5570588E0,-1.7429105E0,4.2928333E2,5.88152E2,4.0068887E2,2.304878E0,3.3024194E0,4.3536587E0,-1.236207E0,-8.8563836E-1,5.3406903E2,3.5034967E2,8.214286E-1,1.3928572E0,-4.7068968E-1,-1.7045455E-1,1.02272734E-1,3.75E-1],"split_indices":[1,1,0,1,1,0,0,0,0,1,1,0,0,0,0,0,0,1,0,0,0,0,0,0,0],"split_type":[0,0,0,0,0,0,0,0,0,0,0,0,0,0,0,0,0,0,0,0,0,0,0,0,0],"sum_hessian":[4.32E2,2.82E2,1.5E2,1.5E2,1.32E2,8E1,7E1,8.4E1,6.6E1,7.4E1,5.8E1,4E1,4E1,3E1,4E1,2.8E1,4.6E1,3.8E1,2E1,2E1,2E1,2.8E1,1E1,1E1,1E1],"tree_param":{"num_deleted":"0","num_feature":"3","num_nodes":"25","size_leaf_vector":"1"}},{"base_weights":[1.2908755E-2,-3.3290956E0,6.9575496E0,-5.1915565E0,-1.3391608E0,3.658451E0,8.730039E0,-1.9358144E0,-4.3802133E0,-2.0894907E0,5.784765E-1,7.908163E-1,1.2699084E0,2.0696638E0,3.009291E0,-1.4663205E0,-1.0578417E0,-2.4386246E0,-3.3435196E-1,-8.658E-2,3.6479595E-1,-8.781332E-1,-6.2559986E-1,-1.23966835E-1,7.438009E-2],"categories":[],"categories_nodes":[],"categories_segments":[],"categories_sizes":[],"default_left":[0,0,0,0,0,0,0,0,0,0,0,0,0,0,0,0,0,0,0,0,0,0,0,0,0],"id":1,"left_children":[1,3,5,7,9,11,13,-1,15,17,19,-1,-1,-1,-1,-1,-1,21,-1,23,-1,-1,-1,-1,-1],"loss_changes":[1.0072668E4,1.0789573E3,7.925752E2,1.2624365E2,2.0696576E2,1.880127E1,1.475791E2,0E0,2.3943848E1,3.2343384E1,1.7488466E1,0E0,0E0,0E0,0E0,0E0,0E0,6.839325E0,0E0,2.3970473E0,0E0,0E0,0E0,0E0,0E0],"parents":[2147483647,0,0,1,1,2,2,3,3,4,4,5,5,6,6,8,8,9,9,10,10,17,17,19,19],"right_children":[2,4,6,8,10,12,14,-1,16,18,20,-1,-1,-1,-1,-1,-1,22,-1,24,-1,-1,-1,-1,-1],"split_conditions":[7.064584E2,3.8534094E2,4.7349374E2,1.9605066E2,5.3406903E2,4.1871243E2,4.9811853E2,-1.9358144E0,3.109769E2,4.732257E2,3.5034967E2,7.908163E-1,1.2699084E0,2.0696638E0,3.009291E0,-1.4663205E0,-1.0578417E0,4.2928333E2,-3.3435196E-1,3.17212E2,3.6479595E-1,-8.781332E-1,-6.2559986E-1,-1.23966835E-1,7.438009E-2],"split_indices":[1,1,0,1,1,0,0,0,1,1,0,0,0,0,0,0,0,1,0,0,0,0,0,0,0],"split_type":[0,0,0,0,0,0,0,0,0,0,0,0,0,0,0,0,0,0,0,0,0,0,0,0,0],"sum_hessian":[4.32E2,2.92E2,1.4E2,1.5E2,1.42E2,5E1,9E1,5.6E1,9.4E1,1.02E2,4E1,2E1,3E1,4E1,5E1,5.6E1,3.8E1,7.4E1,2.8E1,2E1,2E1,2.8E1,4.6E1,1E1,1E1],"tree_param":{"num_deleted":"0","num_feature":"3","num_nodes":"25","size_leaf_vector":"1"}},{"base_weights":[1.1707779E-2,-2.3507862E0,4.920921E0,-3.6636257E0,-9.480621E-1,3.3667374E0,6.904001E0,-1.3652586E0,-3.0927193E0,-1.4804891E0,4.1262186E-1,2.3089094E0,1.3027351E0,1.7495087E0,2.3260794E0,-1.0341418E0,-7.486263E-1,-1.7270871E0,-2.3750529E-1,-6.2967025E-2,8.6856204E-1,4.8075148E-1,7.4552643E-1,-2.0792582E0,-1.4730436E0,-9.01576E-2,5.4094665E-2,1.7323753E-1,3.2421166E-1,-4.1199824E-1,-7.135561E-1,-3.0375326E-1,-4.7104403E-1],"categories":[],"categories_nodes":[],"categories_segments":[],"categories_sizes":[],"default_left":[0,0,0,0,0,0,0,0,0,0,0,0,0,0,0,0,0,0,0,0,0,0,0,0,0,0,0,0,0,0,0,0,0],"id":2,"left_children":[1,3,5,7,9,11,13,-1,15,17,19,21,-1,-1,-1,-1,-1,23,-1,25,27,-1,-1,29,31,-1,-1,-1,-1,-1,-1,-1,-1],"loss_changes":[5.0334956E3,5.361013E2,4.1132812E2,6.2411255E1,1.0420935E2,7.357666E1,1.0356201E1,0E0,1.1508911E1,1.6128052E1,8.945135E0,1.1202393E0,0E0,0E0,0E0,0E0,0E0,3.647171E0,0E0,1.267859E0,6.728077E-1,0E0,0E0,2.8600006E0,5.120163E-1,0E0,0E0,0E0,0E0,0E0,0E0,0E0,0E0],"parents":[2147483647,0,0,1,1,2,2,3,3,4,4,5,5,6,6,8,8,9,9,10,10,11,11,17,17,19,19,20,20,23,23,24,24],"right_children":[2,4,6,8,10,12,14,-1,16,18,20,22,-1,-1,-1,-1,-1,24,-1,26,28,-1,-1,30,32,-1,-1,-1,-1,-1,-1,-1,-1],"split_conditions":[7.064584E2,3.8534094E2,4.9162607E2,1.9605066E2,5.3406903E2,4.6566702E2,5.199166E2,-1.3652586E0,3.109769E2,4.732257E2,3.5034967E2,4.0068887E2,1.3027351E0,1.7495087E0,2.3260794E0,-1.0341418E0,-7.486263E-1,4.2928333E2,-2.3750529E-1,3.17212E2,3.5060275E2,4.8075148E-1,7.4552643E-1,2.4394832E2,2.6712592E2,-9.01576E-2,5.4094665E-2,1.7323753E-1,3.2421166E-1,-4.1199824E-1,-7.135561E-1,-3.0375326E-1,-4.7104403E-1],"split_indices":[1,1,0,1,1,0,0,0,1,1,0,0,0,0,0,0,0,1,0,0,0,0,0,0,0,0,0,0,0,0,0,0,0],"split_type":[0,0,0,0,0,0,0,0,0,0,0,0,0,0,0,0,0,0,0,0,0,0,0,0,0,0,0,0,0,0,0,0,0],"sum_hessian":[4.32E2,2.92E2,1.4E2,1.5E2,1.42E2,8E1,6E1,5.6E1,9.4E1,1.02E2,4E1,4E1,4E1,3E1,3E1,5.6E1,3.8E1,7.4E1,2.8E1,2E1,2E1,1E1,3E1,2.8E1,4.6E1,1E1,1E1,1E1,1E1,1E1,1.8E1,1E1,3.6E1],"tree_param":{"num_deleted":"0","num_feature":"3","num_nodes":"33","size_leaf_vector":"1"}},{"base_weights":[1.2306548E-2,-1.7512947E0,3.3175175E0,-2.7827303E0,-9.5242584E-1,2.0378625E0,4.7306795E0,-1.091093E0,-7.478006E-1,-1.3659209E0,-2.144189E-1,1.4928946E0,8.606056E-1,1.2479932E0,1.7674202E0,-1.6044192E0,-1.0476159E0,-4.7981814E-1,2.8867584E-1,1.1588284E0,5.74485E-1,-3.7062633E-1,-5.562277E-1,-2.2091155E-1,-3.335502E-1,-1.6871074E-1,-6.5569185E-2,3.934167E-2,1.2599087E-1,2.3579018E-1,3.8968632E-1],"categories":[],"categories_nodes":[],"categories_segments":[],"categories_sizes":[],"default_left":[0,0,0,0,0,0,0,0,0,0,0,0,0,0,0,0,0,0,0,0,0,0,0,0,0,0,0,0,0,0,0],"id":3,"left_children":[1,3,5,7,9,11,13,-1,-1,15,17,19,-1,-1,-1,21,23,25,27,29,-1,-1,-1,-1,-1,-1,-1,-1,-1,-1,-1],"loss_changes":[2.5297988E3,2.305365E2,2.63422E2,2.1411682E1,4.8838226E1,3.2391846E1,2.2524048E1,0E0,0E0,6.1384735E0,8.016249E0,4.971611E0,0E0,0E0,0E0,2.9607391E0,1.2068558E-1,7.181921E-1,3.7928164E-1,5.987358E-1,0E0,0E0,0E0,0E0,0E0,0E0,0E0,0E0,0E0,0E0,0E0],"parents":[2147483647,0,0,1,1,2,2,3,3,4,4,5,5,6,6,9,9,10,10,11,11,15,15,16,16,17,17,18,18,19,19],"right_children":[2,4,6,8,10,12,14,-1,-1,16,18,20,-1,-1,-1,22,24,26,28,30,-1,-1,-1,-1,-1,-1,-1,-1,-1,-1,-1],"split_conditions":[6.6927637E2,3.3801837E2,4.851629E2,1.4196771E2,4.732257E2,4.6566702E2,5.338775E2,-1.091093E0,-7.478006E-1,4.2928333E2,5.88152E2,4.1871243E2,8.606056E-1,1.2479932E0,1.7674202E0,2.4394832E2,2.6712592E2,5.3406903E2,3.5034967E2,3.9067328E2,5.74485E-1,-3.7062633E-1,-5.562277E-1,-2.2091155E-1,-3.335502E-1,-1.6871074E-1,-6.5569185E-2,3.934167E-2,1.2599087E-1,2.3579018E-1,3.8968632E-1],"split_indices":[1,1,0,1,1,0,0,0,0,1,1,0,0,0,0,0,0,1,0,0,0,0,0,0,0,0,0,0,0,0,0],"split_type":[0,0,0,0,0,0,0,0,0,0,0,0,0,0,0,0,0,0,0,0,0,0,0,0,0,0,0,0,0,0,0],"sum_hessian":[4.32E2,2.82E2,1.5E2,1.22E2,1.6E2,8E1,7E1,2.8E1,9.4E1,1.02E2,5.8E1,5E1,3E1,5E1,2E1,5.6E1,4.6E1,3.8E1,2E1,3E1,2E1,2.5E1,3.1E1,1E1,3.6E1,2.8E1,1E1,1E1,1E1,1E1,2E1],"tree_param":{"num_deleted":"0","num_feature":"3","num_nodes":"31","size_leaf_vector":"1"}},{"base_weights":[1.2510319E-2,-1.2378819E0,2.3558779E0,-1.832841E0,-5.5309474E-1,1.1617215E0,3.1304677E0,-2.306239E0,-1.5295093E0,-8.6182857E-1,-1.5126193E-1,8.3135635E-1,4.3638355E-1,7.973202E-1,1.1879108E0,-7.7505225E-1,-5.8483344E-1,-5.0893754E-1,-1.2462887E0,-1.8816185E-1,-9.357421E-1,-3.4187996E-1,2.0994595E-1,1.7148373E-1,2.783473E-1,-9.6800756E-1,-4.4648048E-1,-3.5267007E-1,-2.3618954E-1,-1.1984281E-1,-4.7686752E-2,2.8612053E-2,9.162973E-2,-3.6213297E-1,-1.9227141E-1],"categories":[],"categories_nodes":[],"categories_segments":[],"categories_sizes":[],"default_left":[0,0,0,0,0,0,0,0,0,0,0,0,0,0,0,0,0,0,0,0,0,0,0,0,0,0,0,0,0,0,0,0,0,0,0],"id":4,"left_children":[1,3,5,7,9,11,13,15,17,19,21,23,-1,-1,-1,-1,-1,-1,25,-1,27,29,31,-1,-1,33,-1,-1,-1,-1,-1,-1,-1,-1,-1],"loss_changes":[1.271662E3,1.14286255E2,1.360354E2,1.815567E1,1.6369537E1,4.6931076E0,2.5148865E1,6.02478E-1,2.377655E0,7.1372604E-1,4.1340876E0,2.4640846E-1,0E0,0E0,0E0,0E0,0E0,0E0,1.1855392E0,0E0,1.032505E0,3.47394E-1,2.0061219E-1,0E0,0E0,8.687897E-1,0E0,0E0,0E0,0E0,0E0,0E0,0E0,0E0,0E0],"parents":[2147483647,0,0,1,1,2,2,3,3,4,4,5,5,6,6,7,7,8,8,9,9,10,10,11,11,18,18,20,20,21,21,22,22,25,25],"right_children":[2,4,6,8,10,12,14,16,18,20,22,24,-1,-1,-1,-1,-1,-1,26,-1,28,30,32,-1,-1,34,-1,-1,-1,-1,-1,-1,-1,-1,-1],"split_conditions":[6.6927637E2,3.8534094E2,4.7349374E2,1.9605066E2,4.732257E2,4.1871243E2,5.199166E2,1.4196771E2,3.109769E2,4.4E1,5.88152E2,3.9067328E2,4.3638355E-1,7.973202E-1,1.1879108E0,-7.7505225E-1,-5.8483344E-1,-5.0893754E-1,2.1309192E2,-1.8816185E-1,4.2928333E2,5.3406903E2,3.5034967E2,1.7148373E-1,2.783473E-1,2.1010756E2,-4.4648048E-1,-3.5267007E-1,-2.3618954E-1,-1.1984281E-1,-4.7686752E-2,2.8612053E-2,9.162973E-2,-3.6213297E-1,-1.9227141E-1],"split_indices":[1,1,0,1,1,0,0,1,1,2,1,0,0,0,0,0,0,0,0,0,1,1,0,0,0,0,0,0,0,0,0,0,0,0,0],"split_type":[0,0,0,0,0,0,0,0,0,0,0,0,0,0,0,0,0,0,0,0,0,0,0,0,0,0,0,0,0,0,0,0,0,0,0],"sum_hessian":[4.32E2,2.82E2,1.5E2,1.5E2,1.32E2,6E1,9E1,5.6E1,9.4E1,7.4E1,5.8E1,3E1,3E1,6E1,3E1,2.8E1,2.8E1,5.6E1,3.8E1,2E1,5.4E1,3.8E1,2E1,1E1,2E1,2E1,1.8E1,1.8E1,3.6E1,2.8E1,1E1,1E1,1E1,1E1,1E1],"tree_param":{"num_deleted":"0","num_feature":"3","num_nodes":"35","size_leaf_vector":"1"}},{"base_weights":[6.8576518E-3,-8.795705E-1,1.6681312E0,-1.3019935E0,-3.9336413E-1,1.0751252E0,2.525433E0,-1.6382248E0,-1.0865495E0,-6.136401E-1,-1.0668506E-1,7.5464416E-1,4.3426493E-1,6.544289E-1,9.2304015E-1,-5.5055434E-1,-4.1543344E-1,-3.5893494E-1,-8.9806587E-1,-7.374638E-1,-5.2418214E-1,-2.4361184E-1,1.526878E-1,1.5303722E-1,2.6878306E-1,-7.0400554E-1,-3.195861E-1,-1.4723839E-1,-2.524375E-1,-1.0934596E-1,-1.6724765E-1,-8.5129805E-2,-3.468132E-2,2.0808741E-2,6.663973E-2,-2.633694E-1,-1.398338E-1],"categories":[],"categories_nodes":[],"categories_segments":[],"categories_sizes":[],"default_left":[0,0,0,0,0,0,0,0,0,0,0,0,0,0,0,0,0,0,0,0,0,0,0,0,0,0,0,0,0,0,0,0,0,0,0,0,0],"id":5,"left_children":[1,3,5,7,9,11,13,15,17,19,21,23,-1,-1,-1,-1,-1,-1,25,27,29,31,33,-1,-1,35,-1,-1,-1,-1,-1,-1,-1,-1,-1,-1,-1],"loss_changes":[6.3910284E2,5.7611725E1,7.4051025E1,9.158279E0,8.333286E0,9.768913E0,4.8581543E0,3.0400085E-1,8.933792E-1,4.4421005E-1,2.132587E0,1.3050365E0,0E0,0E0,0E0,0E0,0E0,0E0,5.156193E-1,3.3093262E-1,4.6816826E-2,1.6765666E-1,1.06108755E-1,0E0,0E0,4.595232E-1,0E0,0E0,0E0,0E0,0E0,0E0,0E0,0E0,0E0,0E0,0E0],"parents":[2147483647,0,0,1,1,2,2,3,3,4,4,5,5,6,6,7,7,8,8,9,9,10,10,11,11,18,18,19,19,20,20,21,21,22,22,25,25],"right_children":[2,4,6,8,10,12,14,16,18,20,22,24,-1,-1,-1,-1,-1,-1,26,28,30,32,34,-1,-1,36,-1,-1,-1,-1,-1,-1,-1,-1,-1,-1,-1],"split_conditions":[6.6927637E2,3.8534094E2,4.9162607E2,1.9605066E2,4.732257E2,4.6566702E2,5.338775E2,1.4196771E2,3.109769E2,4.2928333E2,5.88152E2,4.0068887E2,4.3426493E-1,6.544289E-1,9.2304015E-1,-5.5055434E-1,-4.1543344E-1,-3.5893494E-1,2.1309192E2,2.4394832E2,2.6712592E2,5.3406903E2,3.5034967E2,1.5303722E-1,2.6878306E-1,2.1010756E2,-3.195861E-1,-1.4723839E-1,-2.524375E-1,-1.0934596E-1,-1.6724765E-1,-8.5129805E-2,-3.468132E-2,2.0808741E-2,6.663973E-2,-2.633694E-1,-1.398338E-1],"split_indices":[1,1,0,1,1,0,0,1,1,1,1,0,0,0,0,0,0,0,0,0,0,1,0,0,0,0,0,0,0,0,0,0,0,0,0,0,0],"split_type":[0,0,0,0,0,0,0,0,0,0,0,0,0,0,0,0,0,0,0,0,0,0,0,0,0,0,0,0,0,0,0,0,0,0,0,0,0],"sum_hessian":[4.32E2,2.82E2,1.5E2,1.5E2,1.32E2,9E1,6E1,5.6E1,9.4E1,7.4E1,5.8E1,5E1,4E1,4E1,2E1,2.8E1,2.8E1,5.6E1,3.8E1,2.8E1,4.6E1,3.8E1,2E1,2E1,3E1,2E1,1.8E1,1E1,1.8E1,1E1,3.6E1,2.8E1,1E1,1E1,1E1,1E1,1E1],"tree_param":{"num_deleted":"0","num_feature":"3","num_nodes":"37","size_leaf_vector":"1"}},{"base_weights":[4.0549305E-3,-6.2543905E-1,1.1838082E0,-9.2495644E-1,-2.8068292E-1,7.619952E-1,1.7936635E0,-1.0939027E0,-2.090449E-1,-4.385649E-1,-7.522819E-2,5.741779E-1,3.3209723E-1,4.7845572E-1,7.657091E-1,-3.9108345E-1,-2.9040527E-1,-5.300065E-1,-3.7281227E-1,-1.7360042E-1,1.1104538E-1,4.1102254E-1,2.1564342E-1,-1.0708251E-1,-1.8069208E-1,-7.952422E-2,-1.1842938E-1,-6.047153E-2,-2.522278E-2,1.5133511E-2,4.846521E-2,8.2977995E-2,1.3855961E-1],"categories":[],"categories_nodes":[],"categories_segments":[],"categories_sizes":[],"default_left":[0,0,0,0,0,0,0,0,0,0,0,0,0,0,0,0,0,0,0,0,0,0,0,0,0,0,0,0,0,0,0,0,0],"id":6,"left_children":[1,3,5,7,9,11,13,15,-1,17,19,21,-1,-1,-1,-1,-1,23,25,27,29,31,-1,-1,-1,-1,-1,-1,-1,-1,-1,-1,-1],"loss_changes":[3.223068E2,2.8963104E1,3.7477203E1,5.0578003E0,4.281207E0,5.2608376E0,5.1304626E0,9.820175E-1,0E0,2.533474E-1,1.1004021E0,1.1440125E0,0E0,0E0,0E0,0E0,0E0,1.4787865E-1,6.5083504E-3,8.071339E-2,5.6124E-2,8.412886E-2,0E0,0E0,0E0,0E0,0E0,0E0,0E0,0E0,0E0,0E0,0E0],"parents":[2147483647,0,0,1,1,2,2,3,3,4,4,5,5,6,6,7,7,9,9,10,10,11,11,17,17,18,18,19,19,20,20,21,21],"right_children":[2,4,6,8,10,12,14,16,-1,18,20,22,-1,-1,-1,-1,-1,24,26,28,30,32,-1,-1,-1,-1,-1,-1,-1,-1,-1,-1,-1],"split_conditions":[6.6927637E2,3.8534094E2,4.9162607E2,2.5689395E2,4.732257E2,4.7349374E2,5.4668024E2,1.4196771E2,-2.090449E-1,4.2928333E2,5.88152E2,4.1871243E2,3.3209723E-1,4.7845572E-1,7.657091E-1,-3.9108345E-1,-2.9040527E-1,2.4394832E2,2.6712592E2,5.3406903E2,3.5034967E2,3.9067328E2,2.1564342E-1,-1.0708251E-1,-1.8069208E-1,-7.952422E-2,-1.1842938E-1,-6.047153E-2,-2.522278E-2,1.5133511E-2,4.846521E-2,8.2977995E-2,1.3855961E-1],"split_indices":[1,1,0,1,1,0,0,1,0,1,1,0,0,0,0,0,0,0,0,1,0,0,0,0,0,0,0,0,0,0,0,0,0],"split_type":[0,0,0,0,0,0,0,0,0,0,0,0,0,0,0,0,0,0,0,0,0,0,0,0,0,0,0,0,0,0,0,0,0],"sum_hessian":[4.32E2,2.82E2,1.5E2,1.5E2,1.32E2,9E1,6E1,8.4E1,6.6E1,7.4E1,5.8E1,6E1,3E1,5E1,1E1,2.8E1,5.6E1,2.8E1,4.6E1,3.8E1,2E1,3E1,3E1,1E1,1.8E1,1E1,3.6E1,2.8E1,1E1,1E1,1E1,1E1,2E1],"tree_param":{"num_deleted":"0","num_feature":"3","num_nodes":"33","size_leaf_vector":"1"}},{"base_weights":[4.2588473E-3,-4.4274852E-1,8.419994E-1,-7.015844E-1,-2.4225436E-1,4.9905306E-1,1.2213889E0,-2.7780408E-1,-6.256893E-1,-3.4829062E-1,-5.3034216E-2,3.3792356E-1,6.4801055E-1,3.2606414E-1,5.568794E-1,-2.0481212E-1,-1.5789375E-1,-4.107096E-1,-7.955417E-2,-1.23717576E-1,8.076032E-2,6.034756E-2,1.12665705E-1,1.5856743E-1,2.2098161E-1,-4.4685017E-2,-4.6323398E-1,-4.2955637E-2,-1.834384E-2,1.1006095E-2,3.5247546E-2,-1.6934353E-1,-1.1427835E-1],"categories":[],"categories_nodes":[],"categories_segments":[],"categories_sizes":[],"default_left":[0,0,0,0,0,0,0,0,0,0,0,0,0,0,0,0,0,0,0,0,0,0,0,0,0,0,0,0,0,0,0,0,0],"id":7,"left_children":[1,3,5,7,9,11,13,-1,15,17,19,21,23,-1,-1,-1,-1,25,-1,27,29,-1,-1,-1,-1,-1,31,-1,-1,-1,-1,-1,-1],"loss_changes":[1.62521E2,1.4516346E1,1.9037117E1,1.5156708E0,3.2118645E0,1.7251396E0,4.0455856E0,0E0,1.7897415E-1,4.254141E-1,5.679573E-1,1.3545275E-1,4.455948E-2,0E0,0E0,0E0,0E0,7.146807E-1,0E0,3.87519E-2,2.9686049E-2,0E0,0E0,0E0,0E0,0E0,1.7662716E-1,0E0,0E0,0E0,0E0,0E0,0E0],"parents":[2147483647,0,0,1,1,2,2,3,3,4,4,5,5,6,6,8,8,9,9,10,10,11,11,12,12,17,17,19,19,20,20,26,26],"right_children":[2,4,6,8,10,12,14,-1,16,18,20,22,24,-1,-1,-1,-1,26,-1,28,30,-1,-1,-1,-1,-1,32,-1,-1,-1,-1,-1,-1],"split_conditions":[6.6927637E2,3.3801837E2,4.851629E2,1.4196771E2,4.732257E2,4.4286557E2,5.4668024E2,-2.7780408E-1,2.5689395E2,4.2928333E2,5.88152E2,3.9067328E2,4.7349374E2,3.2606414E-1,5.568794E-1,-2.0481212E-1,-1.5789375E-1,2.1309192E2,-7.955417E-2,5.3406903E2,3.5034967E2,6.034756E-2,1.12665705E-1,1.5856743E-1,2.2098161E-1,-4.4685017E-2,3.8534094E2,-4.2955637E-2,-1.834384E-2,1.1006095E-2,3.5247546E-2,-1.6934353E-1,-1.1427835E-1],"split_indices":[1,1,0,1,1,0,0,0,1,1,1,0,0,0,0,0,0,0,0,1,0,0,0,0,0,0,1,0,0,0,0,0,0],"split_type":[0,0,0,0,0,0,0,0,0,0,0,0,0,0,0,0,0,0,0,0,0,0,0,0,0,0,0,0,0,0,0,0,0],"sum_hessian":[4.32E2,2.82E2,1.5E2,1.22E2,1.6E2,8E1,7E1,2.8E1,9.4E1,1.02E2,5.8E1,4E1,4E1,6E1,1E1,5.6E1,3.8E1,5.6E1,4.6E1,3.8E1,2E1,1E1,3E1,2E1,2E1,1E1,4.6E1,2.8E1,1E1,1E1,1E1,1.8E1,2.8E1],"tree_param":{"num_deleted":"0","num_feature":"3","num_nodes":"33","size_leaf_vector":"1"}},{"base_weights":[3.8403275E-3,-3.136817E-1,5.989058E-1,-5.105587E-1,-1.8174726E-1,3.788271E-1,9.1740185E-1,-1.9733667E-1,-1.3629621E-1,-2.5551692E-1,-3.7379153E-2,2.0270747E-1,4.6212023E-1,2.4183173E-1,4.050033E-1,-2.9954356E-1,-1.8731901E-1,-8.817423E-2,5.873453E-2,4.3889135E-2,6.678091E-2,1.11443676E-1,1.6135636E-1,-2.1644752E-1,-3.3029833E-1,-3.613914E-2,-6.063966E-2,-3.0513383E-2,-1.3340951E-2,8.004363E-3,2.5634507E-2,-9.1467164E-2,-3.2498233E-2,-1.2121433E-1,-8.117704E-2],"categories":[],"categories_nodes":[],"categories_segments":[],"categories_sizes":[],"default_left":[0,0,0,0,0,0,0,0,0,0,0,0,0,0,0,0,0,0,0,0,0,0,0,0,0,0,0,0,0,0,0,0,0,0,0],"id":8,"left_children":[1,3,5,7,9,11,13,-1,-1,15,17,19,21,-1,-1,23,25,27,29,-1,-1,-1,-1,31,33,-1,-1,-1,-1,-1,-1,-1,-1,-1,-1],"loss_changes":[8.2001656E1,7.258091E0,1.02366905E1,6.367874E-1,1.8115964E0,1.2412539E0,1.8487587E0,0E0,0E0,2.83175E-1,2.932229E-1,2.2257566E-3,2.1894169E-1,0E0,0E0,9.9732876E-2,2.2196293E-2,1.8550426E-2,1.5701734E-2,0E0,0E0,0E0,0E0,1.677838E-1,9.76305E-2,0E0,0E0,0E0,0E0,0E0,0E0,0E0,0E0,0E0,0E0],"parents":[2147483647,0,0,1,1,2,2,3,3,4,4,5,5,6,6,9,9,10,10,11,11,12,12,15,15,16,16,17,17,18,18,23,23,24,24],"right_children":[2,4,6,8,10,12,14,-1,-1,16,18,20,22,-1,-1,24,26,28,30,-1,-1,-1,-1,32,34,-1,-1,-1,-1,-1,-1,-1,-1,-1,-1],"split_conditions":[6.6927637E2,3.109769E2,4.9162607E2,1.4196771E2,4.732257E2,4.1871243E2,5.4668024E2,-1.9733667E-1,-1.3629621E-1,4.2928333E2,5.88152E2,3.9067328E2,4.7349374E2,2.4183173E-1,4.050033E-1,2.1309192E2,2.6712592E2,5.3406903E2,3.5034967E2,4.3889135E-2,6.678091E-2,1.11443676E-1,1.6135636E-1,2.1010756E2,3.8534094E2,-3.613914E-2,-6.063966E-2,-3.0513383E-2,-1.3340951E-2,8.004363E-3,2.5634507E-2,-9.1467164E-2,-3.2498233E-2,-1.2121433E-1,-8.117704E-2],"split_indices":[1,1,0,1,1,0,0,0,0,1,1,0,0,0,0,0,0,1,0,0,0,0,0,0,1,0,0,0,0,0,0,0,0,0,0],"split_type":[0,0,0,0,0,0,0,0,0,0,0,0,0,0,0,0,0,0,0,0,0,0,0,0,0,0,0,0,0,0,0,0,0,0,0],"sum_hessian":[4.32E2,2.82E2,1.5E2,1.12E2,1.7E2,9E1,6E1,2.8E1,8.4E1,1.12E2,5.8E1,3E1,6E1,5E1,1E1,6.6E1,4.6E1,3.8E1,2E1,1E1,2E1,3E1,3E1,2E1,4.6E1,1E1,3.6E1,2.8E1,1E1,1E1,1E1,1E1,1E1,1.8E1,2.8E1],"tree_param":{"num_deleted":"0","num_feature":"3","num_nodes":"35","size_leaf_vector":"1"}},{"base_weights":[3.2965525E-3,-2.2228725E-1,4.260576E-1,-3.2794446E-1,-1.00659244E-1,2.6939288E-1,6.52786E-1,-1.283921E-1,-2.644749E-1,-1.5778285E-1,-2.6338384E-2,4.3639556E-2,3.2795626E-1,1.5663934E-1,2.6303673E-1,-9.2774376E-2,-2.4114814E-1,-2.6638374E-2,-1.8125506E-1,-6.284616E-2,4.271598E-2,7.908893E-2,1.14511065E-1,-2.0129244E-1,-8.353498E-2,-7.378693E-2,-4.293938E-2,-2.1674914E-2,-9.702509E-3,5.8214017E-3,1.8643206E-2,-7.3614344E-2,-2.3635041E-2],"categories":[],"categories_nodes":[],"categories_segments":[],"categories_sizes":[],"default_left":[0,0,0,0,0,0,0,0,0,0,0,0,0,0,0,0,0,0,0,0,0,0,0,0,0,0,0,0,0,0,0,0,0],"id":9,"left_children":[1,3,5,7,9,11,13,-1,15,17,19,-1,21,-1,-1,-1,23,-1,25,27,29,-1,-1,31,-1,-1,-1,-1,-1,-1,-1,-1,-1],"loss_changes":[4.138907E1,3.6037865E0,5.1877174E0,8.454819E-1,5.6049263E-1,6.1273766E-1,1.3274956E0,0E0,2.4644375E-2,1.05353594E-1,1.5142478E-1,0E0,1.1027193E-1,0E0,0E0,0E0,4.355836E-2,0E0,1.004622E-1,8.850485E-3,8.304872E-3,0E0,0E0,1.7511356E-1,0E0,0E0,0E0,0E0,0E0,0E0,0E0,0E0,0E0],"parents":[2147483647,0,0,1,1,2,2,3,3,4,4,5,5,6,6,8,8,9,9,10,10,12,12,16,16,18,18,19,19,20,20,23,23],"right_children":[2,4,6,8,10,12,14,-1,16,18,20,-1,22,-1,-1,-1,24,-1,26,28,30,-1,-1,32,-1,-1,-1,-1,-1,-1,-1,-1,-1],"split_conditions":[6.6927637E2,3.8534094E2,4.9162607E2,1.9605066E2,4.732257E2,4.1871243E2,5.338775E2,-1.283921E-1,2.5689395E2,4.4E1,5.88152E2,4.3639556E-2,4.7349374E2,1.5663934E-1,2.6303673E-1,-9.2774376E-2,2.1309192E2,-2.6638374E-2,4.2928333E2,5.3406903E2,3.5034967E2,7.908893E-2,1.14511065E-1,2.1010756E2,-8.353498E-2,-7.378693E-2,-4.293938E-2,-2.1674914E-2,-9.702509E-3,5.8214017E-3,1.8643206E-2,-7.3614344E-2,-2.3635041E-2],"split_indices":[1,1,0,1,1,0,0,0,1,2,1,0,0,0,0,0,0,0,1,1,0,0,0,0,0,0,0,0,0,0,0,0,0],"split_type":[0,0,0,0,0,0,0,0,0,0,0,0,0,0,0,0,0,0,0,0,0,0,0,0,0,0,0,0,0,0,0,0,0],"sum_hessian":[4.32E2,2.82E2,1.5E2,1.5E2,1.32E2,9E1,6E1,5.6E1,9.4E1,7.4E1,5.8E1,3E1,6E1,4E1,2E1,2.8E1,6.6E1,2E1,5.4E1,3.8E1,2E1,3E1,3E1,3.5E1,3.1E1,1.8E1,3.6E1,2.8E1,1E1,1E1,1E1,2.5E1,1E1],"tree_param":{"num_deleted":"0","num_feature":"3","num_nodes":"33","size_leaf_vector":"1"}},{"base_weights":[2.5493861E-3,-1.4967015E-1,3.1884566E-1,-2.1813008E-1,-4.180928E-2,2.6285455E-1,6.262779E-1,-3.0183408E-1,-1.7756702E-1,-7.28758E-2,4.472179E-2,1.6208088E-1,3.315391E-1,1.358757E-1,2.2281076E-1,-1.0298764E-1,-7.499039E-2,-6.071828E-2,-1.5379508E-1,-9.4624944E-2,-4.4796675E-2,4.233794E-3,1.7587662E-2,2.7078545E-2,5.3218868E-2,8.126579E-2,1.1079375E-1,-1.1110715E-1,-1.6959617E-1,-1.9018E-2,-3.0405777E-2,-1.5396605E-2,-7.0563233E-3,-4.6444938E-2,-1.7189156E-2,-8.894766E-2,-4.4229046E-2],"categories":[],"categories_nodes":[],"categories_segments":[],"categories_sizes":[],"default_left":[0,0,0,0,0,0,0,0,0,0,0,0,0,0,0,0,0,0,0,0,0,0,0,0,0,0,0,0,0,0,0,0,0,0,0,0,0],"id":10,"left_children":[1,3,5,7,9,11,13,15,17,19,21,23,25,-1,-1,-1,-1,-1,27,29,31,-1,-1,-1,-1,-1,-1,33,35,-1,-1,-1,-1,-1,-1,-1,-1],"loss_changes":[2.0895144E1,2.154436E0,2.2624788E0,5.54162E-1,3.1240427E-1,7.8377724E-1,8.746433E-2,3.6753178E-2,4.1466236E-2,4.7670364E-2,1.236568E-2,4.008448E-2,6.2624454E-2,0E0,0E0,0E0,0E0,0E0,2.6349068E-2,3.4503639E-3,4.2072386E-3,0E0,0E0,0E0,0E0,0E0,0E0,4.0521383E-2,8.848882E-2,0E0,0E0,0E0,0E0,0E0,0E0,0E0,0E0],"parents":[2147483647,0,0,1,1,2,2,3,3,4,4,5,5,6,6,7,7,8,8,9,9,10,10,11,11,12,12,18,18,19,19,20,20,27,27,28,28],"right_children":[2,4,6,8,10,12,14,16,18,20,22,24,26,-1,-1,-1,-1,-1,28,30,32,-1,-1,-1,-1,-1,-1,34,36,-1,-1,-1,-1,-1,-1,-1,-1],"split_conditions":[7.064584E2,4.2928333E2,5.338775E2,1.9605066E2,5.88152E2,4.7349374E2,5.4668024E2,1.4196771E2,3.109769E2,4.732257E2,3.5034967E2,4.0068887E2,4.9162607E2,1.358757E-1,2.2281076E-1,-1.0298764E-1,-7.499039E-2,-6.071828E-2,2.1309192E2,2.6712592E2,5.3406903E2,4.233794E-3,1.7587662E-2,2.7078545E-2,5.3218868E-2,8.126579E-2,1.1079375E-1,2.1010756E2,2.2538748E2,-1.9018E-2,-3.0405777E-2,-1.5396605E-2,-7.0563233E-3,-4.6444938E-2,-1.7189156E-2,-8.894766E-2,-4.4229046E-2],"split_indices":[1,1,0,1,1,0,0,1,1,1,0,0,0,0,0,0,0,0,0,0,1,0,0,0,0,0,0,0,0,0,0,0,0,0,0,0,0],"split_type":[0,0,0,0,0,0,0,0,0,0,0,0,0,0,0,0,0,0,0,0,0,0,0,0,0,0,0,0,0,0,0,0,0,0,0,0,0],"sum_hessian":[4.32E2,2.92E2,1.4E2,1.78E2,1.14E2,1.2E2,2E1,5.6E1,1.22E2,8.4E1,3E1,5E1,7E1,1E1,1E1,2.8E1,2.8E1,5.6E1,6.6E1,4.6E1,3.8E1,1E1,2E1,1E1,4E1,3E1,4E1,2E1,4.6E1,1E1,3.6E1,2.8E1,1E1,1E1,1E1,5E0,4.1E1],"tree_param":{"num_deleted":"0","num_feature":"3","num_nodes":"37","size_leaf_vector":"1"}},{"base_weights":[2.120518E-3,-1.0642626E-1,2.2766723E-1,-1.6573527E-1,-4.305502E-2,1.8624881E-1,4.5547485E-1,-2.1440633E-1,-1.3478805E-1,-6.75824E-2,1.961266E-2,1.1503107E-1,2.34782E-1,9.88187E-2,1.6204418E-1,-7.315674E-2,-5.326907E-2,-4.8314422E-2,-1.2141001E-1,-7.871689E-2,-1.0936763E-2,-3.583999E-3,4.1875385E-2,2.3761205E-2,4.0677104E-2,5.7672318E-2,7.836621E-2,-1.053627E-1,-1.564052E-1,-3.3307076E-2,-9.462397E-2,-5.131895E-3,3.0792411E-3,8.762013E-3,1.5221163E-2,-3.6187645E-2,-1.2501241E-2,-6.671071E-2,-3.5088956E-2,-5.2446453E-3,-1.3831226E-2,-4.0245604E-2,-2.1530513E-2],"categories":[],"categories_nodes":[],"categories_segments":[],"categories_sizes":[],"default_left":[0,0,0,0,0,0,0,0,0,0,0,0,0,0,0,0,0,0,0,0,0,0,0,0,0,0,0,0,0,0,0,0,0,0,0,0,0,0,0,0,0,0,0],"id":11,"left_children":[1,3,5,7,9,11,13,15,17,19,21,23,25,-1,-1,-1,-1,-1,27,29,-1,31,33,-1,-1,-1,-1,35,37,39,41,-1,-1,-1,-1,-1,-1,-1,-1,-1,-1,-1,-1],"loss_changes":[1.0625094E1,1.0941007E0,1.245563E0,1.9854212E-1,2.2112703E-1,3.9122057E-1,4.6261787E-2,1.8544912E-2,1.3821363E-2,3.2827854E-2,2.1323334E-2,2.6826143E-2,2.9638052E-2,0E0,0E0,0E0,0E0,0E0,2.1146595E-2,5.1023662E-2,0E0,4.108018E-3,8.757524E-4,0E0,0E0,0E0,0E0,4.260707E-2,2.3424208E-2,3.4467466E-3,4.0061116E-2,0E0,0E0,0E0,0E0,0E0,0E0,0E0,0E0,0E0,0E0,0E0,0E0],"parents":[2147483647,0,0,1,1,2,2,3,3,4,4,5,5,6,6,7,7,8,8,9,9,10,10,11,11,12,12,18,18,19,19,21,21,22,22,27,27,28,28,29,29,30,30],"right_children":[2,4,6,8,10,12,14,16,18,20,22,24,26,-1,-1,-1,-1,-1,28,30,-1,32,34,-1,-1,-1,-1,36,38,40,42,-1,-1,-1,-1,-1,-1,-1,-1,-1,-1,-1,-1],"split_conditions":[7.064584E2,3.8534094E2,5.338775E2,1.9605066E2,5.3406903E2,4.7349374E2,5.4668024E2,1.4196771E2,2.5689395E2,4.732257E2,3.5034967E2,4.1871243E2,4.9162607E2,9.88187E-2,1.6204418E-1,-7.315674E-2,-5.326907E-2,-4.8314422E-2,4E1,4.4E1,-1.0936763E-2,3.17212E2,3.5060275E2,2.3761205E-2,4.0677104E-2,5.7672318E-2,7.836621E-2,3.3801837E2,2.2538748E2,2.4394832E2,4.2928333E2,-5.131895E-3,3.0792411E-3,8.762013E-3,1.5221163E-2,-3.6187645E-2,-1.2501241E-2,-6.671071E-2,-3.5088956E-2,-5.2446453E-3,-1.3831226E-2,-4.0245604E-2,-2.1530513E-2],"split_indices":[1,1,0,1,1,0,0,1,1,1,0,0,0,0,0,0,0,0,2,2,0,0,0,0,0,0,0,1,0,0,1,0,0,0,0,0,0,0,0,0,0,0,0],"split_type":[0,0,0,0,0,0,0,0,0,0,0,0,0,0,0,0,0,0,0,0,0,0,0,0,0,0,0,0,0,0,0,0,0,0,0,0,0,0,0,0,0,0,0],"sum_hessian":[4.32E2,2.92E2,1.4E2,1.5E2,1.42E2,1.2E2,2E1,5.6E1,9.4E1,1.02E2,4E1,5E1,7E1,1E1,1E1,2.8E1,2.8E1,2.8E1,6.6E1,7.4E1,2.8E1,2E1,2E1,2E1,3E1,3E1,4E1,4.8E1,1.8E1,2E1,5.4E1,1E1,1E1,1E1,1E1,3.8E1,1E1,5E0,1.3E1,1E1,1E1,1.8E1,3.6E1],"tree_param":{"num_deleted":"0","num_feature":"3","num_nodes":"43","size_leaf_vector":"1"}},{"base_weights":[1.637406E-3,-7.996119E-2,1.5455638E-1,-1.18168525E-1,-3.5981715E-2,1.2505087E-1,3.312547E-1,-5.1966514E-2,-1.0422779E-1,-5.617981E-2,-9.696314E-3,7.503165E-2,1.6626385E-1,7.186838E-2,1.1785022E-1,-3.671263E-2,-8.723311E-2,-2.4223328E-2,-6.7359924E-2,-2.2765232E-2,1.5036265E-2,5.7003673E-2,3.1996865E-2,4.2764336E-2,5.768007E-2,-7.474753E-2,-1.14841536E-1,-3.814264E-3,-1.0059097E-2,-2.88074E-2,-1.5245897E-2,-7.768881E-3,-3.7323346E-3,2.2394008E-3,6.3722786E-3,1.2719699E-2,2.0668168E-2,-2.5609715E-2,-9.091811E-3,-5.0033092E-2,-2.5314158E-2],"categories":[],"categories_nodes":[],"categories_segments":[],"categories_sizes":[],"default_left":[0,0,0,0,0,0,0,0,0,0,0,0,0,0,0,0,0,0,0,0,0,0,0,0,0,0,0,0,0,0,0,0,0,0,0,0,0,0,0,0,0],"id":12,"left_children":[1,3,5,7,9,11,13,-1,15,17,19,21,23,-1,-1,-1,25,27,29,31,33,35,-1,-1,-1,37,39,-1,-1,-1,-1,-1,-1,-1,-1,-1,-1,-1,-1,-1,-1],"loss_changes":[5.415321E0,4.712838E-1,7.458255E-1,9.78353E-2,7.006696E-2,2.5757384E-1,2.4466991E-2,0E0,2.7259588E-2,2.5164112E-2,1.9412762E-2,2.8697908E-2,1.6377568E-2,0E0,0E0,0E0,1.4511228E-2,1.8231086E-3,2.1196797E-2,9.3850493E-4,8.2800677E-4,4.198745E-3,0E0,0E0,0E0,2.053541E-2,1.598537E-2,0E0,0E0,0E0,0E0,0E0,0E0,0E0,0E0,0E0,0E0,0E0,0E0,0E0,0E0],"parents":[2147483647,0,0,1,1,2,2,3,3,4,4,5,5,6,6,8,8,9,9,10,10,11,11,12,12,16,16,17,17,18,18,19,19,20,20,21,21,25,25,26,26],"right_children":[2,4,6,8,10,12,14,-1,16,18,20,22,24,-1,-1,-1,26,28,30,32,34,36,-1,-1,-1,38,40,-1,-1,-1,-1,-1,-1,-1,-1,-1,-1,-1,-1,-1,-1],"split_conditions":[6.6927637E2,3.8534094E2,5.338775E2,1.4196771E2,4.732257E2,4.7349374E2,5.4668024E2,-5.1966514E-2,2.5689395E2,4.4E1,5.88152E2,4.4286557E2,4.9811853E2,7.186838E-2,1.1785022E-1,-3.671263E-2,4E1,2.4394832E2,4.2928333E2,5.3406903E2,3.5034967E2,4.0068887E2,3.1996865E-2,4.2764336E-2,5.768007E-2,3.3801837E2,2.2538748E2,-3.814264E-3,-1.0059097E-2,-2.88074E-2,-1.5245897E-2,-7.768881E-3,-3.7323346E-3,2.2394008E-3,6.3722786E-3,1.2719699E-2,2.0668168E-2,-2.5609715E-2,-9.091811E-3,-5.0033092E-2,-2.5314158E-2],"split_indices":[1,1,0,1,1,0,0,0,1,2,1,0,0,0,0,0,2,0,1,1,0,0,0,0,0,1,0,0,0,0,0,0,0,0,0,0,0,0,0,0,0],"split_type":[0,0,0,0,0,0,0,0,0,0,0,0,0,0,0,0,0,0,0,0,0,0,0,0,0,0,0,0,0,0,0,0,0,0,0,0,0,0,0,0,0],"sum_hessian":[4.32E2,2.82E2,1.5E2,1.5E2,1.32E2,1.3E2,2E1,2.8E1,1.22E2,7.4E1,5.8E1,6E1,7E1,1E1,1E1,5.6E1,6.6E1,2E1,5.4E1,3.8E1,2E1,4E1,2E1,4E1,3E1,4.8E1,1.8E1,1E1,1E1,1.8E1,3.6E1,2.8E1,1E1,1E1,1E1,2E1,2E1,3.8E1,1E1,5E0,1.3E1],"tree_param":{"num_deleted":"0","num_feature":"3","num_nodes":"41","size_leaf_vector":"1"}},{"base_weights":[1.3678046E-3,-5.3997174E-2,1.1640731E-1,-7.875307E-2,-1.4994547E-2,9.38369E-2,2.4091266E-1,-1.0874069E-1,-6.421609E-2,-2.6267175E-2,1.6397968E-2,5.8637694E-2,1.1779919E-1,5.226777E-2,8.570949E-2,-3.6914133E-2,-2.720538E-2,-2.3685915E-2,-5.9041485E-2,-3.4036472E-2,-1.6230656E-2,1.6287024E-3,2.136276E-2,4.486115E-2,2.285467E-2,2.8513141E-2,3.9639402E-2,-6.270578E-2,-4.8539788E-2,-7.315636E-3,-1.0795738E-2,-5.518657E-3,-2.7143306E-3,4.634337E-3,7.6006977E-3,9.7441245E-3,1.4763015E-2,-1.590949E-2,-2.5306381E-2,-2.774022E-3,-2.0620102E-2],"categories":[],"categories_nodes":[],"categories_segments":[],"categories_sizes":[],"default_left":[0,0,0,0,0,0,0,0,0,0,0,0,0,0,0,0,0,0,0,0,0,0,0,0,0,0,0,0,0,0,0,0,0,0,0,0,0,0,0,0,0],"id":13,"left_children":[1,3,5,7,9,11,13,15,17,19,21,23,25,-1,-1,-1,-1,-1,27,29,31,-1,33,35,-1,-1,-1,37,39,-1,-1,-1,-1,-1,-1,-1,-1,-1,-1,-1,-1],"loss_changes":[2.764132E0,2.8172374E-1,3.7362278E-1,7.104838E-2,4.1126482E-2,9.515035E-2,1.2942791E-2,3.5656095E-3,4.718244E-3,6.075587E-3,1.5722383E-3,8.90924E-3,1.0597169E-2,0E0,0E0,0E0,0E0,0E0,6.119907E-4,6.67572E-6,4.400108E-4,0E0,1.0211114E-4,7.075444E-5,0E0,0E0,0E0,9.558648E-3,2.237533E-2,0E0,0E0,0E0,0E0,0E0,0E0,0E0,0E0,0E0,0E0,0E0,0E0],"parents":[2147483647,0,0,1,1,2,2,3,3,4,4,5,5,6,6,7,7,8,8,9,9,10,10,11,11,12,12,18,18,19,19,20,20,22,22,23,23,27,27,28,28],"right_children":[2,4,6,8,10,12,14,16,18,20,22,24,26,-1,-1,-1,-1,-1,28,30,32,-1,34,36,-1,-1,-1,38,40,-1,-1,-1,-1,-1,-1,-1,-1,-1,-1,-1,-1],"split_conditions":[7.064584E2,4.2928333E2,5.338775E2,1.9605066E2,5.88152E2,4.7349374E2,5.4668024E2,1.4196771E2,2.5689395E2,4.732257E2,3.5034967E2,4.4286557E2,4.9162607E2,5.226777E-2,8.570949E-2,-3.6914133E-2,-2.720538E-2,-2.3685915E-2,3.8534094E2,2.6712592E2,5.3406903E2,1.6287024E-3,3.5060275E2,4.0068887E2,2.285467E-2,2.8513141E-2,3.9639402E-2,4E1,2.4394832E2,-7.315636E-3,-1.0795738E-2,-5.518657E-3,-2.7143306E-3,4.634337E-3,7.6006977E-3,9.7441245E-3,1.4763015E-2,-1.590949E-2,-2.5306381E-2,-2.774022E-3,-2.0620102E-2],"split_indices":[1,1,0,1,1,0,0,1,1,1,0,0,0,0,0,0,0,0,1,0,1,0,0,0,0,0,0,2,0,0,0,0,0,0,0,0,0,0,0,0,0],"split_type":[0,0,0,0,0,0,0,0,0,0,0,0,0,0,0,0,0,0,0,0,0,0,0,0,0,0,0,0,0,0,0,0,0,0,0,0,0,0,0,0,0],"sum_hessian":[4.32E2,2.92E2,1.4E2,1.78E2,1.14E2,1.2E2,2E1,5.6E1,1.22E2,8.4E1,3E1,5E1,7E1,1E1,1E1,2.8E1,2.8E1,2.8E1,9.4E1,4.6E1,3.8E1,1E1,2E1,3E1,2E1,3E1,4E1,6.6E1,2.8E1,1E1,3.6E1,2.8E1,1E1,1E1,1E1,1E1,2E1,4.8E1,1.8E1,1E1,1.8E1],"tree_param":{"num_deleted":"0","num_feature":"3","num_nodes":"41","size_leaf_vector":"1"}},{"base_weights":[1.1622757E-3,-3.836078E-2,8.32835E-2,-5.5978592E-2,-1.0604693E-2,6.6641025E-2,1.7520995E-1,-7.724335E-2,-4.5669083E-2,-1.8696953E-2,1.1925851E-2,4.197551E-2,8.3419904E-2,3.801311E-2,6.233441E-2,-2.622177E-2,-1.9325176E-2,-5.1527757E-2,-3.7488762E-2,-7.2632977E-3,-1.1572422E-2,1.1844635E-3,1.5536717E-2,9.658075E-3,1.6324997E-2,2.1088531E-2,2.9426267E-2,-4.5803905E-2,-3.1198265E-2,-2.0174114E-3,-1.3252736E-2,-3.920075E-3,-1.9741058E-3,3.3705453E-3,5.527756E-3,-1.5822772E-2,-2.273213E-3],"categories":[],"categories_nodes":[],"categories_segments":[],"categories_sizes":[],"default_left":[0,0,0,0,0,0,0,0,0,0,0,0,0,0,0,0,0,0,0,0,0,0,0,0,0,0,0,0,0,0,0,0,0,0,0,0,0],"id":14,"left_children":[1,3,5,7,9,11,13,15,17,19,21,23,25,-1,-1,-1,-1,27,29,-1,31,-1,33,-1,-1,-1,-1,35,-1,-1,-1,-1,-1,-1,-1,-1,-1],"loss_changes":[1.4085748E0,1.4268383E-1,2.0403743E-1,3.5714447E-2,2.1190124E-2,4.6575427E-2,6.845653E-3,1.7992556E-3,3.9631724E-3,3.0590426E-3,8.3164964E-4,4.4547543E-3,6.773114E-3,0E0,0E0,0E0,0E0,1.5958056E-2,1.1017524E-2,0E0,2.0497898E-4,0E0,5.3966884E-5,0E0,0E0,0E0,0E0,1.6575783E-2,0E0,0E0,0E0,0E0,0E0,0E0,0E0,0E0,0E0],"parents":[2147483647,0,0,1,1,2,2,3,3,4,4,5,5,6,6,7,7,8,8,9,9,10,10,11,11,12,12,17,17,18,18,20,20,22,22,27,27],"right_children":[2,4,6,8,10,12,14,16,18,20,22,24,26,-1,-1,-1,-1,28,30,-1,32,-1,34,-1,-1,-1,-1,36,-1,-1,-1,-1,-1,-1,-1,-1,-1],"split_conditions":[7.064584E2,4.2928333E2,5.338775E2,1.9605066E2,5.88152E2,4.7349374E2,5.4668024E2,1.4196771E2,2.3807918E2,4.732257E2,3.5034967E2,4.4286557E2,4.9811853E2,3.801311E-2,6.233441E-2,-2.622177E-2,-1.9325176E-2,4E1,2.4394832E2,-7.2632977E-3,5.3406903E2,1.1844635E-3,3.5060275E2,9.658075E-3,1.6324997E-2,2.1088531E-2,2.9426267E-2,3.3801837E2,-3.1198265E-2,-2.0174114E-3,-1.3252736E-2,-3.920075E-3,-1.9741058E-3,3.3705453E-3,5.527756E-3,-1.5822772E-2,-2.273213E-3],"split_indices":[1,1,0,1,1,0,0,1,0,1,0,0,0,0,0,0,0,2,0,0,1,0,0,0,0,0,0,1,0,0,0,0,0,0,0,0,0],"split_type":[0,0,0,0,0,0,0,0,0,0,0,0,0,0,0,0,0,0,0,0,0,0,0,0,0,0,0,0,0,0,0,0,0,0,0,0,0],"sum_hessian":[4.32E2,2.92E2,1.4E2,1.78E2,1.14E2,1.2E2,2E1,5.6E1,1.22E2,8.4E1,3E1,5E1,7E1,1E1,1E1,2.8E1,2.8E1,6.8E1,5.4E1,4.6E1,3.8E1,1E1,2E1,3E1,2E1,4E1,3E1,6.3E1,5E0,1E1,4.4E1,2.8E1,1E1,1E1,1E1,5.3E1,1E1],"tree_param":{"num_deleted":"0","num_feature":"3","num_nodes":"37","size_leaf_vector":"1"}},{"base_weights":[9.606771E-4,-2.5801046E-2,6.28526E-2,-3.9800115E-2,-5.547974E-3,5.0069876E-2,1.2742542E-1,-5.071702E-2,-2.961341E-2,-1.3242879E-2,1.0540195E-2,3.716219E-2,1.935802E-2,2.7645806E-2,4.5334212E-2,-1.8626504E-2,-1.3212551E-2,-2.5393818E-2,-3.3382487E-2,-1.7102342E-2,-8.252168E-3,5.784262E-3,4.4382643E-3,7.785661E-3,1.2599248E-2,-9.105206E-3,-1.6532812E-3,-2.3398638E-2,-2.6214384E-2,-3.3395942E-3,-5.5245273E-3,-2.784742E-3,-1.4357134E-3,8.6142804E-4,2.4513765E-3,-1.4671846E-3,-9.8175695E-3],"categories":[],"categories_nodes":[],"categories_segments":[],"categories_sizes":[],"default_left":[0,0,0,0,0,0,0,0,0,0,0,0,0,0,0,0,0,0,0,0,0,0,0,0,0,0,0,0,0,0,0,0,0,0,0,0,0],"id":15,"left_children":[1,3,5,7,9,11,13,15,17,19,21,23,-1,-1,-1,-1,-1,25,27,29,31,33,-1,-1,-1,-1,-1,-1,35,-1,-1,-1,-1,-1,-1,-1,-1],"loss_changes":[7.188145E-1,8.568701E-2,1.0174936E-1,1.8404186E-2,1.5614198E-2,1.8315166E-2,3.6212206E-3,3.717497E-3,6.631687E-4,1.4960952E-3,7.4393116E-4,2.2165105E-3,0E0,0E0,0E0,0E0,0E0,4.662022E-3,1.2985542E-2,1.6336888E-4,9.486545E-5,1.2254808E-4,0E0,0E0,0E0,0E0,0E0,0E0,5.671054E-3,0E0,0E0,0E0,0E0,0E0,0E0,0E0,0E0],"parents":[2147483647,0,0,1,1,2,2,3,3,4,4,5,5,6,6,7,7,8,8,9,9,10,10,11,11,17,17,18,18,19,19,20,20,21,21,28,28],"right_children":[2,4,6,8,10,12,14,16,18,20,22,24,-1,-1,-1,-1,-1,26,28,30,32,34,-1,-1,-1,-1,-1,-1,36,-1,-1,-1,-1,-1,-1,-1,-1],"split_conditions":[4.091457E2,4.2928333E2,5.338775E2,2.5689395E2,5.88152E2,4.851629E2,5.4668024E2,1.4196771E2,4E1,4.732257E2,3.5060275E2,4.4286557E2,1.935802E-2,2.7645806E-2,4.5334212E-2,-1.8626504E-2,-1.3212551E-2,3.3801837E2,2.2538748E2,2.6712592E2,5.3406903E2,3.5034967E2,4.4382643E-3,7.785661E-3,1.2599248E-2,-9.105206E-3,-1.6532812E-3,-2.3398638E-2,2.4394832E2,-3.3395942E-3,-5.5245273E-3,-2.784742E-3,-1.4357134E-3,8.6142804E-4,2.4513765E-3,-1.4671846E-3,-9.8175695E-3],"split_indices":[0,1,0,1,1,0,0,1,2,1,0,0,0,0,0,0,0,1,0,0,1,0,0,0,0,0,0,0,0,0,0,0,0,0,0,0,0],"split_type":[0,0,0,0,0,0,0,0,0,0,0,0,0,0,0,0,0,0,0,0,0,0,0,0,0,0,0,0,0,0,0,0,0,0,0,0,0],"sum_hessian":[4.32E2,3.02E2,1.3E2,1.78E2,1.24E2,1.1E2,2E1,8.4E1,9.4E1,8.4E1,4E1,6E1,5E1,1E1,1E1,2.8E1,5.6E1,4.8E1,4.6E1,4.6E1,3.8E1,2E1,2E1,2E1,4E1,3.8E1,1E1,5E0,4.1E1,1E1,3.6E1,2.8E1,1E1,1E1,1E1,1E1,3.1E1],"tree_param":{"num_deleted":"0","num_feature":"3","num_nodes":"37","size_leaf_vector":"1"}},{"base_weights":[7.4199383E-4,-1.8333398E-2,4.485727E-2,-2.8291862E-2,-3.9262087E-3,3.5406835E-2,9.2673525E-2,-3.9229225E-2,-2.2993313E-2,-9.42394E-3,7.5672893E-3,2.9049037E-2,5.0876986E-2,2.010623E-2,3.297043E-2,-1.3231255E-2,-9.900462E-3,-2.6188063E-2,-1.8567294E-2,-1.2160119E-2,-5.884855E-3,4.2070663E-3,3.1701499E-3,5.561148E-3,9.6575E-3,2.066907E-2,3.901527E-2,-2.274993E-2,-1.7549038E-2,-1.0670315E-3,-2.1823926E-2,-2.4287484E-3,-3.911931E-3,-1.978131E-3,-1.0442734E-3,6.26564E-4,1.7829376E-3,6.694794E-3,1.5650315E-2,-7.843929E-3,-1.2024099E-3,-5.139563E-3,-8.202884E-3],"categories":[],"categories_nodes":[],"categories_segments":[],"categories_sizes":[],"default_left":[0,0,0,0,0,0,0,0,0,0,0,0,0,0,0,0,0,0,0,0,0,0,0,0,0,0,0,0,0,0,0,0,0,0,0,0,0,0,0,0,0,0,0],"id":16,"left_children":[1,3,5,7,9,11,13,15,17,19,21,23,25,-1,-1,-1,-1,27,29,31,33,35,-1,-1,-1,-1,37,39,-1,-1,41,-1,-1,-1,-1,-1,-1,-1,-1,-1,-1,-1,-1],"loss_changes":[3.651989E-1,4.336138E-2,5.5915594E-2,9.4714165E-3,7.969834E-3,9.4396025E-3,1.915127E-3,2.7500093E-4,1.2529865E-3,7.5154286E-4,3.6883377E-4,2.0790845E-3,3.938131E-3,0E0,0E0,0E0,0E0,6.333839E-3,2.6109833E-3,6.246427E-5,4.3511158E-5,6.48229E-5,0E0,0E0,0E0,0E0,3.4481958E-3,3.969241E-3,0E0,0E0,6.9686025E-4,0E0,0E0,0E0,0E0,0E0,0E0,0E0,0E0,0E0,0E0,0E0,0E0],"parents":[2147483647,0,0,1,1,2,2,3,3,4,4,5,5,6,6,7,7,8,8,9,9,10,10,11,11,12,12,17,17,18,18,19,19,20,20,21,21,26,26,27,27,30,30],"right_children":[2,4,6,8,10,12,14,16,18,20,22,24,26,-1,-1,-1,-1,28,30,32,34,36,-1,-1,-1,-1,38,40,-1,-1,42,-1,-1,-1,-1,-1,-1,-1,-1,-1,-1,-1,-1],"split_conditions":[4.091457E2,4.2928333E2,5.338775E2,1.9605066E2,5.88152E2,4.9811853E2,5.4668024E2,1.4196771E2,2.3807918E2,4.732257E2,3.5060275E2,4.4286557E2,5.1347266E2,2.010623E-2,3.297043E-2,-1.3231255E-2,-9.900462E-3,4E1,2.4394832E2,2.6712592E2,5.3406903E2,3.5034967E2,3.1701499E-3,5.561148E-3,9.6575E-3,2.066907E-2,5.199166E2,3.3801837E2,-1.7549038E-2,-1.0670315E-3,3.8534094E2,-2.4287484E-3,-3.911931E-3,-1.978131E-3,-1.0442734E-3,6.26564E-4,1.7829376E-3,6.694794E-3,1.5650315E-2,-7.843929E-3,-1.2024099E-3,-5.139563E-3,-8.202884E-3],"split_indices":[0,1,0,1,1,0,0,1,0,1,0,0,0,0,0,0,0,2,0,0,1,0,0,0,0,0,0,1,0,0,1,0,0,0,0,0,0,0,0,0,0,0,0],"split_type":[0,0,0,0,0,0,0,0,0,0,0,0,0,0,0,0,0,0,0,0,0,0,0,0,0,0,0,0,0,0,0,0,0,0,0,0,0,0,0,0,0,0,0],"sum_hessian":[4.32E2,3.02E2,1.3E2,1.78E2,1.24E2,1.1E2,2E1,5.6E1,1.22E2,8.4E1,4E1,8E1,3E1,1E1,1E1,2.8E1,2.8E1,6.8E1,5.4E1,4.6E1,3.8E1,2E1,2E1,2E1,6E1,1E1,2E1,6.3E1,5E0,1E1,4.4E1,1E1,3.6E1,2.8E1,1E1,1E1,1E1,1E1,1E1,5.3E1,1E1,2.6E1,1.8E1],"tree_param":{"num_deleted":"0","num_feature":"3","num_nodes":"43","size_leaf_vector":"1"}},{"base_weights":[6.197154E-4,-1.3057528E-2,3.2250136E-2,-2.0162575E-2,-2.7786407E-3,2.5309743E-2,6.7399345E-2,-2.7866213E-2,-1.6428672E-2,-6.7069335E-3,5.4331524E-3,1.9327218E-2,3.5052415E-2,1.4622949E-2,2.3978494E-2,-9.398747E-3,-7.0327106E-3,-1.8717026E-2,-1.3259125E-2,-8.6469045E-3,-4.197047E-3,4.5568295E-4,6.646802E-3,3.9723264E-3,6.436292E-3,4.006068E-2,2.837499E-2,-1.6066238E-2,-1.3161779E-2,-7.7598746E-4,-1.5573311E-2,-1.7662916E-3,-2.7700579E-3,-1.4052162E-3,-7.5947156E-4,1.2965637E-3,2.2644317E-3,7.9120295E-3,1.50318155E-2,4.868941E-3,1.13821905E-2,-5.5343155E-3,-8.744327E-4,-3.6548616E-3,-5.871497E-3],"categories":[],"categories_nodes":[],"categories_segments":[],"categories_sizes":[],"default_left":[0,0,0,0,0,0,0,0,0,0,0,0,0,0,0,0,0,0,0,0,0,0,0,0,0,0,0,0,0,0,0,0,0,0,0,0,0,0,0,0,0,0,0,0,0],"id":17,"left_children":[1,3,5,7,9,11,13,15,17,19,21,23,25,-1,-1,-1,-1,27,29,31,33,-1,35,-1,-1,37,39,41,-1,-1,43,-1,-1,-1,-1,-1,-1,-1,-1,-1,-1,-1,-1,-1,-1],"loss_changes":[1.8774423E-1,2.2072662E-2,3.0251518E-2,4.6910644E-3,4.068731E-3,5.7922527E-3,1.0126382E-3,1.3878569E-4,6.439537E-4,3.775824E-4,1.846737E-4,6.35067E-4,2.3441389E-4,0E0,0E0,0E0,0E0,3.8961973E-3,1.3181157E-3,2.1712622E-5,1.9774714E-5,0E0,3.2337266E-5,0E0,0E0,1.5658922E-3,1.8239394E-3,1.9507036E-3,0E0,0E0,3.7158746E-4,0E0,0E0,0E0,0E0,0E0,0E0,0E0,0E0,0E0,0E0,0E0,0E0,0E0,0E0],"parents":[2147483647,0,0,1,1,2,2,3,3,4,4,5,5,6,6,7,7,8,8,9,9,10,10,11,11,12,12,17,17,18,18,19,19,20,20,22,22,25,25,26,26,27,27,30,30],"right_children":[2,4,6,8,10,12,14,16,18,20,22,24,26,-1,-1,-1,-1,28,30,32,34,-1,36,-1,-1,38,40,42,-1,-1,44,-1,-1,-1,-1,-1,-1,-1,-1,-1,-1,-1,-1,-1,-1],"split_conditions":[4.091457E2,4.2928333E2,5.338775E2,1.9605066E2,5.88152E2,4.9162607E2,5.4668024E2,1.4196771E2,2.3807918E2,4.732257E2,3.5034967E2,4.4286557E2,5.1347266E2,1.4622949E-2,2.3978494E-2,-9.398747E-3,-7.0327106E-3,4E1,2.4394832E2,2.6712592E2,5.3406903E2,4.5568295E-4,3.5060275E2,3.9723264E-3,6.436292E-3,4.9811853E2,5.199166E2,3.3801837E2,-1.3161779E-2,-7.7598746E-4,3.8534094E2,-1.7662916E-3,-2.7700579E-3,-1.4052162E-3,-7.5947156E-4,1.2965637E-3,2.2644317E-3,7.9120295E-3,1.50318155E-2,4.868941E-3,1.13821905E-2,-5.5343155E-3,-8.744327E-4,-3.6548616E-3,-5.871497E-3],"split_indices":[0,1,0,1,1,0,0,1,0,1,0,0,0,0,0,0,0,2,0,0,1,0,0,0,0,0,0,1,0,0,1,0,0,0,0,0,0,0,0,0,0,0,0,0,0],"split_type":[0,0,0,0,0,0,0,0,0,0,0,0,0,0,0,0,0,0,0,0,0,0,0,0,0,0,0,0,0,0,0,0,0,0,0,0,0,0,0,0,0,0,0,0,0],"sum_hessian":[4.32E2,3.02E2,1.3E2,1.78E2,1.24E2,1.1E2,2E1,5.6E1,1.22E2,8.4E1,4E1,7E1,4E1,1E1,1E1,2.8E1,2.8E1,6.8E1,5.4E1,4.6E1,3.8E1,1E1,3E1,2E1,5E1,2E1,2E1,6.3E1,5E0,1E1,4.4E1,1E1,3.6E1,2.8E1,1E1,1E1,2E1,1E1,1E1,1E1,1E1,5.3E1,1E1,2.6E1,1.8E1],"tree_param":{"num_deleted":"0","num_feature":"3","num_nodes":"45","size_leaf_vector":"1"}},{"base_weights":[5.2437E-4,-9.302034E-3,2.3248615E-2,-1.4372525E-2,-1.9666748E-3,1.816406E-2,4.9017042E-2,-1.8437004E-2,-1.0584596E-2,-4.7739367E-3,3.9012257E-3,1.2669329E-2,2.438003E-2,1.0634683E-2,1.7438715E-2,-6.676365E-3,-4.8513864E-3,-8.412585E-3,-1.2623828E-2,-6.1494545E-3,-2.9938526E-3,3.3135846E-4,4.7677564E-3,1.3641096E-2,2.103632E-3,5.8454787E-3,2.6909612E-2,-9.971778E-3,-6.359274E-4,-9.871365E-3,-9.4260145E-3,-1.2845993E-3,-1.961533E-3,-9.983195E-4,-5.5243756E-4,9.4283716E-4,1.617568E-3,2.8374537E-3,4.810395E-3,1.0932229E-2,2.0635696E-2,-3.212046E-3,-2.1382247E-3,-5.6440185E-4,-3.5174803E-3,3.5409061E-3,8.27772E-3],"categories":[],"categories_nodes":[],"categories_segments":[],"categories_sizes":[],"default_left":[0,0,0,0,0,0,0,0,0,0,0,0,0,0,0,0,0,0,0,0,0,0,0,0,0,0,0,0,0,0,0,0,0,0,0,0,0,0,0,0,0,0,0,0,0,0,0],"id":18,"left_children":[1,3,5,7,9,11,13,15,17,19,21,23,25,-1,-1,-1,-1,27,29,31,33,-1,35,37,-1,-1,39,41,-1,-1,43,-1,-1,-1,-1,-1,-1,-1,-1,-1,45,-1,-1,-1,-1,-1,-1],"loss_changes":[9.6904114E-2,1.1241477E-2,1.6273402E-2,2.5607273E-3,2.077716E-3,3.4823343E-3,5.356744E-4,3.7532113E-4,3.145784E-4,1.8971507E-4,9.4094255E-5,2.3969449E-4,1.0718219E-4,0E0,0E0,0E0,0E0,4.5963703E-4,2.737977E-3,6.144168E-6,8.877774E-6,0E0,1.4494639E-5,3.58955E-4,0E0,0E0,1.1017453E-3,5.2263495E-6,0E0,0E0,7.064149E-4,0E0,0E0,0E0,0E0,0E0,0E0,0E0,0E0,0E0,9.646984E-4,0E0,0E0,0E0,0E0,0E0,0E0],"parents":[2147483647,0,0,1,1,2,2,3,3,4,4,5,5,6,6,7,7,8,8,9,9,10,10,11,11,12,12,17,17,18,18,19,19,20,20,22,22,23,23,26,26,27,27,30,30,40,40],"right_children":[2,4,6,8,10,12,14,16,18,20,22,24,26,-1,-1,-1,-1,28,30,32,34,-1,36,38,-1,-1,40,42,-1,-1,44,-1,-1,-1,-1,-1,-1,-1,-1,-1,46,-1,-1,-1,-1,-1,-1],"split_conditions":[4.091457E2,4.2928333E2,5.338775E2,2.5689395E2,5.88152E2,4.851629E2,5.4668024E2,1.4196771E2,4E1,4.732257E2,3.5034967E2,7.5E1,4.9811853E2,1.0634683E-2,1.7438715E-2,-6.676365E-3,-4.8513864E-3,3.3801837E2,2.2538748E2,2.6712592E2,5.3406903E2,3.3135846E-4,3.5060275E2,4.4286557E2,2.103632E-3,5.8454787E-3,5.1347266E2,3.109769E2,-6.359274E-4,-9.871365E-3,2.4394832E2,-1.2845993E-3,-1.961533E-3,-9.983195E-4,-5.5243756E-4,9.4283716E-4,1.617568E-3,2.8374537E-3,4.810395E-3,1.0932229E-2,5.199166E2,-3.212046E-3,-2.1382247E-3,-5.6440185E-4,-3.5174803E-3,3.5409061E-3,8.27772E-3],"split_indices":[0,1,0,1,1,0,0,1,2,1,0,2,0,0,0,0,0,1,0,0,1,0,0,0,0,0,0,1,0,0,0,0,0,0,0,0,0,0,0,0,0,0,0,0,0,0,0],"split_type":[0,0,0,0,0,0,0,0,0,0,0,0,0,0,0,0,0,0,0,0,0,0,0,0,0,0,0,0,0,0,0,0,0,0,0,0,0,0,0,0,0,0,0,0,0,0,0],"sum_hessian":[4.32E2,3.02E2,1.3E2,1.78E2,1.24E2,1.1E2,2E1,8.4E1,9.4E1,8.4E1,4E1,6E1,5E1,1E1,1E1,2.8E1,5.6E1,4.8E1,4.6E1,4.6E1,3.8E1,1E1,3E1,5E1,1E1,2E1,3E1,3.8E1,1E1,5E0,4.1E1,1E1,3.6E1,2.8E1,1E1,1E1,2E1,2E1,3E1,1E1,2E1,2.8E1,1E1,1E1,3.1E1,1E1,1E1],"tree_param":{"num_deleted":"0","num_feature":"3","num_nodes":"47","size_leaf_vector":"1"}},{"base_weights":[4.4338478E-4,-6.246593E-3,1.7745199E-2,-1.0236551E-2,-9.099325E-4,1.3847068E-2,3.5648346E-2,-1.3041569E-2,-7.6190447E-3,-3.3980873E-3,3.2548343E-3,1.0480881E-2,1.8517563E-2,7.7341255E-3,1.2682655E-2,-4.7425353E-3,-3.4215176E-3,-6.0109994E-3,-9.13341E-3,-1.3120652E-3,-2.135399E-3,1.6180674E-3,4.2586173E-3,8.516312E-3,3.6322072E-3,2.114523E-2,1.5008109E-2,-7.117504E-3,-4.6244537E-4,-7.4034934E-3,-6.6952477E-3,-7.090996E-4,-4.018437E-4,2.4110622E-4,6.856051E-4,8.8665704E-4,1.4215197E-3,2.9701507E-3,1.5298672E-3,4.1599274E-3,7.950523E-3,2.575441E-3,6.020113E-3,-2.5767982E-3,-1.7519178E-3,-9.792447E-4,-3.2030658E-3],"categories":[],"categories_nodes":[],"categories_segments":[],"categories_sizes":[],"default_left":[0,0,0,0,0,0,0,0,0,0,0,0,0,0,0,0,0,0,0,0,0,0,0,0,0,0,0,0,0,0,0,0,0,0,0,0,0,0,0,0,0,0,0,0,0,0,0],"id":19,"left_children":[1,3,5,7,9,11,13,15,17,19,21,23,25,-1,-1,-1,-1,27,29,-1,31,33,35,37,-1,39,41,43,-1,-1,45,-1,-1,-1,-1,-1,-1,-1,-1,-1,-1,-1,-1,-1,-1,-1,-1],"loss_changes":[5.0230056E-2,6.655411E-3,7.95082E-3,1.2148824E-3,1.4100093E-3,1.3938174E-3,2.8344616E-4,2.0458549E-4,1.7644E-4,9.5355674E-5,7.690018E-5,9.180466E-5,6.0739927E-5,0E0,0E0,0E0,0E0,2.3135962E-4,1.6161189E-3,0E0,3.9195E-6,9.575149E-6,5.376758E-6,9.6124364E-5,0E0,4.5128446E-4,5.1012496E-4,2.3186672E-5,0E0,0E0,5.389276E-4,0E0,0E0,0E0,0E0,0E0,0E0,0E0,0E0,0E0,0E0,0E0,0E0,0E0,0E0,0E0,0E0],"parents":[2147483647,0,0,1,1,2,2,3,3,4,4,5,5,6,6,7,7,8,8,9,9,10,10,11,11,12,12,17,17,18,18,20,20,21,21,22,22,23,23,25,25,26,26,27,27,30,30],"right_children":[2,4,6,8,10,12,14,16,18,20,22,24,26,-1,-1,-1,-1,28,30,-1,32,34,36,38,-1,40,42,44,-1,-1,46,-1,-1,-1,-1,-1,-1,-1,-1,-1,-1,-1,-1,-1,-1,-1,-1],"split_conditions":[4.1871243E2,4.2928333E2,5.338775E2,2.5689395E2,5.88152E2,4.9162607E2,5.4668024E2,1.4196771E2,4E1,4.732257E2,3.5060275E2,4.7349374E2,5.1347266E2,7.7341255E-3,1.2682655E-2,-4.7425353E-3,-3.4215176E-3,3.3801837E2,2.2538748E2,-1.3120652E-3,5.3406903E2,3.5034967E2,3.9067328E2,4.6566702E2,3.6322072E-3,4.9811853E2,5.199166E2,1.9692986E2,-4.6244537E-4,-7.4034934E-3,3.9210132E2,-7.090996E-4,-4.018437E-4,2.4110622E-4,6.856051E-4,8.8665704E-4,1.4215197E-3,2.9701507E-3,1.5298672E-3,4.1599274E-3,7.950523E-3,2.575441E-3,6.020113E-3,-2.5767982E-3,-1.7519178E-3,-9.792447E-4,-3.2030658E-3],"split_indices":[0,1,0,1,1,0,0,1,2,1,0,0,0,0,0,0,0,1,0,0,1,0,0,0,0,0,0,0,0,0,1,0,0,0,0,0,0,0,0,0,0,0,0,0,0,0,0],"split_type":[0,0,0,0,0,0,0,0,0,0,0,0,0,0,0,0,0,0,0,0,0,0,0,0,0,0,0,0,0,0,0,0,0,0,0,0,0,0,0,0,0,0,0,0,0,0,0],"sum_hessian":[4.32E2,3.12E2,1.2E2,1.78E2,1.34E2,1E2,2E1,8.4E1,9.4E1,8.4E1,5E1,6E1,4E1,1E1,1E1,2.8E1,5.6E1,4.8E1,4.6E1,4.6E1,3.8E1,2E1,3E1,3E1,3E1,2E1,2E1,3.8E1,1E1,5E0,4.1E1,2.8E1,1E1,1E1,1E1,1E1,2E1,2E1,1E1,1E1,1E1,1E1,1E1,1.5E1,2.3E1,2.3E1,1.8E1],"tree_param":{"num_deleted":"0","num_feature":"3","num_nodes":"47","size_leaf_vector":"1"}},{"base_weights":[3.69453E-4,-4.4484064E-3,1.2829127E-2,-7.302673E-3,-6.3090853E-4,9.978927E-3,2.5926318E-2,-3.0364692E-3,-5.936987E-3,-2.4069618E-3,2.341551E-3,6.907407E-3,1.2854782E-2,5.624771E-3,9.223938E-3,-6.7952126E-3,-4.7523584E-3,-3.089215E-3,-1.5230423E-3,1.1766525E-3,3.0551418E-3,2.2791189E-3,1.1126779E-3,3.0621123E-3,1.4233743E-2,-5.590886E-3,-5.5526495E-3,-3.1397664E-3,-2.2927637E-3,-5.763661E-4,-1.0058894E-3,-5.035795E-4,-2.9234454E-4,1.7530269E-4,4.985983E-4,6.4477057E-4,1.0152545E-3,5.782387E-3,1.0915483E-2,-2.086258E-3,-7.4046E-4,-1.4331125E-4,-1.2324069E-3,1.8731899E-3,4.378406E-3],"categories":[],"categories_nodes":[],"categories_segments":[],"categories_sizes":[],"default_left":[0,0,0,0,0,0,0,0,0,0,0,0,0,0,0,0,0,0,0,0,0,0,0,0,0,0,0,0,0,0,0,0,0,0,0,0,0,0,0,0,0,0,0,0,0],"id":20,"left_children":[1,3,5,7,9,11,13,-1,15,17,19,21,23,-1,-1,25,27,29,31,33,35,-1,-1,-1,37,39,-1,41,-1,-1,-1,-1,-1,-1,-1,-1,-1,-1,43,-1,-1,-1,-1,-1,-1],"loss_changes":[2.6049607E-2,3.405891E-3,4.258165E-3,6.290078E-4,7.1833434E-4,8.0336444E-4,1.5001278E-4,0E0,9.2757866E-5,4.655478E-5,3.879945E-5,8.432148E-5,4.0924177E-5,0E0,0E0,8.699037E-4,2.3234228E-4,8.0369355E-6,1.6921767E-6,5.0657563E-6,1.9670697E-6,0E0,0E0,0E0,3.0814344E-4,2.552953E-4,0E0,9.340723E-5,0E0,0E0,0E0,0E0,0E0,0E0,0E0,0E0,0E0,0E0,2.6980788E-4,0E0,0E0,0E0,0E0,0E0,0E0],"parents":[2147483647,0,0,1,1,2,2,3,3,4,4,5,5,6,6,8,8,9,9,10,10,11,11,12,12,15,15,16,16,17,17,18,18,19,19,20,20,24,24,25,25,27,27,38,38],"right_children":[2,4,6,8,10,12,14,-1,16,18,20,22,24,-1,-1,26,28,30,32,34,36,-1,-1,-1,38,40,-1,42,-1,-1,-1,-1,-1,-1,-1,-1,-1,-1,44,-1,-1,-1,-1,-1,-1],"split_conditions":[4.1871243E2,4.2928333E2,5.338775E2,1.9605066E2,5.88152E2,4.851629E2,5.4668024E2,-3.0364692E-3,2.3807918E2,4.732257E2,3.5060275E2,7.5E1,4.9811853E2,5.624771E-3,9.223938E-3,4E1,3.9210132E2,2.6712592E2,5.3406903E2,3.5034967E2,3.9067328E2,2.2791189E-3,1.1126779E-3,3.0621123E-3,5.1347266E2,2.7041626E2,-5.5526495E-3,2.4394832E2,-2.2927637E-3,-5.763661E-4,-1.0058894E-3,-5.035795E-4,-2.9234454E-4,1.7530269E-4,4.985983E-4,6.4477057E-4,1.0152545E-3,5.782387E-3,5.199166E2,-2.086258E-3,-7.4046E-4,-1.4331125E-4,-1.2324069E-3,1.8731899E-3,4.378406E-3],"split_indices":[0,1,0,1,1,0,0,0,0,1,0,2,0,0,0,2,1,0,1,0,0,0,0,0,0,1,0,0,0,0,0,0,0,0,0,0,0,0,0,0,0,0,0,0,0],"split_type":[0,0,0,0,0,0,0,0,0,0,0,0,0,0,0,0,0,0,0,0,0,0,0,0,0,0,0,0,0,0,0,0,0,0,0,0,0,0,0,0,0,0,0,0,0],"sum_hessian":[4.32E2,3.12E2,1.2E2,1.78E2,1.34E2,1E2,2E1,5.6E1,1.22E2,8.4E1,5E1,5E1,5E1,1E1,1E1,6.8E1,5.4E1,4.6E1,3.8E1,2E1,3E1,4E1,1E1,2E1,3E1,6.3E1,5E0,3.6E1,1.8E1,1E1,3.6E1,2.8E1,1E1,1E1,1E1,1E1,2E1,1E1,2E1,4.3E1,2E1,1E1,2.6E1,1E1,1E1],"tree_param":{"num_deleted":"0","num_feature":"3","num_nodes":"45","size_leaf_vector":"1"}},{"base_weights":[3.0068052E-4,-3.1622103E-3,9.2559215E-3,-5.196113E-3,-4.4198212E-4,7.168326E-3,1.8855503E-2,-2.4893072E-3,-4.566035E-3,-1.7127541E-3,1.6846376E-3,5.2916417E-3,9.785629E-3,4.0907427E-3,6.708319E-3,-5.1839426E-3,-3.3932512E-3,-2.1960076E-3,-3.2593653E-4,8.555821E-4,6.5757387E-4,4.277691E-3,1.8404685E-3,1.1167072E-2,7.938203E-3,-4.5603616E-3,-4.1644573E-3,-2.2348068E-3,-1.6411733E-3,-4.1926993E-4,-7.1220915E-4,1.2744557E-4,3.6256964E-4,4.901432E-3,8.094094E-4,2.1905033E-3,4.2051836E-3,1.3623672E-3,3.1840585E-3,-1.5169301E-3,-1.3433803E-4,-1.0416725E-4,-8.7631546E-4,1.043233E-3,1.7639508E-3],"categories":[],"categories_nodes":[],"categories_segments":[],"categories_sizes":[],"default_left":[0,0,0,0,0,0,0,0,0,0,0,0,0,0,0,0,0,0,0,0,0,0,0,0,0,0,0,0,0,0,0,0,0,0,0,0,0,0,0,0,0,0,0,0,0],"id":21,"left_children":[1,3,5,7,9,11,13,-1,15,17,19,21,23,-1,-1,25,27,29,-1,31,-1,33,-1,35,37,39,-1,41,-1,-1,-1,-1,-1,43,-1,-1,-1,-1,-1,-1,-1,-1,-1,-1,-1],"loss_changes":[1.3457042E-2,1.7294323E-3,2.2896826E-3,3.1192042E-4,3.6771598E-4,4.4431444E-4,7.9345424E-5,0E0,9.183516E-5,2.334034E-5,1.957317E-5,2.5912886E-5,1.5990343E-5,0E0,0E0,4.6278886E-4,1.201299E-4,3.3627584E-6,0E0,2.6796788E-6,0E0,1.7320039E-5,0E0,1.2901076E-4,1.426501E-4,1.8542737E-4,0E0,4.6913454E-5,0E0,0E0,0E0,0E0,0E0,8.811185E-6,0E0,0E0,0E0,0E0,0E0,0E0,0E0,0E0,0E0,0E0,0E0],"parents":[2147483647,0,0,1,1,2,2,3,3,4,4,5,5,6,6,8,8,9,9,10,10,11,11,12,12,15,15,16,16,17,17,19,19,21,21,23,23,24,24,25,25,27,27,33,33],"right_children":[2,4,6,8,10,12,14,-1,16,18,20,22,24,-1,-1,26,28,30,-1,32,-1,34,-1,36,38,40,-1,42,-1,-1,-1,-1,-1,44,-1,-1,-1,-1,-1,-1,-1,-1,-1,-1,-1],"split_conditions":[4.1871243E2,4.2928333E2,5.338775E2,1.4196771E2,5.88152E2,4.9162607E2,5.4668024E2,-2.4893072E-3,2.3807918E2,4.732257E2,3.5060275E2,4.7349374E2,5.1347266E2,4.0907427E-3,6.708319E-3,4E1,3.9210132E2,2.6712592E2,-3.2593653E-4,3.5034967E2,6.5757387E-4,4.6566702E2,1.8404685E-3,4.9811853E2,5.199166E2,3.3801837E2,-4.1644573E-3,2.4394832E2,-1.6411733E-3,-4.1926993E-4,-7.1220915E-4,1.2744557E-4,3.6256964E-4,4.4286557E2,8.094094E-4,2.1905033E-3,4.2051836E-3,1.3623672E-3,3.1840585E-3,-1.5169301E-3,-1.3433803E-4,-1.0416725E-4,-8.7631546E-4,1.043233E-3,1.7639508E-3],"split_indices":[0,1,0,1,1,0,0,0,0,1,0,0,0,0,0,2,1,0,0,0,0,0,0,0,0,1,0,0,0,0,0,0,0,0,0,0,0,0,0,0,0,0,0,0,0],"split_type":[0,0,0,0,0,0,0,0,0,0,0,0,0,0,0,0,0,0,0,0,0,0,0,0,0,0,0,0,0,0,0,0,0,0,0,0,0,0,0,0,0,0,0,0,0],"sum_hessian":[4.32E2,3.12E2,1.2E2,1.78E2,1.34E2,1E2,2E1,2.8E1,1.5E2,8.4E1,5E1,6E1,4E1,1E1,1E1,9.6E1,5.4E1,4.6E1,3.8E1,2E1,3E1,3E1,3E1,2E1,2E1,9.1E1,5E0,3.6E1,1.8E1,1E1,3.6E1,1E1,1E1,2E1,1E1,1E1,1E1,1E1,1E1,8.1E1,1E1,1E1,2.6E1,1E1,1E1],"tree_param":{"num_deleted":"0","num_feature":"3","num_nodes":"45","size_leaf_vector":"1"}},{"base_weights":[2.4736396E-4,-2.249448E-3,6.704015E-3,-3.698341E-3,-3.1166075E-4,5.18034E-3,1.3712929E-2,-5.170404E-3,-2.9860977E-3,-1.2158562E-3,1.2014427E-3,3.4708136E-3,6.788291E-3,2.9749437E-3,4.8788246E-3,-1.7682601E-3,-1.2804953E-3,-3.3917497E-3,-2.4228962E-3,-1.5610635E-3,-7.686615E-4,7.6386234E-4,5.370549E-4,3.790739E-3,5.888506E-4,1.6117097E-3,7.5284895E-3,-2.680704E-3,-3.1232836E-3,-1.5908447E-3,-1.1747059E-3,-3.04829E-4,-5.0426694E-4,-2.6325358E-4,-1.2354417E-4,9.259311E-5,2.8978076E-4,7.586913E-4,1.2348545E-3,3.0581735E-3,5.7738167E-3,-1.0299293E-3,-2.9298238E-4,-7.581711E-5,-6.231255E-4,9.909543E-4,2.3158682E-3],"categories":[],"categories_nodes":[],"categories_segments":[],"categories_sizes":[],"default_left":[0,0,0,0,0,0,0,0,0,0,0,0,0,0,0,0,0,0,0,0,0,0,0,0,0,0,0,0,0,0,0,0,0,0,0,0,0,0,0,0,0,0,0,0,0,0,0],"id":22,"left_children":[1,3,5,7,9,11,13,15,17,19,21,23,25,-1,-1,-1,-1,27,29,31,33,35,-1,37,-1,-1,39,41,-1,43,-1,-1,-1,-1,-1,-1,-1,-1,-1,-1,45,-1,-1,-1,-1,-1,-1],"loss_changes":[6.9954926E-3,8.776408E-4,1.2211585E-3,1.72236E-4,1.8615984E-4,2.5407155E-4,4.2016618E-5,1.2058532E-5,1.9883155E-5,1.1921933E-5,1.1771219E-5,1.7163984E-5,1.3005454E-5,0E0,0E0,0E0,0E0,3.1646813E-4,6.208508E-5,1.3612153E-6,1.1535049E-6,2.5534882E-6,0E0,6.426184E-6,0E0,0E0,8.612743E-5,7.870485E-5,0E0,2.3549066E-5,0E0,0E0,0E0,0E0,0E0,0E0,0E0,0E0,0E0,0E0,7.545255E-5,0E0,0E0,0E0,0E0,0E0,0E0],"parents":[2147483647,0,0,1,1,2,2,3,3,4,4,5,5,6,6,7,7,8,8,9,9,10,10,11,11,12,12,17,17,18,18,19,19,20,20,21,21,23,23,26,26,27,27,29,29,40,40],"right_children":[2,4,6,8,10,12,14,16,18,20,22,24,26,-1,-1,-1,-1,28,30,32,34,36,-1,38,-1,-1,40,42,-1,44,-1,-1,-1,-1,-1,-1,-1,-1,-1,-1,46,-1,-1,-1,-1,-1,-1],"split_conditions":[4.1871243E2,4.2928333E2,5.338775E2,1.9605066E2,5.88152E2,4.851629E2,5.4668024E2,1.4196771E2,2.3807918E2,4.732257E2,3.9067328E2,7.5E1,4.9811853E2,2.9749437E-3,4.8788246E-3,-1.7682601E-3,-1.2804953E-3,4E1,3.9210132E2,2.6712592E2,5.3406903E2,3.5034967E2,5.370549E-4,4.4286557E2,5.888506E-4,1.6117097E-3,5.1347266E2,2.7041626E2,-3.1232836E-3,2.4394832E2,-1.1747059E-3,-3.04829E-4,-5.0426694E-4,-2.6325358E-4,-1.2354417E-4,9.259311E-5,2.8978076E-4,7.586913E-4,1.2348545E-3,3.0581735E-3,5.199166E2,-1.0299293E-3,-2.9298238E-4,-7.581711E-5,-6.231255E-4,9.909543E-4,2.3158682E-3],"split_indices":[0,1,0,1,1,0,0,1,0,1,0,2,0,0,0,0,0,2,1,0,1,0,0,0,0,0,0,1,0,0,0,0,0,0,0,0,0,0,0,0,0,0,0,0,0,0,0],"split_type":[0,0,0,0,0,0,0,0,0,0,0,0,0,0,0,0,0,0,0,0,0,0,0,0,0,0,0,0,0,0,0,0,0,0,0,0,0,0,0,0,0,0,0,0,0,0,0],"sum_hessian":[4.32E2,3.12E2,1.2E2,1.78E2,1.34E2,1E2,2E1,5.6E1,1.22E2,8.4E1,5E1,5E1,5E1,1E1,1E1,2.8E1,2.8E1,6.8E1,5.4E1,4.6E1,3.8E1,3E1,2E1,4E1,1E1,2E1,3E1,6.3E1,5E0,3.6E1,1.8E1,1E1,3.6E1,2.8E1,1E1,1E1,2E1,1E1,3E1,1E1,2E1,4.3E1,2E1,1E1,2.6E1,1E1,1E1],"tree_param":{"num_deleted":"0","num_feature":"3","num_nodes":"47","size_leaf_vector":"1"}},{"base_weights":[1.9347254E-4,-1.605363E-3,4.8450595E-3,-2.6411505E-3,-2.200939E-4,3.730944E-3,9.972708E-3,-3.6727588E-3,-2.1416151E-3,-8.6499384E-4,8.5905485E-4,2.4804883E-3,4.9082437E-3,2.1634537E-3,3.5481888E-3,-1.2560829E-3,-9.095784E-4,-1.6754047E-3,-2.4379867E-3,-3.3291354E-4,-1.6436944E-4,5.469784E-4,3.8364957E-4,2.7026199E-3,4.281131E-4,1.1512212E-3,5.4753213E-3,-2.0681068E-3,-1.7816372E-5,-2.3424625E-3,-1.9282909E-3,6.736409E-5,2.0694733E-4,5.516572E-4,8.7658054E-4,2.2243154E-3,4.1988916E-3,-7.7831006E-4,-4.994136E-4,-4.6724654E-4,-8.407794E-4,7.2045764E-4,1.6843624E-3],"categories":[],"categories_nodes":[],"categories_segments":[],"categories_sizes":[],"default_left":[0,0,0,0,0,0,0,0,0,0,0,0,0,0,0,0,0,0,0,0,0,0,0,0,0,0,0,0,0,0,0,0,0,0,0,0,0,0,0,0,0,0,0],"id":23,"left_children":[1,3,5,7,9,11,13,15,17,19,21,23,25,-1,-1,-1,-1,27,29,-1,-1,31,-1,33,-1,-1,35,37,-1,-1,39,-1,-1,-1,-1,-1,41,-1,-1,-1,-1,-1,-1],"loss_changes":[3.6308793E-3,4.4852495E-4,6.5404084E-4,8.437759E-5,9.469537E-5,1.365135E-4,2.2245804E-5,6.087299E-6,1.2910459E-5,5.9879094E-6,5.9816375E-6,8.077419E-6,9.958632E-6,0E0,0E0,0E0,0E0,3.2242446E-5,1.847576E-4,0E0,0E0,1.2729015E-6,0E0,2.3938483E-6,0E0,0E0,4.5595167E-5,4.3850305E-6,0E0,0E0,1.7680257E-5,0E0,0E0,0E0,0E0,0E0,3.994975E-5,0E0,0E0,0E0,0E0,0E0,0E0],"parents":[2147483647,0,0,1,1,2,2,3,3,4,4,5,5,6,6,7,7,8,8,9,9,10,10,11,11,12,12,17,17,18,18,21,21,23,23,26,26,27,27,30,30,36,36],"right_children":[2,4,6,8,10,12,14,16,18,20,22,24,26,-1,-1,-1,-1,28,30,-1,-1,32,-1,34,-1,-1,36,38,-1,-1,40,-1,-1,-1,-1,-1,42,-1,-1,-1,-1,-1,-1],"split_conditions":[4.1871243E2,4.2928333E2,5.338775E2,1.9605066E2,5.88152E2,4.851629E2,5.4668024E2,1.4196771E2,2.1309192E2,4.732257E2,3.9067328E2,7.5E1,4.9811853E2,2.1634537E-3,3.5481888E-3,-1.2560829E-3,-9.095784E-4,2.1010756E2,2.2538748E2,-3.3291354E-4,-1.6436944E-4,3.5034967E2,3.8364957E-4,4.4286557E2,4.281131E-4,1.1512212E-3,5.1347266E2,1.5840497E2,-1.7816372E-5,-2.3424625E-3,3.9210132E2,6.736409E-5,2.0694733E-4,5.516572E-4,8.7658054E-4,2.2243154E-3,5.199166E2,-7.7831006E-4,-4.994136E-4,-4.6724654E-4,-8.407794E-4,7.2045764E-4,1.6843624E-3],"split_indices":[0,1,0,1,1,0,0,1,0,1,0,2,0,0,0,0,0,0,0,0,0,0,0,0,0,0,0,0,0,0,1,0,0,0,0,0,0,0,0,0,0,0,0],"split_type":[0,0,0,0,0,0,0,0,0,0,0,0,0,0,0,0,0,0,0,0,0,0,0,0,0,0,0,0,0,0,0,0,0,0,0,0,0,0,0,0,0,0,0],"sum_hessian":[4.32E2,3.12E2,1.2E2,1.78E2,1.34E2,1E2,2E1,5.6E1,1.22E2,8.4E1,5E1,5E1,5E1,1E1,1E1,2.8E1,2.8E1,5E1,7.2E1,4.6E1,3.8E1,3E1,2E1,4E1,1E1,2E1,3E1,4E1,1E1,5E0,6.7E1,1E1,2E1,1E1,3E1,1E1,2E1,1.5E1,2.5E1,4.9E1,1.8E1,1E1,1E1],"tree_param":{"num_deleted":"0","num_feature":"3","num_nodes":"43","size_leaf_vector":"1"}},{"base_weights":[1.501145E-4,-1.1460332E-3,3.5017186E-3,-1.8885789E-3,-1.5298348E-4,2.687001E-3,7.2533744E-3,-2.4523006E-3,-1.3643164E-3,-6.1154086E-4,6.142785E-4,5.761913E-4,3.7616636E-3,1.5735627E-3,2.5806427E-3,-8.9224457E-4,-6.431329E-4,-8.6883706E-4,-1.6388654E-3,-2.3518827E-4,-1.1642163E-4,1.1748653E-4,2.7411326E-4,4.2906264E-3,3.0535744E-3,-3.553996E-4,-1.300465E-5,-1.7569066E-3,-1.1489781E-3,8.395802E-4,1.6177784E-3,5.2382733E-4,1.2250381E-3,7.2305855E-5,-4.389668E-4],"categories":[],"categories_nodes":[],"categories_segments":[],"categories_sizes":[],"default_left":[0,0,0,0,0,0,0,0,0,0,0,0,0,0,0,0,0,0,0,0,0,0,0,0,0,0,0,0,0,0,0,0,0,0,0],"id":24,"left_children":[1,3,5,7,9,11,13,15,17,19,21,-1,23,-1,-1,-1,-1,25,27,-1,-1,-1,-1,29,31,-1,-1,-1,33,-1,-1,-1,-1,-1,-1],"loss_changes":[1.8850404E-3,2.3051247E-4,3.5035145E-4,4.9555558E-5,4.7873196E-5,7.595704E-5,1.1759461E-5,7.309369E-6,1.1499258E-5,2.9708572E-6,3.0423707E-6,0E0,2.2549066E-6,0E0,0E0,0E0,0E0,9.334295E-6,1.17236865E-4,0E0,0E0,0E0,0E0,1.943577E-5,2.1147629E-5,0E0,0E0,0E0,2.4376604E-5,0E0,0E0,0E0,0E0,0E0,0E0],"parents":[2147483647,0,0,1,1,2,2,3,3,4,4,5,5,6,6,7,7,8,8,9,9,10,10,12,12,17,17,18,18,23,23,24,24,28,28],"right_children":[2,4,6,8,10,12,14,16,18,20,22,-1,24,-1,-1,-1,-1,26,28,-1,-1,-1,-1,30,32,-1,-1,-1,34,-1,-1,-1,-1,-1,-1],"split_conditions":[4.1871243E2,4.2928333E2,5.338775E2,2.5689395E2,5.88152E2,4.9162607E2,5.4668024E2,1.4196771E2,2.1309192E2,4.732257E2,3.9067328E2,5.761913E-4,5.1347266E2,1.5735627E-3,2.5806427E-3,-8.9224457E-4,-6.431329E-4,2.1010756E2,2.2538748E2,-2.3518827E-4,-1.1642163E-4,1.1748653E-4,2.7411326E-4,4.9811853E2,5.199166E2,-3.553996E-4,-1.300465E-5,-1.7569066E-3,2.4394832E2,8.395802E-4,1.6177784E-3,5.2382733E-4,1.2250381E-3,7.2305855E-5,-4.389668E-4],"split_indices":[0,1,0,1,1,0,0,1,0,1,0,0,0,0,0,0,0,0,0,0,0,0,0,0,0,0,0,0,0,0,0,0,0,0,0],"split_type":[0,0,0,0,0,0,0,0,0,0,0,0,0,0,0,0,0,0,0,0,0,0,0,0,0,0,0,0,0,0,0,0,0,0,0],"sum_hessian":[4.32E2,3.12E2,1.2E2,1.78E2,1.34E2,1E2,2E1,8.4E1,9.4E1,8.4E1,5E1,6E1,4E1,1E1,1E1,2.8E1,5.6E1,3.5E1,5.9E1,4.6E1,3.8E1,3E1,2E1,2E1,2E1,2.5E1,1E1,5E0,5.4E1,1E1,1E1,1E1,1E1,1E1,4.4E1],"tree_param":{"num_deleted":"0","num_feature":"3","num_nodes":"35","size_leaf_vector":"1"}},{"base_weights":[1.16565214E-4,-8.690255E-4,2.3953242E-3,-1.5685883E-3,-3.756491E-4,1.8289068E-3,5.2751815E-3,-1.4143427E-3,-1.3176203E-3,-6.2674517E-4,2.6684182E-4,1.1448782E-3,2.6111978E-3,1.1444092E-3,1.8768312E-3,-1.6391802E-3,-2.7633848E-4,5.2538788E-5,-6.956012E-4,1.9073486E-6,1.3040728E-4,1.2582891E-3,1.5449524E-4,6.1988836E-4,2.8960935E-3,-6.3379057E-4,-4.27715E-4,-1.487732E-4,-9.493395E-6,-1.0338147E-3,-1.4501954E-4,2.4563927E-4,4.5462578E-4,1.1766606E-3,2.2206989E-3,-1.8121403E-4,-4.7703795E-4,3.8077615E-4,8.910786E-4],"categories":[],"categories_nodes":[],"categories_segments":[],"categories_sizes":[],"default_left":[0,0,0,0,0,0,0,0,0,0,0,0,0,0,0,0,0,0,0,0,0,0,0,0,0,0,0,0,0,0,0,0,0,0,0,0,0,0,0],"id":25,"left_children":[1,3,5,7,9,11,13,15,-1,17,19,21,23,-1,-1,25,27,-1,29,-1,-1,31,-1,-1,33,-1,-1,-1,-1,35,-1,-1,-1,-1,37,-1,-1,-1,-1],"loss_changes":[9.745665E-4,1.0399053E-4,2.0403956E-4,4.8226764E-5,2.904476E-5,5.6407618E-5,6.219896E-6,3.0250943E-5,0E0,7.2444163E-6,2.2270583E-6,3.7096543E-6,1.9331055E-6,0E0,0E0,7.0945243E-6,1.1125941E-6,0E0,8.0408645E-6,0E0,0E0,4.522517E-6,0E0,0E0,1.2773817E-5,0E0,0E0,0E0,0E0,9.798314E-6,0E0,0E0,0E0,0E0,1.1206517E-5,0E0,0E0,0E0,0E0],"parents":[2147483647,0,0,1,1,2,2,3,3,4,4,5,5,6,6,7,7,9,9,10,10,11,11,12,12,15,15,16,16,18,18,21,21,24,24,29,29,34,34],"right_children":[2,4,6,8,10,12,14,16,-1,18,20,22,24,-1,-1,26,28,-1,30,-1,-1,32,-1,-1,34,-1,-1,-1,-1,36,-1,-1,-1,-1,38,-1,-1,-1,-1],"split_conditions":[4.091457E2,2.3807918E2,5.338775E2,4E1,5.3406903E2,4.851629E2,5.4668024E2,2.7041626E2,-1.3176203E-3,2.4394832E2,3.5034967E2,7.5E1,4.9811853E2,1.1444092E-3,1.8768312E-3,1.4196771E2,2.1010756E2,5.2538788E-5,4.2928333E2,1.9073486E-6,1.3040728E-4,4.4286557E2,1.5449524E-4,6.1988836E-4,5.1347266E2,-6.3379057E-4,-4.27715E-4,-1.487732E-4,-9.493395E-6,3.8534094E2,-1.4501954E-4,2.4563927E-4,4.5462578E-4,1.1766606E-3,5.199166E2,-1.8121403E-4,-4.7703795E-4,3.8077615E-4,8.910786E-4],"split_indices":[0,0,0,2,1,0,0,1,0,0,0,2,0,0,0,1,0,0,1,0,0,0,0,0,0,0,0,0,0,1,0,0,0,0,0,0,0,0,0],"split_type":[0,0,0,0,0,0,0,0,0,0,0,0,0,0,0,0,0,0,0,0,0,0,0,0,0,0,0,0,0,0,0,0,0,0,0,0,0,0,0],"sum_hessian":[4.32E2,3.02E2,1.3E2,1.24E2,1.78E2,1.1E2,2E1,1.19E2,5E0,1.28E2,5E1,6E1,5E1,1E1,1E1,9.9E1,2E1,1E1,1.18E2,2E1,3E1,5E1,1E1,2E1,3E1,2.8E1,7.1E1,1E1,1E1,4.4E1,7.4E1,2E1,3E1,1E1,2E1,2.6E1,1.8E1,1E1,1E1],"tree_param":{"num_deleted":"0","num_feature":"3","num_nodes":"39","size_leaf_vector":"1"}},{"base_weights":[9.033036E-5,-5.4246356E-4,1.9308898E-3,-9.587304E-4,-2.4848148E-5,1.4699161E-3,3.8364956E-3,-1.2441523E-3,-6.93261E-4,-3.0627532E-4,3.677118E-4,9.141317E-4,1.8879011E-3,8.322976E-4,1.3649681E-3,-4.501968E-4,-3.2754696E-4,-5.7442155E-4,-3.415158E-4,-4.1190613E-4,-5.1337025E-5,5.795879E-5,1.591098E-4,4.2603235E-4,7.0510374E-4,4.4277738E-4,2.1060822E-3,-6.9990894E-4,2.9160428E-5,-2.7049673E-5,-1.4892785E-4,1.12360176E-4,2.534049E-4,8.55706E-4,1.6148885E-3,-1.1891127E-4,-3.1224728E-4,2.7673895E-4,6.481518E-4],"categories":[],"categories_nodes":[],"categories_segments":[],"categories_sizes":[],"default_left":[0,0,0,0,0,0,0,0,0,0,0,0,0,0,0,0,0,0,0,0,0,0,0,0,0,0,0,0,0,0,0,0,0,0,0,0,0,0,0],"id":26,"left_children":[1,3,5,7,9,11,13,15,17,19,21,23,25,-1,-1,-1,-1,27,-1,29,-1,-1,-1,-1,31,-1,33,35,-1,-1,-1,-1,-1,-1,37,-1,-1,-1,-1],"loss_changes":[5.0536025E-4,6.957174E-5,9.186691E-5,1.2700446E-5,1.6131791E-5,1.941438E-5,3.289868E-6,1.6827544E-6,4.371439E-6,1.1429902E-6,1.629066E-6,3.3349643E-6,1.4757534E-6,0E0,0E0,0E0,0E0,6.557606E-6,0E0,1.2333339E-6,0E0,0E0,0E0,0E0,1.114E-6,0E0,6.7572255E-6,6.3136977E-6,0E0,0E0,0E0,0E0,0E0,0E0,5.940801E-6,0E0,0E0,0E0,0E0],"parents":[2147483647,0,0,1,1,2,2,3,3,4,4,5,5,6,6,7,7,8,8,9,9,10,10,11,11,12,12,17,17,19,19,24,24,26,26,27,27,34,34],"right_children":[2,4,6,8,10,12,14,16,18,20,22,24,26,-1,-1,-1,-1,28,-1,30,-1,-1,-1,-1,32,-1,34,36,-1,-1,-1,-1,-1,-1,38,-1,-1,-1,-1],"split_conditions":[4.4286557E2,4.2928333E2,5.338775E2,2.5689395E2,5.88152E2,4.851629E2,5.4668024E2,1.4196771E2,3.9210132E2,4.732257E2,3.9067328E2,4.6566702E2,4.9811853E2,8.322976E-4,1.3649681E-3,-4.501968E-4,-3.2754696E-4,3.3802032E2,-3.415158E-4,2.6712592E2,-5.1337025E-5,5.795879E-5,1.591098E-4,4.2603235E-4,4.7349374E2,4.4277738E-4,5.1347266E2,2.1309192E2,2.9160428E-5,-2.7049673E-5,-1.4892785E-4,1.12360176E-4,2.534049E-4,8.55706E-4,5.199166E2,-1.1891127E-4,-3.1224728E-4,2.7673895E-4,6.481518E-4],"split_indices":[0,1,0,1,1,0,0,1,1,1,0,0,0,0,0,0,0,1,0,0,0,0,0,0,0,0,0,0,0,0,0,0,0,0,0,0,0,0,0],"split_type":[0,0,0,0,0,0,0,0,0,0,0,0,0,0,0,0,0,0,0,0,0,0,0,0,0,0,0,0,0,0,0,0,0,0,0,0,0,0,0],"sum_hessian":[4.32E2,3.22E2,1.1E2,1.78E2,1.44E2,9E1,2E1,8.4E1,9.4E1,8.4E1,6E1,4E1,5E1,1E1,1E1,2.8E1,5.6E1,7.6E1,1.8E1,4.6E1,3.8E1,3E1,3E1,1E1,3E1,2E1,3E1,6.4E1,1.2E1,1E1,3.6E1,1E1,2E1,1E1,2E1,3.5E1,2.9E1,1E1,1E1],"tree_param":{"num_deleted":"0","num_feature":"3","num_nodes":"39","size_leaf_vector":"1"}},{"base_weights":[7.168966E-5,-4.1245806E-4,1.3234792E-3,-8.2494353E-4,-1.3746787E-4,1.0054182E-3,2.7901786E-3,-7.076224E-4,-9.10163E-4,-2.867935E-4,5.4171833E-5,6.2605913E-4,1.3650632E-3,6.0549646E-4,9.925149E-4,-8.306932E-4,-2.6362284E-5,-8.0301405E-5,-4.0026745E-4,2.1171571E-4,8.1669205E-5,3.163474E-4,1.5314163E-3,-3.197785E-4,-2.1732252E-4,-1.4226437E-4,2.5277981E-5,-2.4448195E-4,-8.186927E-5,6.2214246E-4,1.1743818E-3,2.0131198E-4,4.712885E-4],"categories":[],"categories_nodes":[],"categories_segments":[],"categories_sizes":[],"default_left":[0,0,0,0,0,0,0,0,0,0,0,0,0,0,0,0,0,0,0,0,0,0,0,0,0,0,0,0,0,0,0,0,0],"id":27,"left_children":[1,3,5,7,9,11,13,15,-1,17,-1,19,21,-1,-1,23,-1,25,27,-1,-1,-1,29,-1,-1,-1,-1,-1,-1,-1,31,-1,-1],"loss_changes":[2.6296597E-4,3.539002E-5,5.3641197E-5,3.0247495E-5,9.027704E-6,1.292528E-5,1.7221901E-6,9.079751E-6,0E0,2.9905177E-6,0E0,1.2453656E-6,1.020031E-6,0E0,0E0,1.7280254E-6,0E0,3.0866324E-6,4.1613957E-6,0E0,0E0,0E0,3.5677876E-6,0E0,0E0,0E0,0E0,0E0,0E0,0E0,3.137744E-6,0E0,0E0],"parents":[2147483647,0,0,1,1,2,2,3,3,4,4,5,5,6,6,7,7,9,9,11,11,12,12,15,15,17,17,18,18,22,22,30,30],"right_children":[2,4,6,8,10,12,14,16,-1,18,-1,20,22,-1,-1,24,-1,26,28,-1,-1,-1,30,-1,-1,-1,-1,-1,-1,-1,32,-1,-1],"split_conditions":[4.1871243E2,2.3807918E2,5.338775E2,4E1,5.3406903E2,4.851629E2,5.4668024E2,2.7041626E2,-9.10163E-4,4.4E1,5.4171833E-5,7.5E1,4.9811853E2,6.0549646E-4,9.925149E-4,1.4196771E2,-2.6362284E-5,3.109769E2,4.2928333E2,2.1171571E-4,8.1669205E-5,3.163474E-4,5.1347266E2,-3.197785E-4,-2.1732252E-4,-1.4226437E-4,2.5277981E-5,-2.4448195E-4,-8.186927E-5,6.2214246E-4,5.199166E2,2.0131198E-4,4.712885E-4],"split_indices":[0,0,0,2,1,0,0,1,0,2,0,2,0,0,0,1,0,1,1,0,0,0,0,0,0,0,0,0,0,0,0,0,0],"split_type":[0,0,0,0,0,0,0,0,0,0,0,0,0,0,0,0,0,0,0,0,0,0,0,0,0,0,0,0,0,0,0,0,0],"sum_hessian":[4.32E2,3.12E2,1.2E2,1.24E2,1.88E2,1E2,2E1,1.19E2,5E0,1.28E2,6E1,5E1,5E1,1E1,1E1,9.9E1,2E1,4.6E1,8.2E1,4E1,1E1,2E1,3E1,2.8E1,7.1E1,1.3E1,3.3E1,1.8E1,6.4E1,1E1,2E1,1E1,1E1],"tree_param":{"num_deleted":"0","num_feature":"3","num_nodes":"33","size_leaf_vector":"1"}},{"base_weights":[5.39729E-5,-2.7693313E-4,1.0163934E-3,-5.892143E-4,-7.9385E-5,7.713234E-4,6.089892E-4,-4.999995E-4,-6.825924E-4,-1.8385432E-4,6.821576E-5,5.306917E-4,3.1554993E-4,-1.894317E-4,-1.7576748E-4,-1.1338401E-4,-3.0935934E-4,2.5229022E-4,1.3035099E-4,-8.682105E-5,3.2641674E-5,-2.2016253E-4,-1.2874603E-6,-1.7148769E-4,-6.294966E-5,2.340837E-5,-8.95867E-5],"categories":[],"categories_nodes":[],"categories_segments":[],"categories_sizes":[],"default_left":[0,0,0,0,0,0,0,0,0,0,0,0,0,0,0,0,0,0,0,0,0,0,0,0,0,0,0],"id":28,"left_children":[1,3,5,7,9,11,-1,13,-1,15,-1,17,-1,-1,19,21,23,-1,-1,-1,-1,25,-1,-1,-1,-1,-1],"loss_changes":[1.3817933E-4,1.9879279E-5,2.6006164E-5,1.766541E-5,6.419388E-6,5.5842575E-6,0E0,5.0030376E-6,0E0,1.2827359E-6,0E0,1.1566872E-6,0E0,0E0,1.1956473E-6,1.1289823E-6,1.2634928E-6,0E0,0E0,0E0,0E0,1.169703E-6,0E0,0E0,0E0,0E0,0E0],"parents":[2147483647,0,0,1,1,2,2,3,3,4,4,5,5,7,7,9,9,11,11,14,14,15,15,16,16,21,21],"right_children":[2,4,6,8,10,12,-1,14,-1,16,-1,18,-1,-1,20,22,24,-1,-1,-1,-1,26,-1,-1,-1,-1,-1],"split_conditions":[4.4286557E2,2.3807918E2,5.338775E2,4E1,6.151934E2,4.9162607E2,6.089892E-4,2.5689395E2,-6.825924E-4,3.5034967E2,6.821576E-5,4.6566702E2,3.1554993E-4,-1.894317E-4,2.1010756E2,2.8362726E2,3.756458E2,2.5229022E-4,1.3035099E-4,-8.682105E-5,3.2641674E-5,2.4394832E2,-1.2874603E-6,-1.7148769E-4,-6.294966E-5,2.340837E-5,-8.95867E-5],"split_indices":[0,0,0,2,1,0,0,1,0,0,0,0,0,0,0,0,0,0,0,0,0,0,0,0,0,0,0],"split_type":[0,0,0,0,0,0,0,0,0,0,0,0,0,0,0,0,0,0,0,0,0,0,0,0,0,0,0],"sum_hessian":[4.32E2,3.22E2,1.1E2,1.24E2,1.98E2,9E1,2E1,1.19E2,5E0,1.48E2,5E1,5E1,4E1,8.4E1,3.5E1,9.6E1,5.2E1,1E1,4E1,2.5E1,1E1,4.8E1,4.8E1,1.3E1,3.9E1,1E1,3.8E1],"tree_param":{"num_deleted":"0","num_feature":"3","num_nodes":"27","size_leaf_vector":"1"}},{"base_weights":[3.825159E-5,-2.2722156E-4,6.519929E-4,-4.1979217E-4,-9.147548E-5,5.373679E-4,5.5607886E-4,-3.5196941E-4,-5.118847E-4,-3.9227696E-5,3.0086889E-5,1.1062622E-4,8.573765E-4,-1.3324963E-4,-3.7352245E-5,3.6673117E-4,7.001815E-4,6.0341576E-5,2.784729E-4],"categories":[],"categories_nodes":[],"categories_segments":[],"categories_sizes":[],"default_left":[0,0,0,0,0,0,0,0,0,0,0,0,0,0,0,0,0,0,0],"id":29,"left_children":[1,3,5,7,9,11,-1,13,-1,-1,-1,-1,15,-1,-1,-1,17,-1,-1],"loss_changes":[7.0697635E-5,7.882234E-6,1.704706E-5,1.0306107E-5,1.3615577E-6,6.21274E-6,0E0,2.4612282E-6,0E0,0E0,0E0,0E0,1.4968846E-6,0E0,0E0,0E0,3.3414826E-6,0E0,0E0],"parents":[2147483647,0,0,1,1,2,2,3,3,4,4,5,5,7,7,12,12,16,16],"right_children":[2,4,6,8,10,12,-1,14,-1,-1,-1,-1,16,-1,-1,-1,18,-1,-1],"split_conditions":[4.091457E2,2.3807918E2,5.4668024E2,4E1,6.151934E2,4.9811853E2,5.5607886E-4,2.5689395E2,-5.118847E-4,-3.9227696E-5,3.0086889E-5,1.1062622E-4,5.1347266E2,-1.3324963E-4,-3.7352245E-5,3.6673117E-4,5.199166E2,6.0341576E-5,2.784729E-4],"split_indices":[0,0,0,2,1,0,0,1,0,0,0,0,0,0,0,0,0,0,0],"split_type":[0,0,0,0,0,0,0,0,0,0,0,0,0,0,0,0,0,0,0],"sum_hessian":[4.32E2,3.02E2,1.3E2,1.24E2,1.78E2,1.2E2,1E1,1.19E2,5E0,1.48E2,3E1,8E1,4E1,8.4E1,3.5E1,1E1,3E1,1E1,2E1],"tree_param":{"num_deleted":"0","num_feature":"3","num_nodes":"19","size_leaf_vector":"1"}},{"base_weights":[2.8245719E-5,-1.0208125E-4,6.9416745E-4,-2.2378922E-4,9.566245E-5,1.695039E-4,4.0418454E-4,-1.1106291E-4,-5.192418E-5,-3.3313947E-6,5.167502E-5],"categories":[],"categories_nodes":[],"categories_segments":[],"categories_sizes":[],"default_left":[0,0,0,0,0,0,0,0,0,0,0],"id":30,"left_children":[1,3,5,7,9,-1,-1,-1,-1,-1,-1],"loss_changes":[3.7649876E-5,8.757723E-6,5.2278046E-6,1.6064987E-6,1.1385209E-6,0E0,0E0,0E0,0E0,0E0,0E0],"parents":[2147483647,0,0,1,1,2,2,3,3,4,4],"right_children":[2,4,6,8,10,-1,-1,-1,-1,-1,-1],"split_conditions":[4.851629E2,4.732257E2,5.4668024E2,1.9605066E2,6.6927637E2,1.695039E-4,4.0418454E-4,-1.1106291E-4,-5.192418E-5,-3.3313947E-6,5.167502E-5],"split_indices":[0,1,0,1,1,0,0,0,0,0,0],"split_type":[0,0,0,0,0,0,0,0,0,0,0],"sum_hessian":[4.32E2,3.62E2,7E1,2.24E2,1.38E2,6E1,1E1,5.6E1,1.68E2,5.8E1,8E1],"tree_param":{"num_deleted":"0","num_feature":"3","num_nodes":"11","size_leaf_vector":"1"}},{"base_weights":[2.0788118E-5,-1.02221784E-4,3.7854858E-4,-2.2128296E-4,-8.07628E-6,3.093304E-4,2.939051E-4,-1.6869306E-4,-3.7086013E-4,6.256729E-5,4.5171598E-4,-6.002036E-5,4.8117206E-5,2.2055888E-4,3.3655475E-4,-2.60093E-6,1.5040807E-4],"categories":[],"categories_nodes":[],"categories_segments":[],"categories_sizes":[],"default_left":[0,0,0,0,0,0,0,0,0,0,0,0,0,0,0,0,0],"id":31,"left_children":[1,3,5,7,-1,9,-1,11,-1,-1,13,-1,-1,-1,15,-1,-1],"loss_changes":[1.9094194E-5,2.8898694E-6,4.315605E-6,6.4632623E-6,0E0,1.354998E-6,0E0,1.2710816E-6,0E0,0E0,1.0910499E-6,0E0,0E0,0E0,1.7680879E-6,0E0,0E0],"parents":[2147483647,0,0,1,1,2,2,3,3,5,5,7,7,10,10,14,14],"right_children":[2,4,6,8,-1,10,-1,12,-1,-1,14,-1,-1,-1,16,-1,-1],"split_conditions":[4.4286557E2,2.3807918E2,5.4668024E2,4E1,-8.07628E-6,4.9811853E2,2.939051E-4,3.3801837E2,-3.7086013E-4,6.256729E-5,5.1347266E2,-6.002036E-5,4.8117206E-5,2.2055888E-4,5.199166E2,-2.60093E-6,1.5040807E-4],"split_indices":[0,0,0,2,0,0,0,1,0,0,0,0,0,0,0,0,0],"split_type":[0,0,0,0,0,0,0,0,0,0,0,0,0,0,0,0,0],"sum_hessian":[4.32E2,3.22E2,1.1E2,1.24E2,1.98E2,1E2,1E1,1.19E2,5E0,6E1,4E1,1.09E2,1E1,1E1,3E1,1E1,2E1],"tree_param":{"num_deleted":"0","num_feature":"3","num_nodes":"17","size_leaf_vector":"1"}},{"base_weights":[1.514426E-5,-5.260709E-5,3.6132167E-4,-3.450881E-5,1.8454708E-5,8.761297E-5,2.1379645E-4],"categories":[],"categories_nodes":[],"categories_segments":[],"categories_sizes":[],"default_left":[0,0,0,0,0,0,0],"id":32,"left_children":[1,3,5,-1,-1,-1,-1],"loss_changes":[1.0174585E-5,2.5930162E-6,1.5200012E-6,0E0,0E0,0E0,0E0],"parents":[2147483647,0,0,1,1,2,2],"right_children":[2,4,6,-1,-1,-1,-1],"split_conditions":[4.851629E2,4.8674646E2,5.4668024E2,-3.450881E-5,1.8454708E-5,8.761297E-5,2.1379645E-4],"split_indices":[0,1,0,0,0,0,0],"split_type":[0,0,0,0,0,0,0],"sum_hessian":[4.32E2,3.62E2,7E1,2.34E2,1.28E2,6E1,1E1],"tree_param":{"num_deleted":"0","num_feature":"3","num_nodes":"7","size_leaf_vector":"1"}},{"base_weights":[1.1200717E-5,-6.1672516E-5,1.7966933E-4,-7.416956E-5,-1.2564054E-5,3.9538823E-5,1.272474E-4],"categories":[],"categories_nodes":[],"categories_segments":[],"categories_sizes":[],"default_left":[0,0,0,0,0,0,0],"id":33,"left_children":[1,3,5,-1,-1,-1,-1],"loss_changes":[5.3269578E-6,1.1024599E-6,1.4773832E-6,0E0,0E0,0E0,0E0],"parents":[2147483647,0,0,1,1,2,2],"right_children":[2,4,6,-1,-1,-1,-1],"split_conditions":[4.091457E2,1.4196771E2,5.338775E2,-7.416956E-5,-1.2564054E-5,3.9538823E-5,1.272474E-4],"split_indices":[0,1,0,0,0,0,0],"split_type":[0,0,0,0,0,0,0],"sum_hessian":[4.32E2,3.02E2,1.3E2,2.8E1,2.74E2,1.1E2,2E1],"tree_param":{"num_deleted":"0","num_feature":"3","num_nodes":"7","size_leaf_vector":"1"}},{"base_weights":[7.837529E-6,-8.513317E-6,5.78652E-5],"categories":[],"categories_nodes":[],"categories_segments":[],"categories_sizes":[],"default_left":[0,0,0],"id":34,"left_children":[1,-1,-1],"loss_changes":[2.9072248E-6,0E0,0E0],"parents":[2147483647,0,0],"right_children":[2,-1,-1],"split_conditions":[4.851629E2,-8.513317E-6,5.78652E-5],"split_indices":[0,0,0],"split_type":[0,0,0],"sum_hessian":[4.32E2,3.62E2,7E1],"tree_param":{"num_deleted":"0","num_feature":"3","num_nodes":"3","size_leaf_vector":"1"}},{"base_weights":[5.6669837E-6,-1.3613172E-5,2.6900596E-5],"categories":[],"categories_nodes":[],"categories_segments":[],"categories_sizes":[],"default_left":[0,0,0],"id":35,"left_children":[1,-1,-1],"loss_changes":[1.8606861E-6,0E0,0E0],"parents":[2147483647,0,0],"right_children":[2,-1,-1],"split_conditions":[3.7636395E2,-1.3613172E-5,2.6900596E-5],"split_indices":[0,0,0],"split_type":[0,0,0],"sum_hessian":[4.32E2,2.69E2,1.63E2],"tree_param":{"num_deleted":"0","num_feature":"3","num_nodes":"3","size_leaf_vector":"1"}},{"base_weights":[4.087805E-6,-4.529829E-6,4.4430002E-5],"categories":[],"categories_nodes":[],"categories_segments":[],"categories_sizes":[],"default_left":[0,0,0],"id":36,"left_children":[1,-1,-1],"loss_changes":[1.1987E-6,0E0,0E0],"parents":[2147483647,0,0],"right_children":[2,-1,-1],"split_conditions":[4.9811853E2,-4.529829E-6,4.4430002E-5],"split_indices":[0,0,0],"split_type":[0,0,0],"sum_hessian":[4.32E2,3.82E2,5E1],"tree_param":{"num_deleted":"0","num_feature":"3","num_nodes":"3","size_leaf_vector":"1"}},{"base_weights":[2.874238E-6],"categories":[],"categories_nodes":[],"categories_segments":[],"categories_sizes":[],"default_left":[0],"id":37,"left_children":[-1],"loss_changes":[0E0],"parents":[2147483647],"right_children":[-1],"split_conditions":[8.622714E-7],"split_indices":[0],"split_type":[0],"sum_hessian":[4.32E2],"tree_param":{"num_deleted":"0","num_feature":"3","num_nodes":"1","size_leaf_vector":"1"}},{"base_weights":[2.1947724E-6],"categories":[],"categories_nodes":[],"categories_segments":[],"categories_sizes":[],"default_left":[0],"id":38,"left_children":[-1],"loss_changes":[0E0],"parents":[2147483647],"right_children":[-1],"split_conditions":[6.5843176E-7],"split_indices":[0],"split_type":[0],"sum_hessian":[4.32E2],"tree_param":{"num_deleted":"0","num_feature":"3","num_nodes":"1","size_leaf_vector":"1"}},{"base_weights":[1.7080241E-6],"categories":[],"categories_nodes":[],"categories_segments":[],"categories_sizes":[],"default_left":[0],"id":39,"left_children":[-1],"loss_changes":[0E0],"parents":[2147483647],"right_children":[-1],"split_conditions":[5.1240727E-7],"split_indices":[0],"split_type":[0],"sum_hessian":[4.32E2],"tree_param":{"num_deleted":"0","num_feature":"3","num_nodes":"1","size_leaf_vector":"1"}},{"base_weights":[1.2675279E-6],"categories":[],"categories_nodes":[],"categories_segments":[],"categories_sizes":[],"default_left":[0],"id":40,"left_children":[-1],"loss_changes":[0E0],"parents":[2147483647],"right_children":[-1],"split_conditions":[3.8025837E-7],"split_indices":[0],"split_type":[0],"sum_hessian":[4.32E2],"tree_param":{"num_deleted":"0","num_feature":"3","num_nodes":"1","size_leaf_vector":"1"}},{"base_weights":[1.0285587E-6],"categories":[],"categories_nodes":[],"categories_segments":[],"categories_sizes":[],"default_left":[0],"id":41,"left_children":[-1],"loss_changes":[0E0],"parents":[2147483647],"right_children":[-1],"split_conditions":[3.0856762E-7],"split_indices":[0],"split_type":[0],"sum_hessian":[4.32E2],"tree_param":{"num_deleted":"0","num_feature":"3","num_nodes":"1","size_leaf_vector":"1"}},{"base_weights":[8.204242E-7],"categories":[],"categories_nodes":[],"categories_segments":[],"categories_sizes":[],"default_left":[0],"id":42,"left_children":[-1],"loss_changes":[0E0],"parents":[2147483647],"right_children":[-1],"split_conditions":[2.4612726E-7],"split_indices":[0],"split_type":[0],"sum_hessian":[4.32E2],"tree_param":{"num_deleted":"0","num_feature":"3","num_nodes":"1","size_leaf_vector":"1"}},{"base_weights":[6.1999845E-7],"categories":[],"categories_nodes":[],"categories_segments":[],"categories_sizes":[],"default_left":[0],"id":43,"left_children":[-1],"loss_changes":[0E0],"parents":[2147483647],"right_children":[-1],"split_conditions":[1.8599954E-7],"split_indices":[0],"split_type":[0],"sum_hessian":[4.32E2],"tree_param":{"num_deleted":"0","num_feature":"3","num_nodes":"1","size_leaf_vector":"1"}},{"base_weights":[5.737463E-7],"categories":[],"categories_nodes":[],"categories_segments":[],"categories_sizes":[],"default_left":[0],"id":44,"left_children":[-1],"loss_changes":[0E0],"parents":[2147483647],"right_children":[-1],"split_conditions":[1.721239E-7],"split_indices":[0],"split_type":[0],"sum_hessian":[4.32E2],"tree_param":{"num_deleted":"0","num_feature":"3","num_nodes":"1","size_leaf_vector":"1"}},{"base_weights":[5.352029E-7],"categories":[],"categories_nodes":[],"categories_segments":[],"categories_sizes":[],"default_left":[0],"id":45,"left_children":[-1],"loss_changes":[0E0],"parents":[2147483647],"right_children":[-1],"split_conditions":[1.6056087E-7],"split_indices":[0],"split_type":[0],"sum_hessian":[4.32E2],"tree_param":{"num_deleted":"0","num_feature":"3","num_nodes":"1","size_leaf_vector":"1"}},{"base_weights":[4.966595E-7],"categories":[],"categories_nodes":[],"categories_segments":[],"categories_sizes":[],"default_left":[0],"id":46,"left_children":[-1],"loss_changes":[0E0],"parents":[2147483647],"right_children":[-1],"split_conditions":[1.4899786E-7],"split_indices":[0],"split_type":[0],"sum_hessian":[4.32E2],"tree_param":{"num_deleted":"0","num_feature":"3","num_nodes":"1","size_leaf_vector":"1"}},{"base_weights":[4.5811606E-7],"categories":[],"categories_nodes":[],"categories_segments":[],"categories_sizes":[],"default_left":[0],"id":47,"left_children":[-1],"loss_changes":[0E0],"parents":[2147483647],"right_children":[-1],"split_conditions":[1.3743482E-7],"split_indices":[0],"split_type":[0],"sum_hessian":[4.32E2],"tree_param":{"num_deleted":"0","num_feature":"3","num_nodes":"1","size_leaf_vector":"1"}},{"base_weights":[4.1957264E-7],"categories":[],"categories_nodes":[],"categories_segments":[],"categories_sizes":[],"default_left":[0],"id":48,"left_children":[-1],"loss_changes":[0E0],"parents":[2147483647],"right_children":[-1],"split_conditions":[1.258718E-7],"split_indices":[0],"split_type":[0],"sum_hessian":[4.32E2],"tree_param":{"num_deleted":"0","num_feature":"3","num_nodes":"1","size_leaf_vector":"1"}},{"base_weights":[3.8102922E-7],"categories":[],"categories_nodes":[],"categories_segments":[],"categories_sizes":[],"default_left":[0],"id":49,"left_children":[-1],"loss_changes":[0E0],"parents":[2147483647],"right_children":[-1],"split_conditions":[1.1430877E-7],"split_indices":[0],"split_type":[0],"sum_hessian":[4.32E2],"tree_param":{"num_deleted":"0","num_feature":"3","num_nodes":"1","size_leaf_vector":"1"}},{"base_weights":[3.7332055E-7],"categories":[],"categories_nodes":[],"categories_segments":[],"categories_sizes":[],"default_left":[0],"id":50,"left_children":[-1],"loss_changes":[0E0],"parents":[2147483647],"right_children":[-1],"split_conditions":[1.11996165E-7],"split_indices":[0],"split_type":[0],"sum_hessian":[4.32E2],"tree_param":{"num_deleted":"0","num_feature":"3","num_nodes":"1","size_leaf_vector":"1"}},{"base_weights":[3.6561187E-7],"categories":[],"categories_nodes":[],"categories_segments":[],"categories_sizes":[],"default_left":[0],"id":51,"left_children":[-1],"loss_changes":[0E0],"parents":[2147483647],"right_children":[-1],"split_conditions":[1.0968356E-7],"split_indices":[0],"split_type":[0],"sum_hessian":[4.32E2],"tree_param":{"num_deleted":"0","num_feature":"3","num_nodes":"1","size_leaf_vector":"1"}},{"base_weights":[3.579032E-7],"categories":[],"categories_nodes":[],"categories_segments":[],"categories_sizes":[],"default_left":[0],"id":52,"left_children":[-1],"loss_changes":[0E0],"parents":[2147483647],"right_children":[-1],"split_conditions":[1.0737096E-7],"split_indices":[0],"split_type":[0],"sum_hessian":[4.32E2],"tree_param":{"num_deleted":"0","num_feature":"3","num_nodes":"1","size_leaf_vector":"1"}},{"base_weights":[3.5019448E-7],"categories":[],"categories_nodes":[],"categories_segments":[],"categories_sizes":[],"default_left":[0],"id":53,"left_children":[-1],"loss_changes":[0E0],"parents":[2147483647],"right_children":[-1],"split_conditions":[1.0505835E-7],"split_indices":[0],"split_type":[0],"sum_hessian":[4.32E2],"tree_param":{"num_deleted":"0","num_feature":"3","num_nodes":"1","size_leaf_vector":"1"}},{"base_weights":[3.424858E-7],"categories":[],"categories_nodes":[],"categories_segments":[],"categories_sizes":[],"default_left":[0],"id":54,"left_children":[-1],"loss_changes":[0E0],"parents":[2147483647],"right_children":[-1],"split_conditions":[1.02745744E-7],"split_indices":[0],"split_type":[0],"sum_hessian":[4.32E2],"tree_param":{"num_deleted":"0","num_feature":"3","num_nodes":"1","size_leaf_vector":"1"}},{"base_weights":[3.3477713E-7,-7.515335E-5,9.26129E-6,-1.0455848E-5,-2.605915E-4],"categories":[],"categories_nodes":[],"categories_segments":[],"categories_sizes":[],"default_left":[0,0,0,0,0],"id":55,"left_children":[1,3,-1,-1,-1],"loss_changes":[1.0004368E-6,3.9669585E-6,0E0,0E0,0E0],"parents":[2147483647,0,0,1,1],"right_children":[2,4,-1,-1,-1],"split_conditions":[2.3807918E2,4E1,9.26129E-6,-1.0455848E-5,-2.605915E-4],"split_indices":[0,2,0,0,0],"split_type":[0,0,0,0,0],"sum_hessian":[4.32E2,1.24E2,3.08E2,1.19E2,5E0],"tree_param":{"num_deleted":"0","num_feature":"3","num_nodes":"5","size_leaf_vector":"1"}},{"base_weights":[-4.4930616E-7],"categories":[],"categories_nodes":[],"categories_segments":[],"categories_sizes":[],"default_left":[0],"id":56,"left_children":[-1],"loss_changes":[0E0],"parents":[2147483647],"right_children":[-1],"split_conditions":[-1.3479185E-7],"split_indices":[0],"split_type":[0],"sum_hessian":[4.32E2],"tree_param":{"num_deleted":"0","num_feature":"3","num_nodes":"1","size_leaf_vector":"1"}},{"base_weights":[-4.1076274E-7],"categories":[],"categories_nodes":[],"categories_segments":[],"categories_sizes":[],"default_left":[0],"id":57,"left_children":[-1],"loss_changes":[0E0],"parents":[2147483647],"right_children":[-1],"split_conditions":[-1.2322883E-7],"split_indices":[0],"split_type":[0],"sum_hessian":[4.32E2],"tree_param":{"num_deleted":"0","num_feature":"3","num_nodes":"1","size_leaf_vector":"1"}},{"base_weights":[-3.7221932E-7],"categories":[],"categories_nodes":[],"categories_segments":[],"categories_sizes":[],"default_left":[0],"id":58,"left_children":[-1],"loss_changes":[0E0],"parents":[2147483647],"right_children":[-1],"split_conditions":[-1.116658E-7],"split_indices":[0],"split_type":[0],"sum_hessian":[4.32E2],"tree_param":{"num_deleted":"0","num_feature":"3","num_nodes":"1","size_leaf_vector":"1"}},{"base_weights":[-3.645106E-7],"categories":[],"categories_nodes":[],"categories_segments":[],"categories_sizes":[],"default_left":[0],"id":59,"left_children":[-1],"loss_changes":[0E0],"parents":[2147483647],"right_children":[-1],"split_conditions":[-1.0935319E-7],"split_indices":[0],"split_type":[0],"sum_hessian":[4.32E2],"tree_param":{"num_deleted":"0","num_feature":"3","num_nodes":"1","size_leaf_vector":"1"}},{"base_weights":[-3.5680193E-7],"categories":[],"categories_nodes":[],"categories_segments":[],"categories_sizes":[],"default_left":[0],"id":60,"left_children":[-1],"loss_changes":[0E0],"parents":[2147483647],"right_children":[-1],"split_conditions":[-1.07040584E-7],"split_indices":[0],"split_type":[0],"sum_hessian":[4.32E2],"tree_param":{"num_deleted":"0","num_feature":"3","num_nodes":"1","size_leaf_vector":"1"}},{"base_weights":[-3.4909326E-7],"categories":[],"categories_nodes":[],"categories_segments":[],"categories_sizes":[],"default_left":[0],"id":61,"left_children":[-1],"loss_changes":[0E0],"parents":[2147483647],"right_children":[-1],"split_conditions":[-1.0472798E-7],"split_indices":[0],"split_type":[0],"sum_hessian":[4.32E2],"tree_param":{"num_deleted":"0","num_feature":"3","num_nodes":"1","size_leaf_vector":"1"}},{"base_weights":[-3.4138458E-7],"categories":[],"categories_nodes":[],"categories_segments":[],"categories_sizes":[],"default_left":[0],"id":62,"left_children":[-1],"loss_changes":[0E0],"parents":[2147483647],"right_children":[-1],"split_conditions":[-1.0241538E-7],"split_indices":[0],"split_type":[0],"sum_hessian":[4.32E2],"tree_param":{"num_deleted":"0","num_feature":"3","num_nodes":"1","size_leaf_vector":"1"}},{"base_weights":[-3.336759E-7],"categories":[],"categories_nodes":[],"categories_segments":[],"categories_sizes":[],"default_left":[0],"id":63,"left_children":[-1],"loss_changes":[0E0],"parents":[2147483647],"right_children":[-1],"split_conditions":[-1.00102774E-7],"split_indices":[0],"split_type":[0],"sum_hessian":[4.32E2],"tree_param":{"num_deleted":"0","num_feature":"3","num_nodes":"1","size_leaf_vector":"1"}},{"base_weights":[-3.259672E-7],"categories":[],"categories_nodes":[],"categories_segments":[],"categories_sizes":[],"default_left":[0],"id":64,"left_children":[-1],"loss_changes":[0E0],"parents":[2147483647],"right_children":[-1],"split_conditions":[-9.779016E-8],"split_indices":[0],"split_type":[0],"sum_hessian":[4.32E2],"tree_param":{"num_deleted":"0","num_feature":"3","num_nodes":"1","size_leaf_vector":"1"}},{"base_weights":[-3.1825851E-7],"categories":[],"categories_nodes":[],"categories_segments":[],"categories_sizes":[],"default_left":[0],"id":65,"left_children":[-1],"loss_changes":[0E0],"parents":[2147483647],"right_children":[-1],"split_conditions":[-9.547756E-8],"split_indices":[0],"split_type":[0],"sum_hessian":[4.32E2],"tree_param":{"num_deleted":"0","num_feature":"3","num_nodes":"1","size_leaf_vector":"1"}},{"base_weights":[-3.1054984E-7],"categories":[],"categories_nodes":[],"categories_segments":[],"categories_sizes":[],"default_left":[0],"id":66,"left_children":[-1],"loss_changes":[0E0],"parents":[2147483647],"right_children":[-1],"split_conditions":[-9.316496E-8],"split_indices":[0],"split_type":[0],"sum_hessian":[4.32E2],"tree_param":{"num_deleted":"0","num_feature":"3","num_nodes":"1","size_leaf_vector":"1"}},{"base_weights":[-3.0284116E-7],"categories":[],"categories_nodes":[],"categories_segments":[],"categories_sizes":[],"default_left":[0],"id":67,"left_children":[-1],"loss_changes":[0E0],"parents":[2147483647],"right_children":[-1],"split_conditions":[-9.085235E-8],"split_indices":[0],"split_type":[0],"sum_hessian":[4.32E2],"tree_param":{"num_deleted":"0","num_feature":"3","num_nodes":"1","size_leaf_vector":"1"}},{"base_weights":[-2.9513248E-7],"categories":[],"categories_nodes":[],"categories_segments":[],"categories_sizes":[],"default_left":[0],"id":68,"left_children":[-1],"loss_changes":[0E0],"parents":[2147483647],"right_children":[-1],"split_conditions":[-8.853975E-8],"split_indices":[0],"split_type":[0],"sum_hessian":[4.32E2],"tree_param":{"num_deleted":"0","num_feature":"3","num_nodes":"1","size_leaf_vector":"1"}},{"base_weights":[-2.8742377E-7],"categories":[],"categories_nodes":[],"categories_segments":[],"categories_sizes":[],"default_left":[0],"id":69,"left_children":[-1],"loss_changes":[0E0],"parents":[2147483647],"right_children":[-1],"split_conditions":[-8.622713E-8],"split_indices":[0],"split_type":[0],"sum_hessian":[4.32E2],"tree_param":{"num_deleted":"0","num_feature":"3","num_nodes":"1","size_leaf_vector":"1"}},{"base_weights":[-2.797151E-7],"categories":[],"categories_nodes":[],"categories_segments":[],"categories_sizes":[],"default_left":[0],"id":70,"left_children":[-1],"loss_changes":[0E0],"parents":[2147483647],"right_children":[-1],"split_conditions":[-8.391453E-8],"split_indices":[0],"split_type":[0],"sum_hessian":[4.32E2],"tree_param":{"num_deleted":"0","num_feature":"3","num_nodes":"1","size_leaf_vector":"1"}},{"base_weights":[-2.7200642E-7],"categories":[],"categories_nodes":[],"categories_segments":[],"categories_sizes":[],"default_left":[0],"id":71,"left_children":[-1],"loss_changes":[0E0],"parents":[2147483647],"right_children":[-1],"split_conditions":[-8.1601925E-8],"split_indices":[0],"split_type":[0],"sum_hessian":[4.32E2],"tree_param":{"num_deleted":"0","num_feature":"3","num_nodes":"1","size_leaf_vector":"1"}},{"base_weights":[-2.6429774E-7],"categories":[],"categories_nodes":[],"categories_segments":[],"categories_sizes":[],"default_left":[0],"id":72,"left_children":[-1],"loss_changes":[0E0],"parents":[2147483647],"right_children":[-1],"split_conditions":[-7.928932E-8],"split_indices":[0],"split_type":[0],"sum_hessian":[4.32E2],"tree_param":{"num_deleted":"0","num_feature":"3","num_nodes":"1","size_leaf_vector":"1"}},{"base_weights":[-2.5658906E-7],"categories":[],"categories_nodes":[],"categories_segments":[],"categories_sizes":[],"default_left":[0],"id":73,"left_children":[-1],"loss_changes":[0E0],"parents":[2147483647],"right_children":[-1],"split_conditions":[-7.697672E-8],"split_indices":[0],"split_type":[0],"sum_hessian":[4.32E2],"tree_param":{"num_deleted":"0","num_feature":"3","num_nodes":"1","size_leaf_vector":"1"}},{"base_weights":[-2.4888035E-7],"categories":[],"categories_nodes":[],"categories_segments":[],"categories_sizes":[],"default_left":[0],"id":74,"left_children":[-1],"loss_changes":[0E0],"parents":[2147483647],"right_children":[-1],"split_conditions":[-7.466411E-8],"split_indices":[0],"split_type":[0],"sum_hessian":[4.32E2],"tree_param":{"num_deleted":"0","num_feature":"3","num_nodes":"1","size_leaf_vector":"1"}},{"base_weights":[-2.4117168E-7],"categories":[],"categories_nodes":[],"categories_segments":[],"categories_sizes":[],"default_left":[0],"id":75,"left_children":[-1],"loss_changes":[0E0],"parents":[2147483647],"right_children":[-1],"split_conditions":[-7.2351504E-8],"split_indices":[0],"split_type":[0],"sum_hessian":[4.32E2],"tree_param":{"num_deleted":"0","num_feature":"3","num_nodes":"1","size_leaf_vector":"1"}},{"base_weights":[-2.33463E-7],"categories":[],"categories_nodes":[],"categories_segments":[],"categories_sizes":[],"default_left":[0],"id":76,"left_children":[-1],"loss_changes":[0E0],"parents":[2147483647],"right_children":[-1],"split_conditions":[-7.00389E-8],"split_indices":[0],"split_type":[0],"sum_hessian":[4.32E2],"tree_param":{"num_deleted":"0","num_feature":"3","num_nodes":"1","size_leaf_vector":"1"}},{"base_weights":[-2.257543E-7],"categories":[],"categories_nodes":[],"categories_segments":[],"categories_sizes":[],"default_left":[0],"id":77,"left_children":[-1],"loss_changes":[0E0],"parents":[2147483647],"right_children":[-1],"split_conditions":[-6.77263E-8],"split_indices":[0],"split_type":[0],"sum_hessian":[4.32E2],"tree_param":{"num_deleted":"0","num_feature":"3","num_nodes":"1","size_leaf_vector":"1"}},{"base_weights":[-2.1804563E-7],"categories":[],"categories_nodes":[],"categories_segments":[],"categories_sizes":[],"default_left":[0],"id":78,"left_children":[-1],"loss_changes":[0E0],"parents":[2147483647],"right_children":[-1],"split_conditions":[-6.5413694E-8],"split_indices":[0],"split_type":[0],"sum_hessian":[4.32E2],"tree_param":{"num_deleted":"0","num_feature":"3","num_nodes":"1","size_leaf_vector":"1"}},{"base_weights":[-2.1033695E-7],"categories":[],"categories_nodes":[],"categories_segments":[],"categories_sizes":[],"default_left":[0],"id":79,"left_children":[-1],"loss_changes":[0E0],"parents":[2147483647],"right_children":[-1],"split_conditions":[-6.310109E-8],"split_indices":[0],"split_type":[0],"sum_hessian":[4.32E2],"tree_param":{"num_deleted":"0","num_feature":"3","num_nodes":"1","size_leaf_vector":"1"}},{"base_weights":[-2.0262826E-7],"categories":[],"categories_nodes":[],"categories_segments":[],"categories_sizes":[],"default_left":[0],"id":80,"left_children":[-1],"loss_changes":[0E0],"parents":[2147483647],"right_children":[-1],"split_conditions":[-6.078848E-8],"split_indices":[0],"split_type":[0],"sum_hessian":[4.32E2],"tree_param":{"num_deleted":"0","num_feature":"3","num_nodes":"1","size_leaf_vector":"1"}},{"base_weights":[-1.9491958E-7],"categories":[],"categories_nodes":[],"categories_segments":[],"categories_sizes":[],"default_left":[0],"id":81,"left_children":[-1],"loss_changes":[0E0],"parents":[2147483647],"right_children":[-1],"split_conditions":[-5.8475877E-8],"split_indices":[0],"split_type":[0],"sum_hessian":[4.32E2],"tree_param":{"num_deleted":"0","num_feature":"3","num_nodes":"1","size_leaf_vector":"1"}},{"base_weights":[-1.9491958E-7],"categories":[],"categories_nodes":[],"categories_segments":[],"categories_sizes":[],"default_left":[0],"id":82,"left_children":[-1],"loss_changes":[0E0],"parents":[2147483647],"right_children":[-1],"split_conditions":[-5.8475877E-8],"split_indices":[0],"split_type":[0],"sum_hessian":[4.32E2],"tree_param":{"num_deleted":"0","num_feature":"3","num_nodes":"1","size_leaf_vector":"1"}},{"base_weights":[-1.9491958E-7],"categories":[],"categories_nodes":[],"categories_segments":[],"categories_sizes":[],"default_left":[0],"id":83,"left_children":[-1],"loss_changes":[0E0],"parents":[2147483647],"right_children":[-1],"split_conditions":[-5.8475877E-8],"split_indices":[0],"split_type":[0],"sum_hessian":[4.32E2],"tree_param":{"num_deleted":"0","num_feature":"3","num_nodes":"1","size_leaf_vector":"1"}},{"base_weights":[-1.9491958E-7],"categories":[],"categories_nodes":[],"categories_segments":[],"categories_sizes":[],"default_left":[0],"id":84,"left_children":[-1],"loss_changes":[0E0],"parents":[2147483647],"right_children":[-1],"split_conditions":[-5.8475877E-8],"split_indices":[0],"split_type":[0],"sum_hessian":[4.32E2],"tree_param":{"num_deleted":"0","num_feature":"3","num_nodes":"1","size_leaf_vector":"1"}},{"base_weights":[-1.9491958E-7],"categories":[],"categories_nodes":[],"categories_segments":[],"categories_sizes":[],"default_left":[0],"id":85,"left_children":[-1],"loss_changes":[0E0],"parents":[2147483647],"right_children":[-1],"split_conditions":[-5.8475877E-8],"split_indices":[0],"split_type":[0],"sum_hessian":[4.32E2],"tree_param":{"num_deleted":"0","num_feature":"3","num_nodes":"1","size_leaf_vector":"1"}},{"base_weights":[-1.9491958E-7],"categories":[],"categories_nodes":[],"categories_segments":[],"categories_sizes":[],"default_left":[0],"id":86,"left_children":[-1],"loss_changes":[0E0],"parents":[2147483647],"right_children":[-1],"split_conditions":[-5.8475877E-8],"split_indices":[0],"split_type":[0],"sum_hessian":[4.32E2],"tree_param":{"num_deleted":"0","num_feature":"3","num_nodes":"1","size_leaf_vector":"1"}},{"base_weights":[-1.9491958E-7],"categories":[],"categories_nodes":[],"categories_segments":[],"categories_sizes":[],"default_left":[0],"id":87,"left_children":[-1],"loss_changes":[0E0],"parents":[2147483647],"right_children":[-1],"split_conditions":[-5.8475877E-8],"split_indices":[0],"split_type":[0],"sum_hessian":[4.32E2],"tree_param":{"num_deleted":"0","num_feature":"3","num_nodes":"1","size_leaf_vector":"1"}},{"base_weights":[-1.9491958E-7],"categories":[],"categories_nodes":[],"categories_segments":[],"categories_sizes":[],"default_left":[0],"id":88,"left_children":[-1],"loss_changes":[0E0],"parents":[2147483647],"right_children":[-1],"split_conditions":[-5.8475877E-8],"split_indices":[0],"split_type":[0],"sum_hessian":[4.32E2],"tree_param":{"num_deleted":"0","num_feature":"3","num_nodes":"1","size_leaf_vector":"1"}},{"base_weights":[-1.9491958E-7],"categories":[],"categories_nodes":[],"categories_segments":[],"categories_sizes":[],"default_left":[0],"id":89,"left_children":[-1],"loss_changes":[0E0],"parents":[2147483647],"right_children":[-1],"split_conditions":[-5.8475877E-8],"split_indices":[0],"split_type":[0],"sum_hessian":[4.32E2],"tree_param":{"num_deleted":"0","num_feature":"3","num_nodes":"1","size_leaf_vector":"1"}},{"base_weights":[-1.9491958E-7],"categories":[],"categories_nodes":[],"categories_segments":[],"categories_sizes":[],"default_left":[0],"id":90,"left_children":[-1],"loss_changes":[0E0],"parents":[2147483647],"right_children":[-1],"split_conditions":[-5.8475877E-8],"split_indices":[0],"split_type":[0],"sum_hessian":[4.32E2],"tree_param":{"num_deleted":"0","num_feature":"3","num_nodes":"1","size_leaf_vector":"1"}},{"base_weights":[-1.9491958E-7],"categories":[],"categories_nodes":[],"categories_segments":[],"categories_sizes":[],"default_left":[0],"id":91,"left_children":[-1],"loss_changes":[0E0],"parents":[2147483647],"right_children":[-1],"split_conditions":[-5.8475877E-8],"split_indices":[0],"split_type":[0],"sum_hessian":[4.32E2],"tree_param":{"num_deleted":"0","num_feature":"3","num_nodes":"1","size_leaf_vector":"1"}},{"base_weights":[-1.9491958E-7],"categories":[],"categories_nodes":[],"categories_segments":[],"categories_sizes":[],"default_left":[0],"id":92,"left_children":[-1],"loss_changes":[0E0],"parents":[2147483647],"right_children":[-1],"split_conditions":[-5.8475877E-8],"split_indices":[0],"split_type":[0],"sum_hessian":[4.32E2],"tree_param":{"num_deleted":"0","num_feature":"3","num_nodes":"1","size_leaf_vector":"1"}},{"base_weights":[-1.9491958E-7],"categories":[],"categories_nodes":[],"categories_segments":[],"categories_sizes":[],"default_left":[0],"id":93,"left_children":[-1],"loss_changes":[0E0],"parents":[2147483647],"right_children":[-1],"split_conditions":[-5.8475877E-8],"split_indices":[0],"split_type":[0],"sum_hessian":[4.32E2],"tree_param":{"num_deleted":"0","num_feature":"3","num_nodes":"1","size_leaf_vector":"1"}},{"base_weights":[-1.9491958E-7],"categories":[],"categories_nodes":[],"categories_segments":[],"categories_sizes":[],"default_left":[0],"id":94,"left_children":[-1],"loss_changes":[0E0],"parents":[2147483647],"right_children":[-1],"split_conditions":[-5.8475877E-8],"split_indices":[0],"split_type":[0],"sum_hessian":[4.32E2],"tree_param":{"num_deleted":"0","num_feature":"3","num_nodes":"1","size_leaf_vector":"1"}},{"base_weights":[-1.9491958E-7],"categories":[],"categories_nodes":[],"categories_segments":[],"categories_sizes":[],"default_left":[0],"id":95,"left_children":[-1],